timestamp,position,velocity,effort
1620845024473212124,0.002590340301165166,-0.00028892354677293483,-19.95957350972978
1620845024481212124,0.0026131777317005746,0.0001439964295038032,-19.924958200210828
1620845024489212124,0.0026200416591052223,0.00027225697679461233,-19.926945067120666
1620845024497212124,0.0026397714181876125,0.0005816703396759816,-20.08368430026855
1620845024505212124,0.0026563123539138406,0.0007882992985111787,-20.09835864451968
1620845024513212124,0.002639528816419821,0.00036085898125137413,-20.147705898709575
1620845024568340148,0.0025761968430460663,-0.0006378948081452094,-20.049281264956484
1620845024569340148,0.0025755626085616984,-0.000637693770101426,-20.008293866181365
1620845024570340148,0.0025749345251753417,-0.0006372395527923542,-19.967703982081147
1620845024571340148,0.0025911251876672018,-0.0003040254456108884,-19.908943722761133
1620845024572340148,0.0026074372141152726,2.5071302855748663e-05,-19.849743001091102
1620845024573340148,0.0026061560864728806,-7.998633464998854e-07,-19.89350347851643
1620845024574340148,0.0026049664607467296,-2.4346720392563948e-05,-19.93413845351477
1620845024577340148,0.002601371345059812,-9.26235176888097e-05,-19.99588579440242
1620845024585340148,0.0025930469589778766,-0.00023273836838097624,-20.603421479259595
1620845024593340148,0.0025857984677138146,-0.00033157037832123675,-23.42008097305153
1620845024601340148,0.0026091407677615,0.0001445436962798239,-27.161035923018417
1620845024609340148,0.0026793526843185,0.001447051546666704,-32.33557947875713
1620845024617340148,0.002881183387273377,0.00503109276628818,-38.155098508322794
1620845024625340148,0.003383085609705316,0.01363926497776646,-44.77825589131079
1620845024633340148,0.0042717661952395855,0.02817373564660398,-51.219539800798195
1620845024641340148,0.005765992415778563,0.051783600378393455,-57.516952573313304
1620845024649340148,0.007870607155359938,0.08322513410350382,-63.08193854305902
1620845024657340148,0.010558118389857474,0.1207549179204929,-68.13342265564118
1620845024665340148,0.013833507041480448,0.16325236795604908,-72.45646357102237
1620845024673340148,0.017455227315797982,0.20601761292234566,-76.0852574976216
1620845024681340148,0.021304307448058495,0.24735629012773436,-79.66573980384638
1620845024689340148,0.025448343340189146,0.28747195736690506,-83.64716964727796
1620845024697340148,0.029895539273440786,0.3264530061842089,-87.5149373018299
1620845024705340148,0.03446181100475994,0.3625430907520315,-90.9947628714
1620845024713340148,0.03916871591223164,0.3969624177665577,-93.43065981388683
1620845024721340148,0.04409191074007166,0.429294491389862,-96.1688179649202
1620845024729340148,0.0491273465305143,0.45834707105048295,-98.63460533620653
1620845024737340148,0.054333886325261836,0.4859272795488467,-101.0275095816389
1620845024745340148,0.059430990358743475,0.5099174981375452,-103.06263826845851
1620845024753340148,0.06477586782307111,0.5333975685754205,-105.49040853381659
1620845024761340148,0.07030033238107851,0.555479035499688,-107.7424786168529
1620845024769340148,0.07582192399551577,0.575019410283889,-109.55102461454075
1620845024777340148,0.08130740262615399,0.5926999656977004,-111.29994718589614
1620845024785340148,0.08691702847567627,0.6090623459683777,-113.3308402265797
1620845024793340148,0.09264070437674192,0.6233840797556904,-115.25392523341588
1620845024801340148,0.09836464444299658,0.6360947852475783,-116.79876129455474
1620845024809340148,0.10392892472005244,0.6473141859217719,-118.51228850960516
1620845024817340148,0.10971741615177452,0.6583798672654606,-120.17599740833064
1620845024825340148,0.11559855478604844,0.6685794516559175,-121.46918058743597
1620845024833340148,0.1214866912850273,0.6782098579506547,-122.93402143468924
1620845024841340148,0.12734841167751396,0.6880894945657483,-123.66422989218533
1620845024849340148,0.1334874580102462,0.6996175685852017,-124.55846960038181
1620845024857340148,0.13981053869202464,0.712360319582256,-125.22257424927308
1620845024865340148,0.14621642295619466,0.7248039248436658,-125.32148008017242
1620845024873340148,0.1525539540821015,0.7364196501038871,-125.44168882597185
1620845024881340148,0.15916622192740065,0.7496012638430063,-125.22022363285737
1620845024889340148,0.16604298230638462,0.7644987805984217,-124.79048925271016
1620845024897340148,0.1731863257072197,0.7823126671593983,-123.6304901356761
1620845024905340148,0.18030734949538477,0.8013146501529107,-121.99404141313498
1620845024913340148,0.18783247383954613,0.8219922920094359,-119.97603520666958
1620845024921340148,0.19563865476900932,0.8433324495830816,-117.45221708808975
1620845024929340148,0.2036342407270289,0.8653698483855353,-114.7169878450722
1620845024937340148,0.2116436199982811,0.887988604503364,-110.70350498902224
1620845024945340148,0.21991531211238666,0.9095871937551503,-107.45131558386863
1620845024953340148,0.22829667372227958,0.9286304665244257,-104.4372049285361
1620845024961340148,0.23674213766492277,0.9457270543228197,-101.85004416229947
1620845024969340148,0.2448898571382956,0.9596846527689153,-99.48712827190235
1620845024977340148,0.25330436487042945,0.9731052034858481,-97.52563470993809
1620845024985340148,0.2619062581401735,0.9859539270177755,-95.3629553091588
1620845024993340148,0.2703795307252413,0.996213046041183,-93.5450547400565
1620845025001340148,0.2786775886867827,1.005294452992443,-91.98188940925594
1620845025009340148,0.2871756844981214,1.0138992764523134,-90.09555028568494
1620845025017340148,0.2957888189726552,1.0221788876759956,-88.14651285391344
1620845025025340148,0.3045083356682431,1.0304675336153624,-86.49862145227934
1620845025033340148,0.3130304854187779,1.0379940342417262,-85.09369390879088
1620845025041340148,0.32175080762898983,1.045819724194319,-83.50873895995005
1620845025049340148,0.33067765552412387,1.0537553260611687,-81.75627647482872
1620845025057340148,0.3395436866157262,1.0614283497602448,-80.18766845465484
1620845025065340148,0.3482493069941005,1.0683721993844373,-78.86292590459391
1620845025073340148,0.3571556965390154,1.0750545626011756,-77.35814465106314
1620845025081340148,0.36603622719651685,1.0795181464341723,-75.97624755259494
1620845025089340148,0.3750711350495752,1.0841435850595251,-74.61071121082526
1620845025097340148,0.38376301499328064,1.087866008650742,-73.18455398155818
1620845025105340148,0.39265917159821123,1.0915780883158521,-72.01054509534728
1620845025113340148,0.4016862915411966,1.0951842818077984,-70.84890578377092
1620845025121340148,0.4106738424508792,1.0976688248641973,-69.72852581860168
1620845025129340148,0.4193855836546761,1.0998084200921683,-68.64752598274661
1620845025137340148,0.4282742105212054,1.1016353934786125,-67.55299635063142
1620845025145340148,0.4371745547768346,1.1021968740554302,-66.6870240817039
1620845025153340148,0.44607233964941706,1.1021436827805597,-65.80327595871375
1620845025161340148,0.4547282523177261,1.1015657494354318,-64.83623411295977
1620845025169340148,0.46346718204147275,1.100464826652467,-63.97133721478008
1620845025177340148,0.4722177200386318,1.09771834560381,-63.42326197887185
1620845025185340148,0.480819655009875,1.0930978910926512,-62.49488634921698
1620845025193340148,0.4892028886518252,1.0890420835614694,-61.945475050251126
1620845025201340148,0.497653649238777,1.0844107798364293,-61.104894340915955
1620845025209340148,0.506115720350437,1.0790924593733522,-60.36158087346422
1620845025217340148,0.5145100250087615,1.0737848215764136,-59.61530972337449
1620845025225340148,0.5227671808770138,1.0698186792173723,-58.79866766099032
1620845025233340148,0.5310599517178641,1.0648192912853893,-58.06284954939686
1620845025241340148,0.539440371149715,1.0604586840935544,-57.22921324456769
1620845025249340148,0.5477144153665605,1.0556081219232039,-56.40635395023907
1620845025257340148,0.5557663891110763,1.0510507752592282,-55.84236916797895
1620845025265340148,0.5639054890301303,1.0463197825808186,-55.3109104709772
1620845025273340148,0.5720729699229146,1.04046996307282,-54.670527575670164
1620845025281340148,0.5801136171777552,1.0349926129791556,-54.39065125570325
1620845025289340148,0.5879677356979123,1.0291076534108028,-53.9290871975632
1620845025297340148,0.5959055287066056,1.0238872951221525,-53.778651450447846
1620845025305340148,0.6039111527692145,1.0182503024200567,-53.39664668660789
1620845025313340148,0.6117936107067606,1.0121455719037302,-53.16453923331384
1620845025321340148,0.6194424322781773,1.007233450287817,-52.760052414564946
1620845025329340148,0.6272175614886207,1.002087655855696,-52.43766279235761
1620845025337340148,0.6349859579942734,0.9966777221710377,-51.96782936986345
1620845025345340148,0.6426441912766928,0.9915262669011027,-51.61615069733796
1620845025353340148,0.6502571421303732,0.9856104736211073,-51.117255009291924
1620845025361340148,0.6578412311794005,0.9801394194659769,-50.71946774238075
1620845025369340148,0.665404631578488,0.9738475390252184,-50.41072008694716
1620845025377340148,0.6728708500022741,0.9682215345783699,-50.01592353435029
1620845025385340148,0.6803299582644592,0.9633711490729762,-49.77367851474406
1620845025393340148,0.6877864911380503,0.9585621463976088,-49.54606662001579
1620845025401340148,0.6953099969788673,0.9537361739781982,-49.41679227564743
1620845025409340148,0.7026731364652287,0.9484428715679315,-49.414161363653704
1620845025417340148,0.709877569297527,0.9443191607266739,-49.5648415412167
1620845025425340148,0.7172705582246431,0.9407441905053644,-49.530759030729335
1620845025433340148,0.724654932254298,0.9365975538763402,-49.35202483491355
1620845025441340148,0.7319598806695525,0.9328494972664103,-49.16565877689909
1620845025449340148,0.7391313688284998,0.9295522181993838,-48.85586539247552
1620845025457340148,0.7463872671942064,0.926513864847509,-48.77596223192728
1620845025465340148,0.753898588261938,0.927554046464037,-48.861501305585264
1620845025473340148,0.7615178706609744,0.9297843504082176,-48.8580472246101
1620845025481340148,0.7690978305987919,0.9344952663496011,-48.932626434084916
1620845025489340148,0.776906024935286,0.9408928481421573,-48.692059149820324
1620845025497340148,0.7849203504241692,0.9476225270606624,-48.546123219909234
1620845025505340148,0.7928741513411519,0.9544709435392617,-48.40405597226729
1620845025513340148,0.8007769047256604,0.9616491397127765,-47.976453486667374
1620845025521340148,0.8089037541165203,0.9689363993178353,-47.912070973575446
1620845025529340148,0.8170854362630314,0.9754567631429242,-47.882860595880025
1620845025537340148,0.8252630023310349,0.9811730177689799,-48.023603064878316
1620845025545340148,0.8331958061467797,0.9864398813553149,-48.18258533181911
1620845025553340148,0.8413126444976289,0.990337137971728,-48.279025975675296
1620845025561340148,0.8495693132387887,0.9943833573829715,-48.607750116033806
1620845025569340148,0.8577450237621741,0.9978993209143273,-48.86842859888158
1620845025577340148,0.8657013435864217,1.0002043468995483,-49.11535460982242
1620845025585340148,0.8738225574250983,1.0024701527204407,-49.46459994846351
1620845025593340148,0.8820109999422378,1.0049024399784585,-49.47291199960121
1620845025601340148,0.8902664970445425,1.0071022438744741,-49.61907711535661
1620845025609340148,0.8982722847644024,1.008650598919439,-49.91767548354598
1620845025617340148,0.9063615222385369,1.0089953864843084,-50.190448203736565
1620845025625340148,0.9137038474209567,1.0090439089333614,-50.54556449509346
1620845025633340148,0.9224623472809358,1.0076840678831136,-50.62735755574904
1620845025641340148,0.930457707013614,1.0071027437235687,-50.69853065007333
1620845025649340148,0.9384280495918946,1.0054195130672803,-50.8556626110532
1620845025657340148,0.9464649534164735,1.0028443940335396,-51.03064552762826
1620845025665340148,0.9543510219543415,0.9996343644285426,-51.21043672181992
1620845025673340148,0.9619904936529747,0.996303829307459,-51.36294163758954
1620845025681340148,0.9698555078297261,0.9939485471227822,-51.60583152814915
1620845025689340148,0.9777608455832449,0.9918208298762501,-51.55337922098398
1620845025697340148,0.985603807971297,0.9888953205065141,-51.7740638678043
1620845025705340148,0.9931855307154888,0.9855942668173893,-51.90187205883602
1620845025713340148,1.0008417038167037,0.9813239545393672,-52.11791432023205
1620845025721340148,1.0085559630273369,0.9762814101932216,-52.51524064265804
1620845025729340148,1.0161164195229997,0.9703382933397896,-52.8421930888388
1620845025737340148,1.0233736582977984,0.9647611157355639,-53.29770924793669
1620845025745340148,1.030694206510087,0.9574482323529867,-53.95381879426211
1620845025753340148,1.0380890804005662,0.9511679861632935,-54.55891081966195
1620845025761340148,1.0453735317908595,0.944421349099783,-55.069985815636606
1620845025769340148,1.0525608245793778,0.939522868549026,-55.394627557794216
1620845025777340148,1.0598022064073342,0.9344124392464123,-55.80747295469547
1620845025785340148,1.0670500054256804,0.929305267568378,-56.06822220051356
1620845025793340148,1.0743077014598927,0.9247801572492798,-56.42285750193582
1620845025801340148,1.0814071740532452,0.9212049827727696,-56.73755560318198
1620845025809340148,1.0885839807061384,0.9178988678327773,-56.93635480757645
1620845025817340148,1.0957167497337723,0.9135275475438515,-57.150984704684305
1620845025825340148,1.1028339475571733,0.9090540105492542,-57.51789412623341
1620845025833340148,1.1098011832942296,0.9046515587384995,-57.53529763022311
1620845025841340148,1.1167558550302157,0.8992320382865927,-57.662442145608274
1620845025849340148,1.1236811860404325,0.8927308296158403,-57.82259250912258
1620845025857340148,1.1304673605740954,0.8854740791354525,-58.054062567664296
1620845025865340148,1.1370031972501597,0.877439657506474,-58.14553032490281
1620845025873340148,1.1438775669893675,0.8752136530115935,-58.29265964686666
1620845025881340148,1.151198742150773,0.8794787107978058,-58.47465973582896
1620845025889340148,1.158809351010051,0.8889162997463572,-58.62890693768476
1620845025897340148,1.1663079999950245,0.8990419048969897,-58.94204182528053
1620845025905340148,1.1741376882651076,0.9110313316932943,-59.26121293626993
1620845025913340148,1.182181548430749,0.923284284198391,-59.66557050126973
1620845025921340148,1.1902531242612397,0.9351822678563722,-60.22216219718774
1620845025929340148,1.1981800123594475,0.9458310769190288,-60.629138363699816
1620845025937340148,1.2062157395098725,0.9547853435787439,-61.160776471947294
1620845025945340148,1.2143440705316324,0.9627040833962024,-61.80313251185837
1620845025953340148,1.2224560020267234,0.9691302520391989,-62.44703161784074
1620845025961340148,1.2303566261341394,0.9740351904924783,-63.07653096934099
1620845025969340148,1.2383633334055688,0.9780557148261863,-63.234649097236115
1620845025977340148,1.2463490532473558,0.9790994501592227,-63.65170900110382
1620845025985340148,1.254253210130931,0.9796764424585602,-64.1626507509377
1620845025993340148,1.261830727625163,0.9773539206741046,-64.66481022637579
1620845026001340148,1.2694723706386195,0.974056960130802,-65.38323365410108
1620845026009340148,1.2770510623647753,0.9692269476203629,-65.89385582308533
1620845026017340148,1.284664819104535,0.9657863154312778,-66.36417283452232
1620845026025340148,1.2921108989581984,0.9625016300862486,-66.87727824797174
1620845026033340148,1.2995601500890233,0.957710598662905,-67.41288302399748
1620845026041340148,1.307152605792549,0.9542337806412555,-68.30269033769157
1620845026049340148,1.3144677972289562,0.9476344332498777,-68.96829888079286
1620845026057340148,1.3215553574869692,0.9416174716148207,-69.70834035904056
1620845026065340148,1.3287366327031387,0.9351239758162933,-70.26494795449146
1620845026073340148,1.3359661989984606,0.9282239380049847,-70.66889476179472
1620845026081340148,1.3429536913873896,0.9203591935175943,-71.34993545424868
1620845026089340148,1.3497395143450377,0.911146055988007,-72.38603255354029
1620845026097340148,1.356575371944559,0.9030728739426895,-73.38116503724466
1620845026105340148,1.363397414418566,0.894817641383124,-74.6011018454467
1620845026113340148,1.3701646752128522,0.8867524336880066,-75.81262593888391
1620845026121340148,1.3767865668312007,0.8789989469027363,-76.51873616645658
1620845026129340148,1.383202826017316,0.8683690689557801,-78.05901578020843
1620845026137340148,1.3896589145891582,0.8577982206855131,-79.00922684424644
1620845026145340148,1.3959423595722142,0.8458341121791935,-80.42868296163604
1620845026153340148,1.4019534968628216,0.8344580696543653,-81.733317299304
1620845026161340148,1.4080025696246756,0.8224242741268841,-83.28694866725795
1620845026169340148,1.4140094181738203,0.8097775134636017,-84.63923592880475
1620845026177340148,1.4198185830745857,0.7975551675500542,-85.99285441926284
1620845026185340148,1.425446583872403,0.7856614233411925,-87.06616000962751
1620845026193340148,1.4310681572562967,0.7735050316268363,-88.57186129172922
1620845026201340148,1.436525198615403,0.7590951123020391,-90.20279964562478
1620845026209340148,1.4419530042342723,0.7459373891702503,-92.135668324196
1620845026217340148,1.4470041080481981,0.7309732654280438,-93.71454430768593
1620845026225340148,1.452042964564482,0.7159509822472593,-95.52291929249849
1620845026233340148,1.4569476766160045,0.7003174487387803,-97.43965728211211
1620845026241340148,1.4617760106659288,0.6859864964306646,-99.46707921939604
1620845026249340148,1.466444875955356,0.6711569879950864,-101.54191965667647
1620845026257340148,1.4708421328240147,0.6531636938119068,-103.55401391271342
1620845026265340148,1.4752938839645127,0.6376928580878544,-106.07676905567499
1620845026273340148,1.4795430839997408,0.6217364263506824,-108.58726069964337
1620845026281340148,1.4836340131040853,0.6067740880562913,-111.64396589688799
1620845026289340148,1.4874739932490242,0.5878124694998392,-115.5077927302859
1620845026297340148,1.4911165906361479,0.5675847900179648,-119.64191476549897
1620845026305340148,1.49459335016418,0.5477019723259836,-124.00859250634332
1620845026313340148,1.4979645284796732,0.5296081760877462,-128.37684345062755
1620845026321340148,1.5012057115686421,0.5114425807770223,-133.19719810500152
1620845026329340148,1.504395297122887,0.49391173196764615,-138.41133694531294
1620845026337340148,1.5074628164394543,0.4776189799729665,-143.63103655553817
1620845026345340148,1.5104419323996696,0.4624594301700524,-148.97012421041146
1620845026353340148,1.5133754864508122,0.448525030152306,-154.60375766011788
1620845026361340148,1.516363148460145,0.43652281993054515,-160.1870327498102
1620845026369340148,1.5192078987313085,0.4242514844572229,-165.7749619430911
1620845026377340148,1.52195796285879,0.41360075365114096,-171.07056973920808
1620845026385340148,1.5246693883109348,0.402576133495576,-176.1125340023
1620845026393340148,1.5272532097036835,0.3905000856168449,-181.7600433488468
1620845026401340148,1.5297500860320759,0.37860051830256225,-187.0876018634891
1620845026409340148,1.5320844502124304,0.36621876008270604,-192.64401461327668
1620845026417340148,1.5343930141529236,0.3546815636031063,-198.16457851318438
1620845026425340148,1.5366139727576424,0.34270847278939526,-203.54878341310763
1620845026433340148,1.5387233673898129,0.3309796403383372,-208.9717849773551
1620845026441340148,1.5407936140269995,0.3209422742214598,-214.20920380889197
1620845026449340148,1.5427567726077744,0.30976176749197076,-219.5043966297457
1620845026457340148,1.5447275617418954,0.3002540642802213,-224.86892759914036
1620845026465340148,1.546561268873668,0.2894201394134651,-230.34423204790605
1620845026473340148,1.5483283315550214,0.2796934590813796,-235.57280884983854
1620845026481340148,1.5500029624521645,0.2690979942736386,-240.42836175755733
1620845026489340148,1.5515304409042394,0.2570716573315504,-245.16840280644908
1620845026497340148,1.5528205027849082,0.24284559362315203,-249.94211849521844
1620845026505340148,1.554099451789057,0.2311045633257975,-254.64589221364614
1620845026513340148,1.5553880663184367,0.22070001041015386,-259.56423457409977
1620845026521340148,1.5565006465219402,0.2081322309943077,-264.20958812581057
1620845026529340148,1.557439378307234,0.19449294608028544,-268.66321306825307
1620845026537340148,1.5583957389193652,0.18398180592800703,-273.2072151032305
1620845026545340148,1.559200062870599,0.17172049288811386,-277.7108330550593
1620845026553340148,1.559920416275859,0.15933849767586036,-282.19449626160986
1620845026561340148,1.560675074343623,0.1495209253821091,-286.2576602400576
1620845026569340148,1.5613961879988043,0.14113425908641541,-290.20138951941937
1620845026577340148,1.5620465384725706,0.1322468856623224,-294.1443431296974
1620845026585340148,1.562608616173001,0.12285721566784975,-297.7600430569738
1620845026593340148,1.5630582129650366,0.11273979163586913,-301.34433235018133
1620845026601340148,1.563487110489863,0.10426561258746912,-304.5539960760944
1620845026609340148,1.5638895300923734,0.09633337569742889,-307.2962515982323
1620845026617340148,1.5642045030052594,0.08781202217336874,-309.9689558369825
1620845026625340148,1.564469825413569,0.07978401965403654,-312.9437559899413
1620845026633340148,1.5647553521902506,0.07323797130871944,-315.97346034742156
1620845026641340148,1.5650290877975739,0.06752610797033366,-318.53773095311016
1620845026649340148,1.5652347679360927,0.06122237490777387,-321.00391441064096
1620845026657340148,1.5653792482430755,0.05474304238992582,-323.39012042470443
1620845026665340148,1.565470236580199,0.04849354030278075,-325.3803262111815
1620845026673340148,1.5655777913023121,0.043261180884394144,-326.8723716980708
1620845026681340148,1.5656724925152288,0.038634288415467455,-328.0923609487061
1620845026689340148,1.5657514920730553,0.034319860532148465,-329.0828599192468
1620845026697340148,1.565788846068789,0.02999830952653283,-329.57514906713556
1620845026705340148,1.5658501715174933,0.026675796658498035,-329.8717761795101
1620845026713340148,1.5658735103515522,0.023144171279109033,-329.8160361319037
1620845026721340148,1.5658933122421834,0.02008418679098636,-329.3652340875541
1620845026729340148,1.56594022742638,0.018013939498698985,-329.2041792956782
1620845026737340148,1.5659501510503535,0.015532270613047742,-328.7183802210171
1620845026745340148,1.5659587002447193,0.013366787602370138,-327.95810467699863
1620845026753340148,1.565994450999181,0.012004089824885917,-327.23801750725727
1620845026761340148,1.5659963139430284,0.010299910019566977,-326.42832607336015
1620845026769340148,1.5659678095357945,0.008245419183762624,-325.7016618689398
1620845026777340148,1.5659737337544688,0.007118019882635249,-325.06418344328443
1620845026785340148,1.5659786816237884,0.006160488246550987,-324.4998160011098
1620845026793340148,1.565982865727313,0.00533748040135942,-323.889651186996
1620845026801340148,1.5659864937620156,0.0046122958275309715,-323.5317362420568
1620845026809340148,1.5659618898880738,0.0035000264141802264,-323.07934256204294
1620845026817340148,1.565998801815258,0.0036638060480167875,-322.7183053508685
1620845026825340148,1.5660000387070312,0.0031542471680523388,-322.2903785920324
1620845026833340148,1.566001112233721,0.002708590618365937,-321.8648291676
1620845026841340148,1.5660020314767777,0.00232404011166843,-321.7342434202821
1620845026849340148,1.5659721372145763,0.0013971923964653061,-321.14153599088917
1620845026857340148,1.565977295718904,0.001287507508208924,-320.84034348325605
1620845026865340148,1.5660103976831559,0.001689563943527093,-320.3013126449834
1620845026873340148,1.5659794466710568,0.0008395581214430029,-320.3933788569804
1620845026881340148,1.565983580731529,0.0007912325467309113,-320.6387427210501
1620845026889340148,1.5659870727626763,0.0007392436231605892,-321.09830558810233
1620845026897340148,1.5659900669414863,0.000685109150110069,-321.3390864658331
1620845026905340148,1.5660243627533672,0.0012460203535004475,-321.3628601564104
1620845026913340148,1.5660218439697813,0.0010154795983600055,-321.21273976516505
1620845026921340148,1.5660197079954175,0.0008267887452727573,-321.51336747963137
1620845026929340148,1.5660479918677954,0.0012307815784297319,-321.4000947654606
1620845026937340148,1.5660419488218862,0.0009365337527341292,-321.3695979999659
1620845026945340148,1.5660367571457618,0.0007005173991823241,-321.2525559115022
1620845026953340148,1.5660048386584762,3.883236729652192e-05,-321.05024827882175
1620845026961340148,1.5660052039665144,3.9839114379817984e-05,-321.0957739055736
1620845026969340148,1.5660363851777706,0.0006381703750525378,-320.7469015702404
1620845026977340148,1.5659996441024688,-0.00017812757771946378,-320.83312111387
1620845026985340148,1.5660007611909434,-0.0001315526452379799,-320.67737739677625
1620845026993340148,1.566031495202472,0.0004714501901391003,-320.6425786395153
1620845027001340148,1.5660279045227783,0.00033524678621167664,-320.8014404576219
1620845027009340148,1.5660248228708467,0.0002282995649912138,-320.3559408303487
1620845027017340148,1.5660222785803963,0.00014812826889080706,-320.2170491618666
1620845027025340148,1.566020064665004,8.538443316660649e-05,-319.9725410119877
1620845027033340148,1.5660181511112163,3.732567110059549e-05,-320.1950920479689
1620845027041340148,1.5660465747992443,0.0005487107381953276,-321.20639464285136
1620845027049340148,1.5660408521164524,0.0003630529973647034,-322.5097425077877
1620845027057340148,1.5660062473116156,-0.0003455355427486925,-324.2125523883742
1620845027065340148,1.5660064061886165,-0.0002911227101600093,-325.6704831059516
1620845027073340148,1.5660065416212774,-0.000245176603734737,-326.95630346538195
1620845027081340148,1.5660066537484947,-0.00020749447793167288,-328.59076714298976
1620845027089340148,1.5660388661206721,0.00046085753803073147,-330.18752416209924
1620845027097340148,1.5660341321804165,0.0003045186042631248,-331.268710025251
1620845027105340148,1.5660575203452225,0.0006511869228795176,-332.1777616501323
1620845027113340148,1.5660776411189303,0.0008988561598808741,-333.189317482326
1620845027121340148,1.5660672465976142,0.0005742885643555526,-334.61327014342294
1620845027129340148,1.5660299178820882,-0.00015806318720428303,-336.10366199435873
1620845027137340148,1.5659947285363152,-0.0008133725762062066,-337.53007004244483
1620845027145340148,1.5659965450206108,-0.0006623998413181344,-338.88186216893
1620845027153340148,1.5659681577844813,-0.0011047835593471069,-340.21012909266705
1620845027161340148,1.565913681371103,-0.0019413730465900865,-341.00238747953256
1620845027169340148,1.565898957664688,-0.001906240313672071,-341.5391149479321
1620845027177340148,1.5658832204618336,-0.0019614108502855995,-341.91979526111464
1620845027185340148,1.5658705333824228,-0.0019354944182974558,-342.24039544284847
1620845027193340148,1.5658634559430629,-0.0017488367236786926,-342.3694000078654
1620845027201340148,1.5658849052624164,-0.0010927845114598884,-342.47017074169196
1620845027209340148,1.5658452333682367,-0.0016396798226891386,-342.3979123811555
1620845027217340148,1.5658087520900585,-0.0020806060073878026,-342.0031289704349
1620845027225340148,1.565778898647983,-0.0023341979375552614,-341.6170865869131
1620845027233340148,1.565752711092631,-0.0024791895169281003,-341.2089232776976
1620845027241340148,1.5657361108318588,-0.0023722736913517886,-340.85524417281556
1620845027249340148,1.5657200874626374,-0.002259180582253657,-340.4311644942154
1620845027257340148,1.5657314262726632,-0.0017558315877644003,-340.1373548784267
1620845027265340148,1.565714311371175,-0.0018589954299639403,-339.5418119303005
1620845027273340148,1.5656721741695236,-0.0023478047330999516,-339.044265129983
1620845027281340148,1.5655762349803657,-0.003743033719136574,-338.7386948773422
1620845027289340148,1.5655550570134888,-0.003519640841576575,-338.25354675511056
1620845027297340148,1.565591877511371,-0.0023226479210241365,-338.02062953940344
1620845027305340148,1.5656239511482815,-0.0013835443939404753,-337.6677739664512
1620845027313340148,1.5655890375215464,-0.001877105601818155,-337.2741014754987
1620845027321340148,1.565594100421881,-0.0014450585835777666,-337.0492877644116
1620845027329340148,1.5655961535575111,-0.001179426213023087,-336.6379711104511
1620845027337340148,1.5655066450592836,-0.002733020385517721,-336.34228385679666
1620845027345340148,1.5655508481954492,-0.0015304519030559648,-336.01077561281585
1620845027353340148,1.5654973703869548,-0.00236011330798028,-335.8035813697665
1620845027361340148,1.565512201743637,-0.001757133381443959,-335.57348710333616
1620845027369340148,1.5655249818040533,-0.0012628845496373265,-335.33238208561505
1620845027377340148,1.5655687430201433,-0.00022930838496461,-335.10980605921344
1620845027385340148,1.5656043580326104,0.0004566237316402149,-334.95084720444
1620845027393340148,1.5656326323012855,0.0008651878131444343,-334.6211583008719
1620845027401340148,1.5655970418320708,4.324148398661832e-05,-334.3068736230626
1620845027409340148,1.5655679640986209,-0.0005439243545440276,-333.82144977184237
1620845027417340148,1.5655425183333058,-0.0009850132764461423,-333.5510822990656
1620845027425340148,1.56552449104984,-0.0011316564024016693,-333.1522859034953
1620845027433340148,1.565505443333203,-0.0013233986312132656,-332.8050135724728
1620845027441340148,1.565551071520966,-0.0002678117843286921,-332.34259709610916
1620845027449340148,1.5655885392816915,0.0004334128117014953,-332.0701185120976
1620845027457340148,1.5655929289398027,0.0004845654693395088,-331.6475140482018
1620845027465340148,1.5656532297393708,0.0015277589048643498,-331.26669855050085
1620845027473340148,1.5656484528013075,0.0012386978022848084,-330.9188531573467
1620845027481340148,1.5656708069571272,0.001434868232095594,-330.74354350093023
1620845027489340148,1.5657206935650783,0.002142005760059617,-330.4252190075517
1620845027497340148,1.5657340791821401,0.0020962258117997986,-330.0656662476512
1620845027505340148,1.5657744881002187,0.00253146954965035,-329.8484795906427
1620845027513340148,1.5657789111268468,0.002232440639671177,-329.68399060826476
1620845027521340148,1.565812802990542,0.0025260533978968577,-329.0831945829144
1620845027529340148,1.565783663380028,0.0016438814672897007,-329.0235998852247
1620845027537340148,1.565815573121401,0.001967212332080716,-328.6921325470013
1620845027545340148,1.5658440731042933,0.0022001943745593613,-328.45908362707206
1620845027553340148,1.5658405597156104,0.001846473978020208,-328.3787080087922
1620845027561340148,1.5658366993793016,0.0015374117376923736,-327.9686762339135
1620845027569340148,1.565830734133588,0.0011699929616202022,-327.95580575436276
