timestamp,position,velocity,effort
1620848089961442979,0.004352705339306007,-0.0008760299958804031,-1.0154964219616356
1620848089969442979,0.004370890466166432,-0.0004284425582258884,-0.7858032438238207
1620848089977442979,0.004372873985335661,-0.00032611184488986133,-0.7632497373240091
1620848089985442979,0.004389922608664704,5.4530491118181247e-05,-0.8527890907068568
1620848089993442979,0.0043884891510256,1.1807146301311849e-05,-0.8595308611605101
1620848090001442979,0.004373979382314502,-0.00024573653223555514,-0.8950271941959305
1620848090008913917,0.004371662364901896,-0.000257023107862534,-0.5753642491329864
1620848090016913917,0.00437354008449259,-0.0001820532632004392,-2.0654413545166226
1620848090024913917,0.004361628515915515,-0.00036719683893491673,-4.700412680343391
1620848090032913917,0.0043629567443398245,-0.00031433091687311956,-6.748348296886254
1620848090040913917,0.0043221400205564284,-0.00104463457924463,-8.477471263257453
1620848090048913917,0.004331876801184629,-0.0006917128514177453,-9.959330160104669
1620848090056913917,0.004309952839187885,-0.000991040173627047,-11.004983694705984
1620848090064913917,0.004261912516488416,-0.001748413961624033,-12.087073050881495
1620848090072913917,0.004277586680123122,-0.001217014545127266,-12.629897494608095
1620848090080913917,0.004266116347976987,-0.001216792587839841,-13.318491354993816
1620848090088913917,0.00425485923041123,-0.001239587135210415,-13.982903326501322
1620848090096913917,0.004243963400823271,-0.0012649093320478688,-14.347578422587352
1620848090104913917,0.004235297249097636,-0.0012596579976958703,-14.995889338266165
1620848090112913917,0.004258214310912661,-0.0006310586842196208,-15.441847880076013
1620848090120913917,0.00423391019075457,-0.0009795462045160375,-15.753092923583182
1620848090128913917,0.004197686627265975,-0.0014991026170366475,-15.671014576974834
1620848090136913917,0.004196165512955701,-0.0013220048564041996,-15.749108437771763
1620848090144913917,0.004225224406277946,-0.0005695919147742441,-16.19966799537568
1620848090152913917,0.004249089489596251,-3.604647120550371e-05,-16.299929164742284
1620848090160913917,0.004254162429302747,6.781075072661854e-05,-16.514894818678215
1620848090168913917,0.004217292560868906,-0.0006025900876051001,-16.69449967102107
1620848090176913917,0.00424171308684288,-7.240407675517107e-05,-16.624984007092447
1620848090184913917,0.004217498970000941,-0.000536617621088743,-16.907109638598467
1620848090192913917,0.004184701387152671,-0.0010548508041545565,-17.03905867687865
1620848090200913917,0.0041861977895038,-0.0008526390055916981,-16.96873687082626
1620848090208913917,0.004157454168658715,-0.0012657184763887066,-16.90231160633284
1620848090216913917,0.0041908491913794374,-0.00045182899483009486,-16.90924649417803
1620848090224913917,0.004160856904605592,-0.0009517563416628384,-17.09856644244673
1620848090232913917,0.004167426302943343,-0.0006491161167425917,-17.079329144320887
1620848090240913917,0.004155161203008797,-0.0007963478926371857,-17.03188954180136
1620848090248913917,0.004144027575881336,-0.0008947585510151245,-17.103964566083604
1620848090256913917,0.00413699143789156,-0.0008742236023359037,-16.820284740047633
1620848090264913917,0.0041420013049027924,-0.0006730699286365849,-17.03461616972737
1620848090272913917,0.004134478346119444,-0.0007231778273808576,-17.002043878473554
1620848090280913917,0.00415799998981522,-0.0001629881820017217,-17.00127986186915
1620848090288913917,0.0041321789896191395,-0.000633893836830582,-16.895318477085194
1620848090296913917,0.004142713800470331,-0.00030338384150944574,-16.71920803193984
1620848090304913917,0.004150115796855894,-0.00011308746710188291,-16.67497993665888
1620848090312913917,0.004126845774690891,-0.0005233000754849383,-16.76815056429764
1620848090320913917,0.004135494697768434,-0.0003068705017495176,-16.69828927712687
1620848090328913917,0.0041146654246269326,-0.0006379947740119285,-16.459846841446026
1620848090336913917,0.00411058729879854,-0.0006189189501839219,-16.230674926203722
1620848090344913917,0.004122240092166944,-0.00029336496104474254,-16.261321681822512
1620848090352913917,0.0041322629781845935,-6.342297310868219e-05,-16.31130082407706
1620848090360913917,0.0041265561607887495,-0.00017207654276127308,-16.166658644055836
1620848090368913917,0.004121205602300063,-0.00023866284624540155,-15.869657587036917
1620848090376913917,0.004146052551375705,0.00026633368903247615,-15.795474269653184
1620848090384913917,0.004136548306322004,1.796024330713324e-05,-15.853084095086682
1620848090392913917,0.0041593053869324196,0.0004530709172890674,-15.8795009809927
1620848090400913917,0.00416255394035062,0.0004422865338232217,-15.80296552956012
1620848090408913917,0.004121883488513526,-0.0003731583191935551,-15.743246336944178
1620848090416913917,0.004133557515573382,-9.048729780810423e-05,-15.313619571387234
1620848090424913917,0.004127555087092249,-0.00018368312684103054,-15.36376974258249
1620848090432913917,0.004136965293874825,2.5472856570386658e-05,-15.250410913885863
1620848090440913917,0.004159216305482781,0.0004379282326072209,-14.890798897806091
1620848090448913917,0.004134593402316977,-7.868529384533749e-05,-14.762999554875613
1620848090456913917,0.004127791268466366,-0.00021051712572693783,-14.597304940715775
1620848090464913917,0.004151540350889244,0.00026578296159108025,-14.492219415273421
1620848090472913917,0.004156811582774881,0.0003165335223067508,-14.418213952318922
1620848090480913917,0.004160752625996518,0.00032883278529816253,-13.919817233818414
1620848090488913917,0.00412204191377906,-0.00043391411353422855,-13.527955963964153
1620848090496913917,0.0041170089527145706,-0.00047318059435187557,-12.956348005868433
1620848090504913917,0.004084143201771553,-0.0010087549481831964,-12.732731708775617
1620848090512913917,0.004071693831585083,-0.0010682690003067338,-12.521543204039537
1620848090520913917,0.004061067173404417,-0.0010935735986828306,-12.243899822111741
1620848090528913917,0.004036635267284616,-0.0013824884542161337,-11.986013326887264
1620848090536913917,0.0040447202407596534,-0.0010264711356617192,-11.286712586077861
1620848090544913917,0.004036827341053066,-0.001022753380330503,-11.28165831289997
1620848090552913917,0.004016330556282891,-0.0012526760082993288,-11.029391098591015
1620848090560913917,0.004042872493585721,-0.0005512748022602828,-10.819022427928012
1620848090568913917,0.004050534923057289,-0.00031666987314832567,-10.587931087988213
1620848090576913917,0.0040274410430399185,-0.0006949636340477229,-10.295828313039674
1620848090584913917,0.0040354401467188284,-0.0004332341868743347,-10.354635453705853
1620848090592913917,0.004060294337582533,0.00012118800744034087,-10.000539069942345
1620848090600913917,0.004066042693016184,0.00024441381203146005,-9.758730704466913
1620848090608913917,0.00411308676958722,0.00105847143605753,-9.480897887724975
1620848090616913917,0.004122773828384167,0.0010635457985010647,-9.2069087652057
1620848090624913917,0.004133737334142608,0.0011407021778219006,-10.286415032362166
1620848090632913917,0.004170314994622031,0.0016613353103892689,-11.696696971091335
1620848090640913917,0.004216685560217603,0.0022831891906150634,-13.148255590510386
1620848090648913917,0.004211902472557232,0.001837658076788981,-14.706687644504349
1620848090656913917,0.004207822260566184,0.0014920165542989668,-15.928381413430028
1620848090664913917,0.004190251591476069,0.0009451359862718442,-17.230762104054403
1620848090672913917,0.004218486843084108,0.0013043360778557972,-18.777345852929546
1620848090680913917,0.004197013679837676,0.0006893568779324944,-20.619182280248978
1620848090688913917,0.004208930890158101,0.000785757111487299,-22.92289187793153
1620848090696913917,0.004190709679239853,0.00031600041618105976,-25.092449563571762
1620848090704913917,0.004160476517245978,-0.0003082157710527464,-27.691832961050086
1620848090712913917,0.0041218427895932715,-0.0009765592534348158,-30.069631396425795
1620848090720913917,0.004088389123998858,-0.0014489524826627714,-32.55252095886985
1620848090728913917,0.004031526798916302,-0.0022706752083711044,-35.524932746289416
1620848090736913917,0.003922390331419852,-0.0039712411886742615,-38.21373403805393
1620848090744913917,0.003731948998909314,-0.006942760009352747,-41.32063594098268
1620848090752913917,0.0033236092783216183,-0.013518428532627884,-44.80144674521019
1620848090760913917,0.0026214698629654083,-0.0245459942637656,-47.71446456607086
1620848090768913917,0.0014862172786614162,-0.0419877406353514,-50.59121605881365
1620848090776913917,-8.91238820497692e-05,-0.06512264044989413,-52.97599116657142
1620848090784913917,-0.002077542128782188,-0.09231556715125125,-55.11324823693778
1620848090792913917,-0.004436081305248382,-0.1222590124581567,-57.17312283591166
1620848090800913917,-0.006899239884639879,-0.14957161874620242,-58.797280331874866
1620848090808913917,-0.009336253260302574,-0.17279107434290594,-60.083314506125305
1620848090816913917,-0.01167567690330678,-0.19043526710086253,-61.43676603664099
1620848090824913917,-0.013886381844135959,-0.2028707785859585,-62.67275585901415
1620848090832913917,-0.015986592895993416,-0.2113108673605667,-63.95931343435339
1620848090840913917,-0.01793992186863599,-0.21669802801631677,-65.1638845988052
1620848090848913917,-0.01991216584826231,-0.22115714072660206,-66.13443115702792
1620848090856913917,-0.021915331342879832,-0.22539029105444586,-67.26992797174938
1620848090864913917,-0.023945993720244193,-0.229385316968407,-67.97342036252861
1620848090872913917,-0.025996324189894802,-0.23368129234952567,-68.59907852665307
1620848090880913917,-0.028190215230054987,-0.2397065733950982,-69.64294754580678
1620848090888913917,-0.03049127958282915,-0.24662839330593483,-70.21522812317933
1620848090896913917,-0.03284738351878527,-0.25366357262789113,-71.11404223200812
1620848090904913917,-0.035229577628607865,-0.26038388060760154,-71.73270297043031
1620848090912913917,-0.037656296339728085,-0.26677372485509687,-72.2547658897932
1620848090920913917,-0.040152800411178295,-0.2730829395997675,-73.21636707826826
1620848090928913917,-0.04267650138189674,-0.2793450626581327,-73.89360741366623
1620848090936913917,-0.045232658791863445,-0.2857845005566183,-74.79356937855815
1620848090944913917,-0.047863050199066046,-0.29195798338316886,-75.23384747562064
1620848090952913917,-0.050539265289845516,-0.2982911150274316,-75.83230795054443
1620848090960913917,-0.05328623275449524,-0.3046365798452136,-76.36511208654228
1620848090968913917,-0.05602532740446453,-0.3107424672374528,-77.0455939013649
1620848090976913917,-0.05883403225213003,-0.31672536034565824,-77.666507131978
1620848090984913917,-0.06167672290046426,-0.32220878713970286,-78.19840844324928
1620848090992913917,-0.06457966934730003,-0.32784247934175353,-78.84253819569972
1620848091000913917,-0.06747005452325873,-0.3334301590553337,-79.55677633080292
1620848091008913917,-0.07043205224186672,-0.338843968164023,-80.10575339412384
1620848091016913917,-0.07343204998181967,-0.34369862481743507,-80.5668640272474
1620848091024913917,-0.07642490608860515,-0.3477614574586618,-81.11884759972156
1620848091032913917,-0.0792950949076029,-0.3503736783721825,-81.90356974401061
1620848091040913917,-0.08225271117767669,-0.35318541643778467,-82.79989504292567
1620848091048913917,-0.08517793568896903,-0.35469418419460136,-83.42388489104235
1620848091056913917,-0.08817667058578091,-0.3573094311884201,-84.06839619434616
1620848091064913917,-0.0911495657822917,-0.36012532052385277,-84.63318850695235
1620848091072913917,-0.09414469470813132,-0.3621705409539463,-85.17382956997888
1620848091080913917,-0.09720976414795103,-0.364934175694627,-85.92500414923674
1620848091088913917,-0.10019262631688482,-0.3661683292527268,-86.57891408638821
1620848091096913917,-0.10314331206111042,-0.366795756501689,-86.98812764357544
1620848091104913917,-0.10608455571919201,-0.3666548062157545,-87.5364757697436
1620848091112913917,-0.10903052407727977,-0.366798905304834,-88.17861392809829
1620848091120913917,-0.11203360376137225,-0.36731709959733366,-88.93940543409883
1620848091128913917,-0.11491214122859181,-0.36750679892081184,-89.81161465976014
1620848091136913917,-0.11786455439360354,-0.36754409877941346,-90.14927655788634
1620848091144913917,-0.12075886334908861,-0.36612955006282843,-90.80449550463106
1620848091152913917,-0.12355866563500073,-0.3637924688353077,-91.2997852254756
1620848091160913917,-0.12626427611940275,-0.36056403074590526,-92.127741544786
1620848091168913917,-0.1289408114790299,-0.35675114057724044,-92.84300877404995
1620848091176913917,-0.1317024329750527,-0.3546781317742487,-93.83342727581785
1620848091184913917,-0.13445033415593205,-0.3528040288269721,-94.63360054370175
1620848091192913917,-0.1371402393562757,-0.35099925936195375,-95.05944069426349
1620848091200913917,-0.13986514511515993,-0.34947183237445995,-95.78976379641581
1620848091208913917,-0.14254535858400505,-0.3470758386351891,-96.30395779193915
1620848091216913917,-0.14519823889197633,-0.34461141730135497,-96.92386281299692
1620848091224913917,-0.147694332267998,-0.34018002174626255,-97.67053776508136
1620848091232913917,-0.15013972735299835,-0.3350114465073297,-98.31839308732833
1620848091240913917,-0.15250950851852507,-0.328937874032524,-99.08889471104945
1620848091248913917,-0.1547855989102474,-0.3224484146966288,-99.66642300377492
1620848091256913917,-0.15700698181273723,-0.316035252126191,-100.45508093550511
1620848091264913917,-0.15917699140809205,-0.30927701386781115,-100.99650581486208
1620848091272913917,-0.16130323218419262,-0.3026250633314009,-101.49788822002093
1620848091280913917,-0.16345637580535147,-0.29749000934752395,-102.17105932691783
1620848091288913917,-0.16556719123732483,-0.2930124057025606,-102.73113346028498
1620848091296913917,-0.16768946714482763,-0.2888870240641772,-103.33050155817948
1620848091304913917,-0.16986120768872556,-0.28565613314741517,-104.1523795236801
1620848091312913917,-0.17201866938806293,-0.2833738990905199,-104.98705577154001
1620848091320913917,-0.1741620165931027,-0.28164002195117094,-105.92554183189256
1620848091328913917,-0.1763235556377902,-0.2799606254506881,-106.60163350010528
1620848091336913917,-0.17841163411069555,-0.2770876144060023,-107.37618894669559
1620848091344913917,-0.1805342941069992,-0.27470903672974384,-108.07599086263248
1620848091352913917,-0.1825930984208829,-0.2726525574406932,-108.70526619904632
1620848091360913917,-0.1845968460059425,-0.2694580628190229,-109.70044231752263
1620848091368913917,-0.1865835719364993,-0.2660060416784288,-110.31328726611079
1620848091376913917,-0.18852494738028686,-0.2620958229388213,-111.36402972804687
1620848091384913917,-0.19038653986847337,-0.2584841585926472,-112.15225246894252
1620848091392913917,-0.1922494952506148,-0.25469672164017754,-112.94565682080365
1620848091400913917,-0.19412875276005326,-0.2514254826778782,-114.13222269150745
1620848091408913917,-0.19594664696851938,-0.24812146420580228,-115.22050448625737
1620848091416913917,-0.19776126959215487,-0.24506236330358333,-116.52548420671317
1620848091424913917,-0.19954952549810842,-0.24172438643804384,-117.55492724999601
1620848091432913917,-0.20133209746074773,-0.238759549848567,-118.4431628548192
1620848091440913917,-0.20304167704653125,-0.23482363271300322,-119.45084300899941
1620848091448913917,-0.20475869484732798,-0.23222263595914908,-120.45351718918447
1620848091456913917,-0.20643763965162612,-0.22901940102167503,-121.42541381285298
1620848091464913917,-0.20804780113596522,-0.22443851277304858,-122.30718553329682
1620848091472913917,-0.20956684706559775,-0.21918333399693193,-123.34307950395983
1620848091480913917,-0.2109919277030739,-0.21364110294547167,-124.42016535969444
1620848091488913917,-0.21237160936452676,-0.2075814352262245,-125.36447928994257
1620848091496913917,-0.21373966226555918,-0.20202216119910915,-126.3476623321647
1620848091504913917,-0.21507278440289893,-0.19681146316016468,-127.3694123112987
1620848091512913917,-0.21633775863389185,-0.19107678215079227,-128.3923418324636
1620848091520913917,-0.21757041353647802,-0.18572102804565072,-129.35702442805123
1620848091528913917,-0.21882428183809796,-0.18116356807884706,-130.38495626634648
1620848091536913917,-0.22009646568621458,-0.1779150330662549,-131.66783891943257
1620848091544913917,-0.22132324556136487,-0.17435329013334563,-132.64780292284317
1620848091552913917,-0.22252166605228194,-0.17090185475526115,-133.40008989296967
1620848091560913917,-0.22373123416219895,-0.16780037654553487,-134.1448398219257
1620848091568913917,-0.22485456408448953,-0.16370540226103786,-134.7871364839898
1620848091576913917,-0.22591836265802925,-0.15935172944538573,-135.6019459037141
1620848091584913917,-0.22690581414817962,-0.15392188980830876,-136.1146537555419
1620848091592913917,-0.22781793525308333,-0.14795223498913654,-136.3551096928583
1620848091600913917,-0.22866496624297714,-0.14175655011079205,-136.91460689692767
1620848091608913917,-0.22944597765674787,-0.13527236453534114,-137.44157425897282
1620848091616913917,-0.23018647752097746,-0.12896152505088188,-138.01879587314326
1620848091624913917,-0.23087894016218327,-0.12255430887820713,-138.61903844915557
1620848091632913917,-0.23154445062323822,-0.11686362873155506,-139.11341000010006
1620848091640913917,-0.2322016447042433,-0.11174488118986912,-140.3040513156645
1620848091648913917,-0.23282008745466862,-0.10663003567212916,-141.07300357964743
1620848091656913917,-0.23340631917475238,-0.10164814495673444,-141.99411552989923
1620848091664913917,-0.23397953717269285,-0.09707086353921625,-142.5431416406961
1620848091672913917,-0.23444360175359372,-0.0914192373448235,-143.33735939949784
1620848091680913917,-0.23488817114441862,-0.08610414543377061,-144.61202868084075
1620848091688913917,-0.23527365678696374,-0.08035846976686045,-145.55762688175085
1620848091696913917,-0.23560968113258313,-0.0746285281956048,-146.74497589821488
1620848091704913917,-0.23587765426170876,-0.06869793576517276,-147.87845788785157
1620848091712913917,-0.23613924943094988,-0.06335542254844752,-148.7792778264971
1620848091720913917,-0.2363636713935691,-0.05805064817353282,-149.6890743608361
1620848091728913917,-0.23655342293073578,-0.052955022083595385,-150.17799704910107
1620848091736913917,-0.2367130732913399,-0.04815934261504898,-150.517581902999
1620848091744913917,-0.23685101748028722,-0.04357685619674378,-150.68377825494005
1620848091752913917,-0.23696986126395908,-0.03924605368875625,-150.76803157372564
1620848091760913917,-0.2370703115924602,-0.035260905009310145,-151.11282910726487
1620848091768913917,-0.23715371287524173,-0.03168697277294854,-150.64346981302555
1620848091776913917,-0.23722638691907422,-0.02834265678372997,-150.75062441566442
1620848091784913917,-0.237288493644613,-0.025285608767951943,-150.41988445165404
1620848091792913917,-0.23735769771578155,-0.02277633227730352,-150.1689445109866
1620848091800913917,-0.23739968308111034,-0.02022630476566454,-149.96481984069538
1620848091808913917,-0.23745041972085026,-0.018178233235881015,-149.49020958385003
1620848091816913917,-0.2374794234091635,-0.01600709217749854,-149.42591069529212
1620848091824913917,-0.23751818562725469,-0.014317613356589211,-148.60055769629864
1620848091832913917,-0.23756525820096935,-0.013109821536834992,-148.41096314158204
1620848091840913917,-0.23759056109649232,-0.011624668605178086,-148.06224918200454
1620848091848913917,-0.23761343351280603,-0.01030845184112207,-147.32620159962818
1620848091856913917,-0.23764794313144175,-0.009440432281206276,-146.87456320072027
1620848091864913917,-0.23764755211191826,-0.008048345571171426,-146.14805568416494
1620848091873049175,-0.2376917140253117,-0.007642297609137819,-145.76279197710235
1620848091881049175,-0.23771431935716186,-0.006920123904553978,-146.06258582208173
1620848091889049175,-0.2377327304468167,-0.0062333290603272,-147.23244041265784
1620848091897049175,-0.23777482994103633,-0.00604639338929326,-148.30744752786592
1620848091905049175,-0.23779859077280818,-0.005576124816903848,-148.95603244333904
1620848091913049175,-0.2378759710997857,-0.00615353548077898,-149.2922932551233
1620848091921049175,-0.23789867629172076,-0.005644361118046285,-149.90074526405948
1620848091929049175,-0.23791855694581815,-0.005187792863934533,-150.19356053836705
1620848091937049175,-0.23792029096918688,-0.00442559385186201,-150.5736213599336
1620848091945049175,-0.23791002804935996,-0.0035953147169471324,-150.93659940232502
1620848091953049175,-0.23792718896068185,-0.003356875573706619,-151.05340813749487
1620848091961049175,-0.2379741237804783,-0.0037624732514313095,-151.1259908743763
1620848091969049175,-0.2379984759918937,-0.0036676864926618565,-150.99080502089078
1620848091977049175,-0.23800324583978286,-0.0032029513210906405,-151.2470537244048
1620848091985049175,-0.23805149179146445,-0.0036208152351618725,-150.9873852556469
1620848091993049175,-0.23803765879091437,-0.0028726496345718553,-150.9772110384475
1620848092001049175,-0.2380236235234856,-0.0022027103825093697,-150.8215561062883
1620848092009049175,-0.23802530264998234,-0.0019080585759738524,-150.18565253890046
1620848092017049175,-0.23804241727624542,-0.0019729374796525687,-150.3793849763156
1620848092025049175,-0.23802679095047918,-0.0013850593665309715,-149.86087760716566
1620848092033049175,-0.23802775290161282,-0.0011974452450416527,-149.79429268630633
1620848092041049175,-0.2380436443239269,-0.0013105356272217412,-149.53525393747012
1620848092049049175,-0.2380842425427145,-0.0018436040918735446,-149.02421747713544
1620848092057049175,-0.23810388986309453,-0.0019009840576443167,-148.9034202263846
1620848092065049175,-0.23808077899896118,-0.0012255125924479245,-148.4490423432238
1620848092073049175,-0.23810333946410106,-0.0014544984669371587,-148.39632530618144
1620848092081049175,-0.23815090989818588,-0.0021162194563984775,-148.17344996547533
1620848092089049175,-0.23814806071373507,-0.0017559437020436624,-147.44059685945007
1620848092097049175,-0.23814444978473728,-0.0014209745313055208,-147.2816064135431
1620848092105049175,-0.23814119184039564,-0.0011247064418112534,-146.83396067394565
1620848092113049175,-0.23812703916465078,-0.000713619128406051,-146.6623553461514
1620848092121049175,-0.23814100286225592,-0.0008575553165368542,-146.32697916864518
1620848092129049175,-0.23815406234409253,-0.0009834255871190942,-146.13705702041236
1620848092137049175,-0.2381943115520881,-0.0015789086701086315,-146.273530118043
1620848092145049175,-0.23817252130368333,-0.0009778902165859167,-145.8203741774839
1620848092153049175,-0.23815223138931155,-0.00047652870565765616,-145.5735093597301
1620848092161049175,-0.23813627596194753,-0.00014125255514538685,-145.16997982794945
1620848092169049175,-0.23815160883637662,-0.00043146360015238405,-144.36209544899657
1620848092177049175,-0.23817829630400827,-0.0008740345918765224,-144.55190857835507
1620848092185049175,-0.2381868889493787,-0.0009156202547655182,-144.15307472565632
1620848092193049175,-0.23819171858950494,-0.0008339689982454072,-144.06628448332503
1620848092201049175,-0.23819738129069795,-0.0008124513765043703,-143.7575760096687
1620848092209049175,-0.2381742117545916,-0.0002890689888483995,-143.31278578903942
1620848092217049175,-0.23815452867622428,0.0001279059955709804,-143.55647024624218
1620848092225049175,-0.23816595344140112,-0.00010268353717054758,-143.0512435655171
1620848092233049175,-0.2381895018882517,-0.000507251570997189,-142.6776330940282
1620848092241049175,-0.23818092038264616,-0.0002572311666608067,-141.94311106569913
1620848092249049175,-0.23817364853657766,-9.525874112287942e-05,-141.7271536115184
1620848092257049175,-0.23819638143402724,-0.0005038767570636277,-141.77566467502794
1620848092265049175,-0.23815701945402987,0.0003093340331598264,-141.4754397714998
1620848092273049175,-0.23812512647846978,0.0008312810162257288,-141.028816940682
1620848092281049175,-0.238141041682758,0.0004154444276734513,-141.22931289318942
1620848092289049175,-0.23816919669228045,-0.00017435877924085023,-140.9566584387014
1620848092297049175,-0.23820702405585858,-0.0008460346447326034,-141.2416517205313
1620848092305049175,-0.23821224988316061,-0.0008392179839722747,-141.15662200202186
1620848092313049175,-0.2382144987501223,-0.0007566271039236965,-140.7261489196478
1620848092321049175,-0.23821711375940402,-0.0007223224053279726,-140.38917429027092
1620848092329049175,-0.23821833538356296,-0.0006366735042872822,-140.4896044071019
1620848092337049175,-0.23820474484422288,-0.00027652871928850295,-140.76596538781348
1620848092345049175,-0.23822228341084253,-0.0005462869672150181,-140.839852816292
1620848092353049175,-0.23822311297140386,-0.0004816961664937293,-141.30639259561204
1620848092361049175,-0.23822461413266524,-0.00044951660198215066,-141.749209793367
1620848092369049175,-0.23822513199859635,-0.0003932700575597055,-142.07646428563461
1620848092377049175,-0.23823830812694624,-0.0005645517304932505,-142.74480887748106
1620848092385049175,-0.23826504667355863,-0.0009637579819741047,-142.89952390293655
1620848092393049175,-0.23825847405839656,-0.00067603779842261,-143.29925114131902
1620848092401049175,-0.23826922163441927,-0.0007939888593436706,-143.87884069367394
1620848092409049175,-0.23829197037326405,-0.0010975128768653721,-144.00772291586424
1620848092417049175,-0.2383116204604352,-0.001297022189157371,-144.60065386754596
1620848092425049175,-0.23834388916637644,-0.0017145504471657931,-144.36363661385744
1620848092433049175,-0.2383838839788004,-0.0021789566325569917,-144.7285884328331
1620848092441049175,-0.23839059181797848,-0.0019911536911984056,-144.9752573532565
1620848092449049175,-0.2384260339113505,-0.0023863058130483786,-143.56652899076346
1620848092457049175,-0.23848310275009976,-0.0030605940303262223,-141.86826038762973
1620848092465049175,-0.23851645049221232,-0.003197657177560782,-138.878569659755
1620848092473049175,-0.23856016019854637,-0.003533907886877489,-135.22805602401345
1620848092481049175,-0.2385688904249614,-0.003170791354419091,-130.56122691132362
1620848092489049175,-0.23856076550087926,-0.0025308956408425704,-125.17377594862818
1620848092497049175,-0.2385683797930957,-0.0022837562467323412,-120.15260526214777
1620848092505049175,-0.23857751620703227,-0.0021166901826473747,-114.98910752102356
1620848092513049175,-0.2384962204001231,-0.00029270336563556843,-110.39564784487644
1620848092521049175,-0.23838363692799366,0.001840890398277818,-105.945300186879
1620848092529049175,-0.23811149143632301,0.00665039105127457,-101.870508011562
1620848092537049175,-0.23765106970938488,0.014227819701238372,-98.54252114419728
1620848092545049175,-0.23703081029567147,0.023640832880021494,-95.24262242151102
1620848092553049175,-0.23626203314116748,0.0343444016454533,-92.19247657264097
1620848092561049175,-0.23530103692166765,0.046997434980457324,-89.47886777891524
1620848092569049175,-0.23421142547737311,0.060387541168731046,-87.18307011857733
1620848092577049175,-0.23298648358826635,0.07410992536343124,-84.97158161201642
1620848092585049175,-0.23165536793073777,0.08761191657851763,-83.14541836734234
1620848092593049175,-0.2303621665200163,0.0985463649047012,-81.45136095458994
1620848092601049175,-0.22900645146270837,0.10927191881825539,-79.68736114203865
1620848092609049175,-0.227572756815655,0.11960738366787996,-78.16314849558005
1620848092617049175,-0.2260734755176027,0.12945067212753422,-77.06210916343571
1620848092625049175,-0.22447724870999838,0.1397240553334563,-75.67388124503651
1620848092633049175,-0.22286831696824408,0.14913180771649828,-74.64144957539006
1620848092641049175,-0.22110559315222453,0.15973879635133403,-73.6577164230689
1620848092649049175,-0.21923479946017868,0.17046845642514724,-72.69941787221782
1620848092657049175,-0.21731816867108675,0.1807556799875353,-72.22426488942367
1620848092665049175,-0.21536999455098121,0.19032880389413842,-71.33777033055733
1620848092673049175,-0.21331126777004977,0.20018898876745542,-71.02936489214008
1620848092681049175,-0.21123188979284646,0.20902745919559004,-70.5706818459071
1620848092689049175,-0.20912495231163233,0.2169976837352165,-69.54707574437111
1620848092697049175,-0.20696319343493136,0.224965660176474,-69.1865535235629
1620848092705049175,-0.2046851838525423,0.23390507727624993,-68.33029043930271
1620848092713049175,-0.2021854051243888,0.24524951471897258,-67.92404076397388
1620848092721049175,-0.1994416603736111,0.2595310157904715,-66.75917805534705
1620848092729049175,-0.19650013685750412,0.27626151101327306,-65.4467129263437
1620848092737049175,-0.19333804961895076,0.29378639179762817,-64.09206689576173
1620848092745049175,-0.19001824222290598,0.3113548901256771,-62.65137120471046
1620848092753049175,-0.186742753017662,0.325419761340292,-60.89148581851597
1620848092761049175,-0.18366592680306654,0.33509060109735744,-59.13583208629993
1620848092769049175,-0.18068249859845692,0.34060884699628086,-57.14726675971433
1620848092777049175,-0.17789645131676926,0.34140550140468257,-55.12553940346625
1620848092785049175,-0.17515780743232287,0.3411814845536336,-52.678215943209366
1620848092793049175,-0.17244980493169854,0.34137186388507135,-50.30345330695982
1620848092801049175,-0.16961736549108772,0.34343825307246095,-47.56015733470477
1620848092809049175,-0.166554855198073,0.3488898209678258,-44.56270044024845
1620848092817049175,-0.16324482670104656,0.3587238019446295,-41.448013943942996
1620848092825049175,-0.1596089954402506,0.3730371654447381,-37.700206711678035
1620848092833049175,-0.1556481382225811,0.391293843751223,-33.868955318780685
1620848092841049175,-0.15133092188069433,0.4130956211034162,-29.841007614452888
1620848092849049175,-0.14670363058188773,0.4370295103984696,-25.267685725917946
1620848092857049175,-0.14200037119687325,0.46010468180332703,-21.102491856383544
1620848092865049175,-0.13713340309877364,0.48218185597237856,-16.645853704336602
1620848092873049175,-0.13225854909151052,0.5004771771738561,-12.162664740059364
1620848092881049175,-0.12736059481112025,0.5164203640236741,-7.535463373804573
1620848092889049175,-0.12255537397209848,0.5297975363173618,-2.709194050751787
1620848092897049175,-0.11769017480738364,0.5413948623966514,2.137008076384813
1620848092905049175,-0.11276520228929411,0.5518599553095209,7.2428560757732665
1620848092913049175,-0.10781896233850455,0.5614016545007864,11.922404321641768
1620848092921049175,-0.10289538180606514,0.5704241140476287,16.036593625761725
1620848092929049175,-0.09791837994237411,0.5778937329945649,20.25674405230859
1620848092937049175,-0.09297979357151763,0.5834096730384472,24.44219777166254
1620848092945049175,-0.0880840422885601,0.5865481032747765,28.55057735648308
1620848092953049175,-0.08336115297468279,0.5885433633630797,32.29377003804199
1620848092961049175,-0.0786514176671382,0.5886952256881025,36.606867322930924
1620848092969049175,-0.07394136160697354,0.588469056663235,40.474656971517035
1620848092977049175,-0.06915327423681081,0.5894085824371654,44.205994943893565
1620848092985049175,-0.06450233327726008,0.5889565526646254,47.85908811806078
1620848092993049175,-0.059854352607830355,0.58773387765355,51.751192248090796
1620848093001049175,-0.05519205160691578,0.5867713865478585,55.78406591471432
1620848093009049175,-0.050558886420638376,0.585735702287445,60.023429356658994
1620848093017049175,-0.04593970320374992,0.5842481685806385,64.18572592585585
1620848093025049175,-0.041322859596844085,0.5834535785167638,68.90954314051234
1620848093033049175,-0.03657509794576858,0.584711213319624,73.39731756752661
1620848093041049175,-0.031791379069710184,0.5866917067499062,78.20854904729188
1620848093049049175,-0.026942246948948034,0.5899043420849778,82.6267745594531
1620848093057049175,-0.02209092409650194,0.5921917303998585,87.61197206516755
1620848093065049175,-0.017235398089890462,0.5944904946925191,92.88664917385117
1620848093073049175,-0.012329384114320038,0.5961282545251789,97.7435623517174
1620848093081049175,-0.007389341895706832,0.6005657804649192,102.61491292328273
1620848093089049175,-0.0022261904778263925,0.6072715092007764,107.63197777526022
1620848093097049175,0.003145718969786019,0.6158851458129179,112.01913860162854
1620848093105049175,0.00854802264469519,0.6248129815656693,116.22054861416476
1620848093113049175,0.013967602200513896,0.6332218784433952,119.88622345922144
1620848093121049175,0.01946542241487241,0.6413785642287909,123.40721197027958
1620848093129049175,0.025107409237415897,0.6498546895253641,127.15157651460986
1620848093137049175,0.03086266305558603,0.6589469999300234,130.4905879891127
1620848093145049175,0.03642691509112353,0.6666092825402903,133.55217598428078
1620848093153049175,0.042134318498419525,0.6733543565607402,136.34678962374247
1620848093161049175,0.04784745404619583,0.6792544848370112,138.82316571865147
1620848093169049175,0.05359903393569776,0.6842909041143567,141.42081920420762
1620848093177049175,0.05931423703743649,0.6897719483914118,143.77418557307857
1620848093185049175,0.06514958697553964,0.6955843688473361,146.31918261686872
1620848093193049175,0.0711217165259791,0.702381188469396,148.52492393110776
1620848093201049175,0.07712384984838008,0.7094121438341819,150.33825170812753
1620848093209049175,0.08303183818407654,0.7147105913593217,152.16515856729742
1620848093217049175,0.08900217877094893,0.7192436920116038,154.06395151606432
1620848093225049175,0.09505294847846098,0.7239838780143184,156.0198558746241
1620848093233049175,0.10115978139895213,0.7289115809496539,158.0575580535648
1620848093241049175,0.10714852840429379,0.7336420841481807,159.59961525919036
1620848093249049175,0.11338784201507691,0.7406418826887236,161.08343780418576
1620848093257049175,0.11985396445088947,0.7503794551164449,162.3390025270994
1620848093265049175,0.1265388563096152,0.7622585682208035,163.02337883525777
1620848093273049175,0.1333291397501904,0.775783741057325,162.94718898662924
1620848093281049175,0.1402854323485789,0.7898725325641912,162.11758445533874
1620848093289049175,0.14742864110604556,0.8039929733644857,160.598149406884
1620848093297049175,0.1546488135291099,0.8177973261301766,158.63457769980906
1620848093305049175,0.1617138731898316,0.8294893702135889,155.99506632083956
1620848093313049175,0.16890766406213914,0.8397953228099854,153.26127698721274
1620848093321049175,0.17615348423089325,0.8480652052740953,150.24222556028624
1620848093329049175,0.18325773404019136,0.8536467611699147,146.70431761849053
1620848093337049175,0.1901286690133504,0.8561363471894742,143.11285686771782
1620848093345049175,0.19708612877161438,0.8580637125994676,139.9139253551349
1620848093353049175,0.20403581479318492,0.859299102423947,136.75813155504756
1620848093361049175,0.21107083982106273,0.8604276508648647,133.25176452861993
1620848093369049175,0.21790089395998685,0.8618545806057512,129.79988305866632
1620848093377049175,0.22484073980648897,0.8622639927047955,126.47220481927744
1620848093385049175,0.2318173111057095,0.8625036789928268,123.2448397685391
1620848093393049175,0.23870184709612133,0.861607729290121,120.36842057430283
1620848093401049175,0.24533609350402738,0.8590901692116422,117.63763363903945
1620848093409049175,0.25213959226884614,0.8576801785693693,115.43562721185485
1620848093417049175,0.2591018143231372,0.8591566563030406,113.08900422203808
1620848093425049175,0.2661679243485279,0.8613002298435979,110.60006504902235
1620848093433049175,0.27305307910637105,0.8631460207257846,108.32952829865677
1620848093441049175,0.2799918912444383,0.8635826767205862,106.44557007007029
1620848093449049175,0.2869456826187394,0.8636095273159412,104.9509408404607
1620848093457049175,0.29379022477118577,0.8628249449466637,103.88760915987503
1620848093465049175,0.30066778575175546,0.8629324380571249,102.90174601135155
1620848093473049175,0.3076965598738788,0.8651920537842592,102.13056801332313
1620848093481049175,0.3148099905622611,0.8682083345230067,101.16176714027027
1620848093489049175,0.3220028734867158,0.8734002558882965,100.33233942412525
1620848093497049175,0.32929262060398107,0.8788599071836704,99.6513162820426
1620848093505049175,0.3365374236936365,0.8827959982036899,98.88562513556627
1620848093513049175,0.34378154602835687,0.8860536037738971,98.60367956277636
1620848093521049175,0.3511755105177052,0.8902730230733499,98.19158299125174
1620848093529049175,0.3584920376775885,0.8956774968654477,97.8267187777619
1620848093537049175,0.36593470023651825,0.9007868608136219,97.56753774786011
1620848093545049175,0.37346757238526074,0.9060662881230522,97.37199153996427
1620848093553049175,0.38106038895446726,0.9108607902877852,97.29536813375975
1620848093561049175,0.38837226895770527,0.9135875432955117,97.4196384205126
1620848093569049175,0.39579430613451,0.9157922721715643,97.76474242024439
1620848093577049175,0.4033747071575117,0.9195531605914367,97.99903062455094
1620848093585049175,0.4110151679891074,0.9241086259310693,98.12522248071383
1620848093593049175,0.41853854517371913,0.9281388475014747,98.00032132504438
1620848093601049175,0.4261481920762732,0.9315071289460688,98.27158018249264
1620848093609049175,0.43375081959086903,0.933313926506129,98.39716944156542
1620848093617049175,0.4413172946215241,0.9341183790786947,98.94596418289458
1620848093625049175,0.44870985108088995,0.9347644871257137,99.42564520248634
1620848093633049175,0.456330685895723,0.9370075082470571,99.54719924981629
1620848093641049175,0.4639216351004427,0.9390168073289847,99.8284275820889
1620848093649049175,0.47163905671643724,0.9410797150526673,100.4358084108363
1620848093657049175,0.47917164843057036,0.9426506563592288,100.98253891204382
1620848093665049175,0.4868528166254063,0.9456502265763753,101.97921782144161
1620848093673049175,0.4947677621839712,0.9503715039803612,102.54202727812955
1620848093681049175,0.5026358845599128,0.955100558763917,103.18831481484752
1620848093689049175,0.5103712644194889,0.9587007351392246,103.85711268216733
1620848093697049175,0.5182060469498455,0.9617535326527106,104.43128826446157
1620848093705049175,0.526074842846199,0.9649699850975688,105.0396364355596
1620848093713049175,0.5339477059076967,0.9672928523315558,105.49682239282926
1620848093721049175,0.5417195648618279,0.9685808249905727,106.16357123632848
1620848093729049175,0.5495176076961646,0.9689345542808783,106.86891961511964
1620848093737049175,0.5574126067268791,0.9701594619095262,107.70817183421006
1620848093745049175,0.5652593127730849,0.9722539657597062,108.34084611573965
1620848093753049175,0.5730271097626118,0.9735427788566442,108.8218750032567
1620848093761049175,0.5808663356263304,0.974529904227417,109.50010168701506
1620848093769049175,0.5888240293683585,0.9759446958149994,110.05603458862404
1620848093777049175,0.5967388425903492,0.9775024344471204,110.58921441071188
1620848093785049175,0.6045009577137854,0.978358407485092,111.19751450673044
1620848093793049175,0.6123398145174072,0.9783063160525898,111.63834905822728
1620848093801049175,0.6202733451679947,0.979159644765001,112.30836510788473
1620848093809049175,0.6280449302912262,0.9779622450684323,112.97360960621477
1620848093817049175,0.6357857180765882,0.9776928227563304,113.72536761784157
1620848093825049175,0.6436422327680699,0.9785678759142653,114.38335435538973
1620848093833049175,0.6516389395599617,0.9801562769264057,114.91342584341041
1620848093841049175,0.6595445406493488,0.9810802580756922,115.54057106858569
1620848093849049175,0.6673232613362394,0.981416385073447,116.34612583432471
1620848093857049175,0.6752407179395746,0.9820807759254188,117.28618651371647
1620848093865049175,0.6830879356958244,0.9822927019555436,118.0921543505769
1620848093873049175,0.6910750515083626,0.9829384977936554,118.96053061508084
1620848093881049175,0.6988074021132026,0.982635569888078,119.6076091222109
1620848093889049175,0.7067199228881418,0.983344097730546,120.4416417943588
1620848093897049175,0.7146334833029026,0.9835306000211442,120.79925243894809
1620848093905049175,0.7226088388439385,0.9837852345389608,121.13964177763418
1620848093913049175,0.7303083296963861,0.982889201567995,121.66717577257978
1620848093921049175,0.7380995817412254,0.9819392647468884,122.47627790331373
1620848093929049175,0.7462660698074162,0.9863631187060229,122.98034210225794
1620848093937049175,0.7547422029853192,0.996306631355993,123.26926384132068
1620848093945049175,0.7631978818781229,1.0075731063185625,123.54538333518762
1620848093953049175,0.7717982244256145,1.0173804534719737,123.81814831961256
1620848093961049175,0.7803545262058097,1.023783298120042,124.14252037681409
1620848093969049175,0.7886708114808418,1.0257992269779665,124.32635482821895
1620848093977049175,0.7967548812445703,1.0250873921705488,124.63264752660402
1620848093985049175,0.8047147341032592,1.0206403651812956,125.30242281169043
1620848093993049175,0.8126419434220005,1.015022889165329,125.68461360631659
1620848094001049175,0.8204415634597872,1.0074510427593648,125.98287400069748
1620848094009049175,0.8279787956119192,1.000690886894109,126.48792712480265
1620848094017049175,0.8356980377697819,0.9947050391185405,127.08758115930534
1620848094025049175,0.8434561731384829,0.9909092385333483,127.23071898477166
1620848094033049175,0.851161451465077,0.9871275133604767,127.12419554006827
1620848094041049175,0.8587687582638409,0.9822175978631482,127.1226067023701
1620848094049049175,0.8663707896409467,0.9775384129330282,127.40819148668542
1620848094057049175,0.8739350242400794,0.9715364333835835,127.6830042117521
1620848094065049175,0.8814406130224886,0.967167309980768,127.92029484224418
1620848094073049175,0.8888822682968953,0.9621700415397207,128.17065931702115
1620848094081049175,0.8962941448276686,0.9571787781839132,128.2952740882853
1620848094089049175,0.9036920095111619,0.9521533063163427,128.67854777210354
1620848094097049175,0.9111200908393692,0.9477314057158623,129.06332104707343
1620848094105049175,0.9183718505541378,0.9423601115873729,129.3130266233981
1620848094113049175,0.9255790797886484,0.936453253237934,129.74771331786985
1620848094121049175,0.9329002958346928,0.9322952339464018,130.15407760497627
1620848094129049175,0.9403044456253056,0.9300302640079382,130.54587388599626
1620848094137049175,0.9473593532192834,0.9246894310515105,130.7953554023296
1620848094145049175,0.9545350188609486,0.920347546101444,131.42548315506806
1620848094153049175,0.961708522947549,0.9161706218817051,131.9961371894372
1620848094161049175,0.9689760605482328,0.912934724111009,132.28405646870476
1620848094169049175,0.9758517567693796,0.9083792459780271,132.76051507565575
1620848094177049175,0.9829700329510814,0.9053788571498941,133.21786258724362
1620848094185049175,0.9901107864295441,0.9029218142142137,132.9762334742775
1620848094193049175,0.9971627599500943,0.8985227910691169,133.19971543786323
1620848094201049175,1.003973512287345,0.893661713976504,133.5170322038147
1620848094209049175,1.0108452008557625,0.8880675700267752,133.9450919169392
1620848094217049175,1.017699111565886,0.8821985801570876,134.39889359345634
1620848094225049175,1.0244120973829178,0.8758815529285164,134.66878514442448
1620848094233049175,1.031093939795029,0.8708782000289369,135.15258485583277
1620848094241049175,1.0376812509047546,0.864494531358177,135.58703600611784
1620848094249049175,1.0443628532633145,0.8590148091443034,135.80071564020943
1620848094257049175,1.0508854060700252,0.8523300280309147,136.02087363800368
1620848094265049175,1.0573173080086424,0.8464224280630249,136.58278000833744
1620848094273049175,1.0637899059564218,0.840685926086446,136.9405217430048
1620848094281049175,1.0702868162567656,0.8349237130327802,137.28478634819083
1620848094289049175,1.0765969498919907,0.8287843177474409,137.665684791057
1620848094297049175,1.0829144587313297,0.8237601823430211,138.26943960806187
1620848094305049175,1.0892657198348312,0.819599050632985,138.8752955635986
1620848094313049175,1.095739237111586,0.817342218155951,139.28655678463474
1620848094321049175,1.1021280101368576,0.81348568417856,139.74796140018722
1620848094329049175,1.1083015753457792,0.8090493483620457,140.33593823198265
1620848094337049175,1.1144576965268436,0.8028741766388081,141.0721364625656
1620848094345049175,1.1205390335341177,0.7966196942566665,141.83680790125666
1620848094353049175,1.1266642765585662,0.7908061852736434,142.7200275717633
1620848094361049175,1.1326606115969005,0.7855841218867387,143.5575824380533
1620848094369049175,1.138669632728055,0.7810116712705736,144.44562320746735
1620848094377049175,1.144918623766593,0.779796023108789,145.47950640226094
1620848094385049175,1.151982917383584,0.7944581199883565,146.6584039111398
1620848094393049175,1.159417124138358,0.8165023320206332,147.33677447442207
1620848094401049175,1.1671682682489222,0.8391185894799239,147.86648053630503
1620848094409049175,1.1747281554120308,0.8542938249027047,148.197805720316
1620848094417049175,1.181792323112504,0.8582352490520058,148.79940883904862
1620848094425049175,1.188525094354535,0.8564921510786009,149.69105044842482
1620848094433049175,1.1950469826842505,0.850086911433958,150.5899263213905
1620848094441049175,1.2014257163955393,0.841731823784041,151.2305644080568
1620848094449049175,1.2076682953935143,0.831458792445279,152.04685643737054
1620848094457049175,1.2135591088069584,0.8192618139041724,152.8629423198249
1620848094465049175,1.2192656476831836,0.803463104386856,153.9664383300991
1620848094473049175,1.2249745967287227,0.7898494792726996,155.12845442597683
1620848094481049175,1.2309080082899506,0.7821668791064497,155.95001152795012
1620848094489049175,1.2366137404547057,0.7727387710982071,156.74925004138703
1620848094497049175,1.2422690622092523,0.7625746380014642,157.3153846149286
1620848094505049175,1.2480730980562957,0.7558270544388959,158.12604706285532
1620848094513049175,1.2537663066880302,0.7487976498155077,158.95850943637456
1620848094521049175,1.2591760368670752,0.7403163530825754,159.6026663765917
1620848094529049175,1.2647405160938476,0.7335404111387598,160.58805923918362
1620848094537049175,1.2701256951456978,0.7237128522172752,161.27966284599424
1620848094545049175,1.2754355369163017,0.7143340413701326,161.67021906974796
1620848094553049175,1.280572960188019,0.7049512677243083,162.21801959739156
1620848094561049175,1.2857056708842072,0.6955341466099527,162.75650626346737
1620848094569049175,1.2909273730919686,0.6883337785790486,163.44915773440482
1620848094577049175,1.296288659027005,0.684066995700495,163.979204168458
1620848094585049175,1.30151241711374,0.6816914017968233,163.85645315919587
1620848094593049175,1.3065855605271357,0.6745523684636213,164.21193474596694
1620848094601049175,1.3117261481601032,0.6691708407663862,164.72228311308618
1620848094609049175,1.3165135137730857,0.6582944062519933,165.11849884451254
1620848094617049175,1.321304757275931,0.6505799056752286,165.4829805641637
1620848094625049175,1.3261465907024421,0.6438169893729734,165.50794677305458
1620848094633049175,1.3310775744943748,0.6392454038369738,165.6644894827613
1620848094641049175,1.3361123159521129,0.6374511822232873,165.1678830188495
1620848094649049175,1.3408284476710437,0.6309132285989212,165.3791064274695
1620848094657049175,1.3453888167825785,0.6218114619199274,165.6947710242114
1620848094665049175,1.3498559385811004,0.6117922878084225,166.32208995100024
1620848094673049175,1.354261000725065,0.6022671057545698,166.90972895928545
1620848094681049175,1.3585538184076174,0.5935560112793619,167.55029449651065
1620848094689049175,1.3628658209315967,0.5855778540810938,168.56598267382995
1620848094697049175,1.3671310456031218,0.577282181563701,169.63772580567883
1620848094705049175,1.3713405985314646,0.5694031321080336,170.3990001519003
1620848094713049175,1.3754449152515376,0.5616936065983751,171.29463978378686
1620848094721049175,1.379551755022897,0.5542495318381073,172.14626010485006
1620848094729049175,1.3835989369723383,0.5467795936570669,173.12532841001422
1620848094737049175,1.3876114060063784,0.5398981488774987,173.79725686608663
1620848094745049175,1.3918242517239379,0.5386542902433218,174.39357428117526
1620848094753049175,1.3960104667477329,0.536328549719912,174.60046706971494
1620848094761049175,1.4003268591594973,0.5366168451760105,174.67182112609993
1620848094769049175,1.4046314797214872,0.5363590591469138,174.4254649311693
1620848094777049175,1.4088041899082249,0.5346427142054916,173.84648619961575
1620848094785049175,1.412803464950953,0.5295134335953621,173.267505006887
1620848094793049175,1.416706697939982,0.5226786321316887,172.72287641456762
1620848094801049175,1.4205397052507118,0.5157767060749842,172.17304443218592
1620848094809049175,1.424145139749555,0.5072465677890076,171.58476036695154
1620848094817049175,1.4277347895019443,0.49861920017366484,171.07231425571314
1620848094825049175,1.4311835516786977,0.4882984573697166,170.58060414530618
1620848094833049175,1.4346725195073307,0.47958463054162453,170.1565124538429
1620848094841049175,1.4379866441201903,0.4713489526450396,169.76572664068956
1620848094849049175,1.441353288580595,0.46373754598058886,169.11060691120417
1620848094857049175,1.4446785376932982,0.45669970109711183,168.62693387626055
1620848094865049175,1.44806969980856,0.4510138945050356,167.89478978786994
1620848094873049175,1.4512509912126368,0.44413044949588976,166.97354461104632
1620848094881049175,1.4543717740301672,0.4361183467103346,166.05693577912518
1620848094889049175,1.4574716211423064,0.42814283925547497,165.53868925497383
1620848094897049175,1.4603080907425918,0.4176543496601521,164.93218206905257
1620848094905049175,1.4632307385079244,0.41013485581767345,164.5514337555159
1620848094913049175,1.465973729014188,0.4000020807005993,163.89720043145454
1620848094921049175,1.4686874316236027,0.39085256877356334,163.4740123819251
1620848094929049175,1.4712908566642513,0.3807374052059323,162.94393708393463
1620848094937049175,1.4738862575224243,0.37299192494106675,162.4535684166643
1620848094945049175,1.4764050083615474,0.3642982656597323,162.12914242520233
1620848094953049175,1.4788315333255353,0.35498798331462794,162.00685172029438
1620848094961049175,1.481188533764569,0.34564062753408087,161.752977588161
1620848094969049175,1.4834839290124324,0.33769956871480056,161.72558747672136
1620848094977049175,1.4857028660637193,0.3286388930204305,161.7406354778729
1620848094985049175,1.487866137733399,0.319867198524444,162.14798956206948
1620848094993049175,1.4898770695434342,0.30916805365663785,162.76448235885724
1620848095001049175,1.4917212705125589,0.29824835147382633,163.20517984040376
1620848095009049175,1.493692529261404,0.29056991960282996,163.94217784116475
1620848095017049175,1.4956167738178536,0.28297209177516747,164.72485377320697
1620848095025049175,1.497485195498268,0.2756727097289506,165.72586720489338
1620848095033049175,1.4992439036935976,0.26762062604732395,166.97419687445515
1620848095041049175,1.500985149671079,0.26035853620409327,168.2835461515841
1620848095049049175,1.5026210330229084,0.25179115235981625,169.42565030504267
1620848095057049175,1.503718648303099,0.23478545499262105,171.87602656854816
1620848095065049175,1.5046517078454762,0.2173951409545807,176.01383279701707
1620848095073049175,1.5054054391516287,0.19918318229315835,181.78693224034544
1620848095081049175,1.506147393387482,0.18315520728422288,189.18917597086997
1620848095089049175,1.5065879831607893,0.16377868815907928,197.82667511758115
1620848095097049175,1.506954900167072,0.14687128786338696,207.3417059629682
1620848095105049175,1.5073221441828453,0.13192935825256696,217.80743112501963
1620848095113049175,1.5074469334102838,0.11461003631129224,228.77710076857167
1620848095121049175,1.5075040539585118,0.09856153998009014,240.7235931274479
1620848095129049175,1.5075569224840233,0.0850517187209479,252.83454584615384
1620848095137049175,1.5075053323334449,0.07142518972272939,265.60095536597646
1620848095145049175,1.507413890842357,0.05908895061398692,279.0835143233816
1620848095153049175,1.5072970530372307,0.04816225785804147,293.2309906424949
1620848095161049175,1.507197318837957,0.039346477093579794,308.0147893980503
1620848095169049175,1.5072955414005142,0.03535970113949691,323.3182955586363
1620848095177049175,1.5072832913527257,0.029841002780902504,339.76424126692825
1620848095185049175,1.5073246847627564,0.026220116698284984,356.24825708898845
1620848095193049175,1.5074039521295062,0.023827450117889008,373.0448819877547
1620848095201049175,1.5075172843489066,0.022366493985878096,387.9376950655215
1620848095209049175,1.5076123041319849,0.020744059457704883,400.7851225249285
1620848095217049175,1.5077964190591033,0.021127691031588857,411.95223544142806
1620848095225049175,1.5079398142929719,0.020594793653333526,420.9660590787284
1620848095233049175,1.5081619189179396,0.021643646140052004,428.1611930613157
1620848095241049175,1.5082084981528274,0.01923760064093475,434.2758539694525
1620848095249049175,1.5083946268215718,0.019819195944920952,438.79249005180924
1620848095257049175,1.5085482072711478,0.0198869235882662,442.7108129931353
1620848095265049175,1.5086288966216845,0.018375009277038157,447.3956801321788
1620848095273049175,1.5087010480521994,0.0169441570213489,451.05753836830115
1620848095281049175,1.5087654337872514,0.01572046566769629,454.2147994925484
1620848095289049175,1.508816561782323,0.014362631441172224,456.2460387109404
1620848095297049175,1.508911424468298,0.014047296989666887,458.0683901173831
1620848095305049175,1.5089492623088767,0.012744773207078137,459.32299508726396
1620848095313049175,1.5088393100229183,0.008898847172164864,459.8192195353576
1620848095321049175,1.508879943654527,0.008352613507524547,460.62094345796623
1620848095329049175,1.5088632204575607,0.006686377118407693,461.8789059744075
1620848095337049175,1.508864570020373,0.0058397675545411734,463.16791760697026
1620848095345049175,1.5088539431565393,0.004747495159663018,464.08154662261614
1620848095353049175,1.5088901370413377,0.00470247431560562,464.336902005637
1620848095361049175,1.5090627793964677,0.0071648443653745866,464.9127641315189
1620848095369049175,1.5092090750115594,0.00872440605486876,464.9265183119328
1620848095377049175,1.5092407868819309,0.008003597655248437,465.24336709949404
1620848095385049175,1.5093664864317315,0.00917579580403315,465.2098371012028
1620848095393049175,1.5095162929629704,0.010584240098078158,465.0575834311296
1620848095401049175,1.5094105284691655,0.0070678363846899345,465.25057257429836
1620848095409049175,1.5094618049775044,0.00696064086526572,465.0325137415428
1620848095417267637,1.5094628282787026,0.006019132383221181,464.6679835212658
1620848095425267637,1.5094623422873972,0.0051810688720503465,464.56782434013866
1620848095433267637,1.5095037196596122,0.005118066998357514,465.03305533899015
1620848095441267637,1.509535617909689,0.004872138964648317,466.02978147675907
1620848095449267637,1.5095637760876695,0.004641851581993899,467.60438315208967
1620848095457267637,1.5095861748403188,0.004271993390450971,468.11014464383794
1620848095465267637,1.5095693166293975,0.0034308525494302546,468.5319625618943
1620848095473267637,1.509553058190474,0.002689160266258607,469.3190160328355
1620848095481267637,1.5096323431885912,0.003816943084369694,469.3425979609274
1620848095489267637,1.5097432150814136,0.005296304804419727,469.06127148395797
1620848095497267637,1.5097040743556849,0.003886383305255275,469.0312230146446
1620848095505267637,1.5097110561641949,0.0034012571053563,468.87054145915585
1620848095513267637,1.509710016434473,0.0027930239875357302,468.40891167148817
1620848095521267637,1.5097220198362107,0.0027099226458313303,467.98542233280165
1620848095529267637,1.509684278529714,0.0017125771060579164,467.4649381525989
1620848095537267637,1.5097430031961525,0.0025528805824140467,466.88715139429513
1620848095545267637,1.5097031139744286,0.0015285430013942344,466.5724218313548
1620848095553267637,1.5097129124059867,0.001558982286184931,466.019578839576
1620848095561267637,1.509717141401275,0.0013646710356527358,465.6494846043422
1620848095569267637,1.5097255148559985,0.0013919402532176696,465.0549745177914
1620848095577267637,1.5097698428468453,0.0019354566434557942,464.63963910724726
1620848095585267637,1.5098610450255066,0.0033926534285888335,464.0261099275718
1620848095593267637,1.509803543316814,0.001913938137906607,463.6079655255556
1620848095601267637,1.509839124823749,0.002217546608755566,462.91475583243204
1620848095609267637,1.5098771116697511,0.0026768991908993974,462.3019854094151
1620848095617267637,1.5098998702675048,0.0026276918865340173,461.73249338969197
1620848095625267637,1.50987894660035,0.0019142996139840474,461.2818836750334
1620848095633267637,1.5098159797507562,0.0005533012501761316,460.9352240279722
1620848095641267637,1.5098534652681856,0.0011740764859950992,460.5425920527487
1620848095649267637,1.5098838641614458,0.001515079065884959,459.9165261796212
1620848095657267637,1.509770718147802,-0.0008080664976830585,459.4511082862271
1620848095665267637,1.50981495583998,0.00013990455463924658,459.07667891452803
1620848095673267637,1.509798824499555,-0.00023190199060089202,458.66680557572573
1620848095681267637,1.5098350568263976,0.0004226044144487397,458.61162244720566
1620848095689267637,1.509916385741941,0.0018586444569868926,458.2637730710142
1620848095697267637,1.5099395941558493,0.0020393394479271665,457.7876040894617
1620848095705267637,1.510004065778208,0.002931902282158069,457.3792871117589
1620848095713267637,1.5101980004414508,0.006068036379684633,457.01924731870724
1620848095721267637,1.5103176545298027,0.007353122283018298,456.76040666454986
1620848095729267637,1.5103271301147194,0.0064292459757724985,456.3862273339275
1620848095737267637,1.510335035612112,0.005633122616109575,456.07655855090593
1620848095745267637,1.5103418228420638,0.004928040944000841,455.7724093279652
1620848095753267637,1.5103476779128457,0.004301008766516059,455.2633919523167
1620848095761267637,1.5103526239930825,0.0037554048576609327,455.0748845339061
1620848095769267637,1.5103626868161888,0.003462986174770613,454.56951287590425
1620848095777267637,1.5102273340505334,0.0005197750930437372,454.2932575845728
1620848095785267637,1.5102991550263065,0.0018131978693568967,454.02395397977625
1620848095793267637,1.510355448385481,0.002513502315320855,453.6020633358234
1620848095801267637,1.510359163413299,0.0022178857232415922,453.4185999817625
1620848095809267637,1.510362382733083,0.0019515627661433892,453.10512582963827
1620848095817267637,1.5103171510229283,0.0008187684050682103,452.4767228211799
1620848095825267637,1.5102804437190742,1.3682660967685612e-05,452.0474615057954
1620848095833267637,1.5102516695201584,-0.0004745614226953198,452.11909310382714
1620848095841267637,1.5102708081537781,-5.1407650990553914e-05,451.91701441130255
1620848095849267637,1.5102873026452932,0.0002601788923266551,451.9769978151119
1620848095857267637,1.5102574337832888,-0.00028270162991221874,452.6570021422395
1620848095865267637,1.5102754165669725,9.05571022716526e-05,452.4531582932842
1620848095873267637,1.5102892138620314,0.00035011140225432415,449.2735305877639
1620848095881267637,1.510254939963969,-0.0003609075509767146,444.1312405414917
1620848095889267637,1.5103682017120104,0.0018346847994253235,435.79866222432486
1620848095897267637,1.5104633780721717,0.003264795952701006,426.1083912907302
1620848095905267637,1.51054643800925,0.004350388402605796,415.00477248831055
1620848095913267637,1.510526778289989,0.003409784747282829,403.15199402638086
1620848095921267637,1.5105506785939098,0.003336179715813602,391.3536068146455
1620848095929267637,1.5105693024247375,0.0031287802252701435,380.05077935040913
1620848095937267637,1.5105860648799896,0.002908764757820253,369.43133609291345
1620848095945267637,1.5106000651699145,0.0027071766376571865,359.7179522139289
1620848095953267637,1.510657155070999,0.003246547267959529,350.5385515403722
1620848095961267637,1.5107109963314298,0.0037981844788083333,341.8893035513562
1620848095969267637,1.5108033972690864,0.004896830431808936,332.9627781492112
1620848095977267637,1.5107404452840352,0.0030066916943527764,323.82249436678404
1620848095985267637,1.510877161737502,0.0051642482123743574,314.36999968358907
1620848095993267637,1.5109405986628082,0.005585505359536612,304.5729375334588
1620848096001267637,1.5111392373638648,0.008462096918455035,293.53771728063447
1620848096009267637,1.511216416376879,0.008707812111521055,281.5637202642422
1620848096017267637,1.5114675953621017,0.012035850763263686,267.90082928596115
1620848096025267637,1.5117162795803374,0.014888011639910003,254.2219656913487
1620848096033267637,1.511842112482148,0.014926896355981484,239.34463450094793
1620848096041267637,1.5120987951538167,0.017557619010945838,223.36387610863292
1620848096049267637,1.5121235476985564,0.015374111863166224,206.78074383947833
1620848096057267637,1.5121012811424146,0.012718455318126426,189.6291239993498
1620848096065267637,1.5121277501596135,0.011374440244748511,172.10163383296032
1620848096073267637,1.5121961750118857,0.01097369894524284,154.51294403151158
1620848096081267637,1.5122124391350054,0.009750949113443938,138.3515591073598
1620848096089267637,1.5123170564264485,0.010346953255795575,123.19654211197111
1620848096097267637,1.5127322291829097,0.016490073152317746,107.48214469158077
1620848096105267637,1.5137879642419403,0.03373458452179437,91.54243462739664
1620848096113267637,1.5153812088887606,0.058237423245098285,75.58362177985063
1620848096121267637,1.516727257642383,0.07440731072528242,60.20238445580266
1620848096129267637,1.517082206812149,0.06969852386775488,46.58703334721579
1620848096137267637,1.5167827041437911,0.05374213058756944,34.751512041206766
1620848096145267637,1.5158690398321448,0.028728908191915252,24.682160577826494
1620848096153267637,1.5142649930761882,-0.005319754438096734,15.648157217229723
1620848096161267637,1.5120487190652399,-0.04577665910273465,7.091450702152491
1620848096169267637,1.508680576575522,-0.10134082195986112,0.16354591713460387
1620848096177267637,1.504429656182913,-0.16508454756222143,-5.7210927649074375
1620848096185267637,1.499583786912263,-0.23085080387299262,-10.4244381729415
1620848096193267637,1.4942810327375833,-0.29484748537193894,-13.866017644924234
1620848096201267637,1.4886579998093958,-0.3549836702136121,-16.262836773368818
1620848096209267637,1.4830589234816793,-0.40579217094146725,-18.558084670364114
1620848096217267637,1.4776411851604996,-0.4464672861234766,-19.738435000504996
1620848096225267637,1.4727063141691166,-0.4715847238822133,-20.596298520373814
1620848096233267637,1.467980852315785,-0.4890327310691649,-21.348018126846284
1620848096241267637,1.4636558232019494,-0.4949754487119229,-21.780546784570017
1620848096249267637,1.4597479760562657,-0.49544905009793555,-21.811974912207997
1620848096257267637,1.4560642313687195,-0.49004352360178843,-22.054909777685882
1620848096265267637,1.4525867210844663,-0.4815476377617401,-22.231323744199354
1620848096273267637,1.4493866510880726,-0.4690856751698983,-22.495703882412496
1620848096281267637,1.4462008351868776,-0.4593459395686322,-22.946854353017475
1620848096289267637,1.4430756831005753,-0.44923208730079156,-23.80416695449705
1620848096297267637,1.4401114192964883,-0.4371198140325757,-24.580203345315155
1620848096305267637,1.4369219970806293,-0.43180403629282255,-25.53661878361158
1620848096313267637,1.4335956497415236,-0.42965952232157834,-26.272336295124045
1620848096321267637,1.4302799783346525,-0.42743126426595585,-26.821718834159288
1620848096329267637,1.4268545071125287,-0.42763234036177356,-27.73995548456871
1620848096337267637,1.4233075171521772,-0.42920009650653357,-28.59995869724945
1620848096345267637,1.4198354398393473,-0.43059037236580866,-29.350463763767657
1620848096353267637,1.4161833166378814,-0.43443397285382684,-30.228338289798565
1620848096361267637,1.412587007457195,-0.4364574137360602,-31.01134767108693
1620848096369267637,1.4087276094464662,-0.44273635892346164,-31.86292156830674
1620848096377267637,1.4050350733407382,-0.4462099126971513,-32.38687623426235
1620848096385267637,1.4014477563120897,-0.446776493539166,-33.300428977233715
1620848096393267637,1.3976055301009136,-0.45110280652896684,-34.274989422052926
1620848096401267637,1.3935282091008894,-0.4597716315206951,-34.97692989449127
1620848096409267637,1.3893819843574153,-0.4689830421742867,-35.91184559570394
1620848096417267637,1.385338653856494,-0.4740632166154887,-36.32850021149084
1620848096425267637,1.3811211930432379,-0.48138659896763436,-37.512867894459546
1620848096433267637,1.3768589442906982,-0.48892760440395244,-38.50899944336581
1620848096441267637,1.3727195208315788,-0.4942341512202323,-39.32002101034983
1620848096449267637,1.3684634798500908,-0.49979394739942096,-40.48922217639342
1620848096457267637,1.3642187777055677,-0.5033559334040897,-41.42098685553786
1620848096465267637,1.3596726848380774,-0.5128158346873655,-42.362025008476735
1620848096473267637,1.355255682148548,-0.5196850769883411,-42.96878581797745
1620848096481267637,1.3507289866151708,-0.526489464715506,-43.499107502981445
1620848096489267637,1.3462138188972932,-0.5320901514955247,-44.34274710056805
1620848096497267637,1.3415651270169235,-0.5388652035595278,-44.851891409259885
1620848096505267637,1.3368705317504288,-0.5466349778533072,-45.28158522216419
1620848096513267637,1.3320471695967282,-0.5548119197983356,-45.60349951121655
1620848096521267637,1.3270602514063858,-0.5642996168422496,-45.879630966872945
1620848096529267637,1.3220335099635212,-0.5735799184437037,-46.159164919689
1620848096537267637,1.3170182706034084,-0.5821168789138421,-46.327016572732305
1620848096545267637,1.3119146976566987,-0.5904262501905841,-46.43778452163107
1620848096553267637,1.3066695454963833,-0.5997797140627886,-46.560126998592125
1620848096561267637,1.301517613355285,-0.6063340165075258,-46.661150576010705
1620848096569267637,1.2963088926008277,-0.6133639877249657,-46.94061985169571
1620848096577267637,1.2910501330502897,-0.6199015230254564,-46.840169561805794
1620848096585267637,1.2856156515979937,-0.6281490122997422,-46.7619149935236
1620848096593267637,1.2802488312167823,-0.6338907016256274,-46.68506813172874
1620848096601267637,1.275013636784192,-0.638044752149349,-46.29037913516509
1620848096609267637,1.2696998306856309,-0.6418855733436644,-46.352264662782055
1620848096617267637,1.2643039944252152,-0.6461385101043549,-46.33158487768947
1620848096625267637,1.258898046930837,-0.6503173431184671,-46.276461644043316
1620848096633267637,1.2535667749605341,-0.6531024007588672,-46.0538153167588
1620848096641267637,1.2481298721767868,-0.6572508159605721,-46.00960629498802
1620848096649267637,1.2426500042485644,-0.6613066018240896,-45.933071319536104
1620848096657267637,1.237066759074361,-0.6663839108096945,-45.9462748761003
1620848096665267637,1.2312941345700203,-0.6753134604750707,-45.767813685511
1620848096673267637,1.2253195410035396,-0.6858186755847769,-45.62508662870615
1620848096681267637,1.219438975928048,-0.6930304080557094,-45.05152227603467
1620848096689267637,1.2136806564427338,-0.6959891151707488,-44.60376039741517
1620848096697267637,1.2082926284162223,-0.693397077726213,-44.672354533336176
1620848096705267637,1.2033035115044273,-0.6832212965995975,-44.802138304180474
1620848096713267637,1.1985214022773045,-0.6694224284933852,-44.77264815626022
1620848096721267637,1.193903953250458,-0.6558152087817146,-45.36720380243378
1620848096729267637,1.1893754064055195,-0.6436311486893673,-45.485748157586784
1620848096737267637,1.184688890405048,-0.6349867219528939,-45.86686685843924
1620848096745267637,1.1797704272623204,-0.6314986668915508,-45.87776032310531
1620848096753267637,1.1746937219965823,-0.6317021397030077,-45.78246057065873
1620848096761267637,1.169440859491859,-0.6362847152602644,-45.65948148027521
1620848096769267637,1.1639436997192845,-0.6439240951320803,-45.30145862462035
1620848096777267637,1.1582118479236878,-0.6539253846782803,-45.08349786887423
1620848096785267637,1.152313856906621,-0.6654533825232934,-44.755879452343564
1620848096793267637,1.1463488095192025,-0.6787525360287319,-44.61806162888897
1620848096801267637,1.1401639451801877,-0.6929839759816417,-44.414574496418126
1620848096809267637,1.1338400458002047,-0.7066855069826554,-44.348580777371566
1620848096817267637,1.1273238703438915,-0.7205011276303845,-43.59555708409836
1620848096825267637,1.1210599105660177,-0.7328721973226392,-43.70733553102298
1620848096833267637,1.114452712549732,-0.7465661978497781,-44.37278675070139
1620848096841267637,1.1077419319337243,-0.7590359996137205,-44.53962546063533
1620848096849267637,1.1010713619205421,-0.7703261279969095,-44.79380777461999
1620848096857267637,1.094491145947503,-0.77875744308009,-45.08397043752721
1620848096865267637,1.0877809721318827,-0.787880428255539,-45.19411610682315
1620848096873267637,1.0809845226308934,-0.7958736318347429,-45.2044334042116
1620848096881267637,1.0742602200229658,-0.8022861285720181,-44.92471664030744
1620848096889267637,1.06764098222241,-0.8071417233078058,-45.12021973512057
1620848096897267637,1.0608770388928084,-0.8124693423714999,-45.13181383627078
1620848096905267637,1.0540044106284927,-0.8193163813931226,-44.86608471734556
1620848096913267637,1.0469679301152606,-0.8262960541090772,-44.453629758236886
1620848096921267637,1.0401450135466805,-0.832831899483575,-43.90146612826226
1620848096929267637,1.0331271024349733,-0.839393173399933,-44.13989546645689
1620848096937267637,1.0259815549036473,-0.8465223755737549,-43.95445094272503
1620848096945267637,1.0187733436017137,-0.8541973396953381,-43.22824381507567
1620848096953267637,1.0115936903190326,-0.8615101000832801,-43.35363597710902
1620848096961267637,1.0043764996229745,-0.8676966137149075,-42.93308937411325
1620848096969267637,0.9970543119511944,-0.8732771648641559,-42.96593296911484
1620848096977267637,0.9898090782913108,-0.8776944284754913,-43.26416718454516
1620848096985267637,0.9827110082957209,-0.8810806363809602,-43.6338685032471
1620848096993267637,0.9754030143456144,-0.8859852400127572,-43.72264902181571
1620848097001267637,0.9679620357466718,-0.8913004461770687,-44.13542502556013
1620848097009267637,0.9604249867359953,-0.8985687106334002,-43.7953658548771
1620848097017267637,0.9530345755069387,-0.9034732243993578,-43.80887350754079
1620848097025267637,0.9456081160160029,-0.9074416271342711,-43.576727596017555
1620848097033267637,0.938062706374124,-0.9120225982005035,-43.5201941627753
1620848097041267637,0.930435312191739,-0.9168170847390089,-43.479968638392066
1620848097049267637,0.9230091346199016,-0.9205648210835314,-43.46128719186931
1620848097057267637,0.9154474120885705,-0.923479566039874,-43.47916092798893
1620848097065267637,0.9078616613136603,-0.9272812796528843,-43.29245505412448
1620848097073267637,0.9002397324789748,-0.9308295125031196,-43.21082077138853
1620848097081267637,0.8926622139932476,-0.9338689527149554,-43.36162301554351
1620848097089267637,0.8850331250083623,-0.9369152968400246,-43.344388665174925
1620848097097267637,0.8771836488027132,-0.9420099526917778,-43.1831111714503
1620848097105267637,0.8693576550252476,-0.9469320601680946,-42.91823709854101
1620848097113267637,0.8616118390931705,-0.9517317188878675,-42.63066598118198
1620848097121267637,0.8539329370340583,-0.953045547481234,-42.53590845794551
1620848097129267637,0.8461303424268288,-0.9546602006388198,-42.87624160649541
1620848097137267637,0.8383515186825242,-0.9563047437464259,-43.52003428271642
1620848097145267637,0.8306894329444491,-0.9590759988121325,-43.740478870412986
1620848097153267637,0.823167808673825,-0.9563935773685094,-44.03486501127538
1620848097161267637,0.8157854748325453,-0.9503666568707752,-44.22595762578561
1620848097169267637,0.8086051175951047,-0.9430250359868687,-44.40920403012159
1620848097177267637,0.8014309010917805,-0.936138549283161,-44.841772541702156
1620848097185267637,0.7942022713618265,-0.9319398849424148,-45.453341063348184
1620848097193267637,0.7866911533952109,-0.931658910134312,-45.7359552020411
1620848097201267637,0.7790230563824222,-0.9353012885900651,-45.925897194852915
1620848097209267637,0.7713372198366633,-0.9407484968611349,-45.75091448097459
1620848097217267637,0.7634527145127334,-0.9472956918932548,-45.49762466751301
1620848097225267637,0.7555300555819289,-0.9535806900943486,-45.54082186958483
1620848097233267637,0.7475649173911838,-0.9579137920270304,-45.53632252907674
1620848097241267637,0.7397810430382528,-0.962114876137991,-45.57300671501815
1620848097249267637,0.7319518536612922,-0.9645437657116116,-45.56534438726024
1620848097257267637,0.7240449549540877,-0.9666716267020489,-45.66327262671805
1620848097265267637,0.7161910003826887,-0.9681343139120482,-45.678461000236574
1620848097273267637,0.708497383859411,-0.9694757761560848,-45.46365472140521
1620848097281267637,0.700668110400024,-0.9704774662091695,-45.357255863215535
1620848097289267637,0.6927687674189599,-0.9717297725112495,-45.29952937307518
1620848097297267637,0.6848623164956122,-0.9723765945535705,-44.64113419030602
1620848097305267637,0.6772835433367536,-0.9720253782326697,-44.33082224806191
1620848097313267637,0.6696089748134643,-0.9702382881720368,-44.27580959117278
1620848097321267637,0.6618762994117309,-0.9689138260377017,-43.639339699215185
1620848097329267637,0.6541186406434385,-0.9683754870419325,-43.28488359163049
1620848097337267637,0.6464518433370012,-0.9675521293929079,-42.856222894987475
1620848097345267637,0.6388395592053877,-0.9656388223875052,-42.26383360476217
1620848097353267637,0.6312717959060365,-0.9625853923717979,-41.917789108379736
1620848097361267637,0.6236938194359387,-0.9590295227754604,-42.007411439534714
1620848097369267637,0.6162958210431323,-0.9556215429923485,-42.130591033260615
1620848097377267637,0.6087434709142165,-0.9532560949534731,-42.28657603255192
1620848097385267637,0.6011367040762928,-0.9524510758176661,-42.458233718721125
1620848097393267637,0.5935524743944826,-0.9513797646948637,-42.58201650445198
1620848097401267637,0.5861216201556881,-0.9495554441872329,-42.424881853416004
1620848097409267637,0.5786789285970508,-0.9467091611245703,-42.36707294700928
1620848097417267637,0.5711138634137422,-0.9429485713273673,-42.42072023030842
1620848097425267637,0.5638408488381618,-0.939099663033491,-42.27673278313147
1620848097433267637,0.5567108631641506,-0.9339188619496984,-42.03315675265327
1620848097441267637,0.549511085325045,-0.9287000240462264,-41.84835628874186
1620848097449267637,0.5423498755728187,-0.9231410144345069,-41.72447782108878
1620848097457267637,0.5352669819214753,-0.9178190997362698,-41.589173857090195
1620848097465267637,0.5282504561706699,-0.9126307271335795,-41.50751599277793
1620848097473267637,0.521213498855909,-0.9079155824400656,-41.277884283716
1620848097481267637,0.5141376153572528,-0.9037524539781688,-41.00536808675014
1620848097489267637,0.507217533076142,-0.8980339340051492,-40.7783802047518
1620848097497267637,0.5003719159584917,-0.8918910210559271,-40.62228567568816
1620848097505267637,0.49358080877808747,-0.8860047144022355,-40.561275185879715
1620848097513267637,0.486741551489356,-0.8803010812514063,-40.40399423638333
1620848097521267637,0.4799481352108532,-0.8748586138510591,-40.4603736166968
1620848097529267637,0.4732734829537534,-0.8706107883852043,-40.71608137394871
1620848097537267637,0.4665311550347039,-0.8665672670720644,-41.0170173155917
1620848097545267637,0.45973950314161854,-0.8635615549187451,-41.269449387851644
1620848097553267637,0.4528841052515191,-0.861019430522758,-41.417533041652966
1620848097561267637,0.44627754173275047,-0.8575856496776173,-41.46844226484564
1620848097569267637,0.43969187430926454,-0.8527391564991801,-41.726209006826394
1620848097577267637,0.433031183584592,-0.8482153734895792,-41.92243060027886
1620848097585267637,0.42648580209085857,-0.8427280747308512,-42.088395772701034
1620848097593267637,0.42020676105882926,-0.8366220221797664,-42.04380227572781
1620848097601267637,0.4138855024967887,-0.8298274517881984,-41.96615641577465
1620848097609267637,0.4075472593551987,-0.823441834418137,-42.08247300294398
1620848097617267637,0.40121970987771655,-0.8180100925037314,-42.10968535105939
1620848097625267637,0.395006606146792,-0.8133870592611373,-42.3165745675327
1620848097633267637,0.3887206827055409,-0.8087168303986257,-42.3028267796536
1620848097641267637,0.3824916920582569,-0.8046819102117253,-42.25711295702821
1620848097649267637,0.3762334489001537,-0.8011021273716447,-41.995938434141074
1620848097657267637,0.3700629536579637,-0.796757311814456,-42.1170838704767
1620848097665267637,0.3639223964371197,-0.792708085219503,-42.06053901975684
1620848097673267637,0.3577032520174362,-0.7893821032291873,-42.00806933478426
1620848097681267637,0.35149059553857837,-0.7865845080286354,-42.22770648864934
1620848097689267637,0.3454627246369068,-0.7835613237173226,-42.11541040846348
1620848097697267637,0.33936150431732026,-0.7802704186557641,-42.33437977921598
1620848097705267637,0.33334253050730794,-0.7756166847714602,-42.28460371228706
1620848097713267637,0.32743399713677274,-0.7704704209518916,-42.167603905124615
1620848097721267637,0.3216168720556863,-0.7645847714428972,-42.23706666135997
1620848097729267637,0.31583715131176837,-0.7581834089733152,-42.421230972908354
1620848097737267637,0.3100918000264197,-0.7511799091118538,-42.90006066876639
1620848097745267637,0.30436062777426287,-0.7449557030650004,-43.03081536084259
1620848097753267637,0.2988210080356265,-0.7390917205768833,-42.955445795325254
1620848097761267637,0.2931925750781133,-0.7340944356636303,-43.423790323640205
1620848097769267637,0.2875551458499473,-0.7293161848061357,-43.365837509578796
1620848097777267637,0.28194293204175447,-0.7241142734685694,-43.2297686209962
1620848097785267637,0.2765357309624007,-0.7184648846845908,-43.34064382162403
1620848097793267637,0.2711717731315436,-0.7112638653161192,-43.47742692315646
1620848097801267637,0.265818838159049,-0.7047784179217398,-43.91227186820012
1620848097809267637,0.26048826577458406,-0.6992868077274272,-43.81720245986712
1620848097817267637,0.2551155291192673,-0.6946956239842447,-43.881980356236994
1620848097825267637,0.24980484843317138,-0.6908405011645866,-43.785071156056546
1620848097833267637,0.24441457721062015,-0.6869289826104128,-43.780720860864804
1620848097841267637,0.23906621968220024,-0.6834989791533735,-43.66783964126135
1620848097849267637,0.2339015480406877,-0.6799556437248527,-43.025127036005486
1620848097857267637,0.2286880500260671,-0.6755018738845082,-42.859329718248716
1620848097865267637,0.22353312193631508,-0.6698932881511305,-42.57276073562784
1620848097873267637,0.21848631512927522,-0.6644927994192825,-42.446476955219374
1620848097881267637,0.21357488156643095,-0.6578371336699511,-41.98125306024399
1620848097889267637,0.20866871121792013,-0.6511119364322426,-41.579371931193954
1620848097897267637,0.2039185887223745,-0.6423309478818349,-40.991530295545616
1620848097905267637,0.19924224178821087,-0.6329169386855695,-40.80404894203844
1620848097913267637,0.19481184652005953,-0.6223831065430742,-40.97585236955345
1620848097921267637,0.19036350670031005,-0.6122202393943,-40.28879684960054
1620848097929267637,0.18600091369107005,-0.6023476458951036,-40.24623692036579
1620848097937267637,0.1816110013096557,-0.5935591481600748,-39.53507522669515
1620848097945267637,0.17732037059228783,-0.58618240184111,-39.35045723862905
1620848097953267637,0.1730415920997048,-0.5785577273253061,-39.29429371843811
1620848097961267637,0.16879455533117174,-0.5706708717123441,-38.841091032949095
1620848097969267637,0.16464720686502882,-0.5618867390088198,-38.58599041446855
1620848097977267637,0.1606960273915902,-0.5533026552431342,-38.80624601162046
1620848097985267637,0.15678858781347343,-0.5440692435769603,-38.72423696631799
1620848097993267637,0.15282986759961278,-0.5362479754544315,-39.144390386591056
1620848098001267637,0.14897249163856308,-0.5284807669916696,-38.91229195146439
1620848098009267637,0.14510759065292952,-0.5220158752143091,-38.37160786540161
1620848098017267637,0.14121739142794887,-0.5161830699260094,-38.11569586592372
1620848098025267637,0.13734423235492454,-0.5116209393324057,-37.92314752094312
1620848098033267637,0.13343230291341251,-0.5082943908244831,-37.5090316937504
1620848098041267637,0.12946575622001263,-0.5068222906301593,-36.905986313945796
1620848098049267637,0.12548066704722396,-0.5055755156597429,-36.25323469802189
1620848098057267637,0.12144657044633057,-0.5044347753963302,-35.7459963823335
1620848098065267637,0.11750863006128806,-0.5016279600052849,-35.18440656366459
1620848098073267637,0.1138519204615521,-0.49687667405513125,-34.214467918802164
1620848098081267637,0.11030490943458653,-0.48892852683262944,-33.366540724796735
1620848098089267637,0.10694941106671105,-0.47821460766189305,-33.37356469562984
1620848098097267637,0.10382555640641247,-0.46499290251285685,-32.87029529356378
1620848098105267637,0.10093262102075883,-0.4502088585132008,-32.63646902528005
1620848098113267637,0.09813370071345019,-0.43539268063984843,-33.22541745764459
1620848098121267637,0.09544456433663387,-0.4204054259096348,-33.46725883214536
1620848098129267637,0.09285424300358304,-0.40630418236946647,-34.25551370184765
1620848098137267637,0.09026702755875213,-0.3940685715550543,-35.018417319738774
1620848098145267637,0.08770285174534609,-0.3832300686315797,-35.94523596309885
1620848098153267637,0.0850811327785623,-0.3746758423178027,-37.03078324254857
1620848098161267637,0.0824473472256791,-0.3679271683849388,-37.31836739575376
1620848098169267637,0.07983338223909318,-0.36223068648154666,-37.90940808478729
1620848098177267637,0.07720864613685359,-0.35706800919015863,-38.39421281355531
1620848098185267637,0.07462150932098209,-0.35183489682360947,-38.92050422380315
1620848098193267637,0.07209989962649821,-0.34551317470109977,-39.16753212032029
1620848098201267637,0.06977130225980697,-0.3383984954264732,-39.77163611833621
1620848098209267637,0.0674862385388685,-0.330488462017904,-40.28835382541788
1620848098217267637,0.0652615480859313,-0.3225700847837727,-40.86900996561509
1620848098225267637,0.06306139030432092,-0.31535746818959887,-41.392487292392175
1620848098233267637,0.06095841401218648,-0.3081149554487148,-42.144464085289854
1620848098241267637,0.058926669826146784,-0.30004622782692636,-42.57324460598433
1620848098249267637,0.05687097048011689,-0.2935095986123848,-43.0576354784277
1620848098257267637,0.05492336573830179,-0.28572687730532875,-43.442515006022425
1620848098265267637,0.05301616171101707,-0.2792761641617073,-44.09898693481355
1620848098273267637,0.05117454437852045,-0.27190394201457324,-44.67413375798733
1620848098281267637,0.049340775284765576,-0.26531620563378844,-44.850506852681576
1620848098289267637,0.04751016268138374,-0.2591386483093152,-45.32107196760931
1620848098297267637,0.045811524574860804,-0.2532629355451083,-45.583592757423766
1620848098305267637,0.04411911258067601,-0.24708297308935467,-46.01032601522894
1620848098313267637,0.042481608154114774,-0.24060737818456346,-46.670929581064776
1620848098321267637,0.04088810716434826,-0.23440453445491527,-47.02490600755164
1620848098329267637,0.039372470494532796,-0.2280451870668761,-47.3147079247698
1620848098337267637,0.037860025732403144,-0.2220598740849617,-47.86815203368691
1620848098345267637,0.03644356056954724,-0.21522147311344325,-48.17667155472141
1620848098353267637,0.035057424622270045,-0.20869524999507855,-48.600700232683906
1620848098361267637,0.033740913788879,-0.20279133881887423,-49.03222514146349
1620848098369267637,0.03248008096882154,-0.19608624478318706,-49.44017408217903
1620848098377267637,0.03125428266686384,-0.18955945912749642,-49.82420254312504
1620848098385267637,0.030043380292766556,-0.18388079917793956,-50.2555437960388
1620848098393267637,0.02884889843129009,-0.17893773451848474,-50.65861244614639
1620848098401267637,0.027664703992373977,-0.17438880438978235,-51.11310745370071
1620848098409267637,0.0264910069716693,-0.1701825890434188,-51.24820831159221
1620848098417267637,0.02529685168554954,-0.16653518637872666,-51.4470291106099
1620848098425267637,0.02413599885745152,-0.16402493087849354,-51.55314741882018
1620848098433267637,0.02301316076769642,-0.16047507040447456,-51.95495348079872
1620848098441267637,0.021869540941745317,-0.15788382680391594,-52.57416562263624
1620848098449267637,0.02072968338880443,-0.15546876992188433,-52.565367264742925
1620848098457267637,0.019643091264497495,-0.15268722207376165,-52.690885459322416
1620848098465267637,0.018565159888287674,-0.15006756304064503,-52.61557280196635
1620848098473267637,0.017523314616419632,-0.1468863116577224,-52.92526572381733
1620848098481267637,0.016481823445872745,-0.14432999233204585,-53.20255981562866
1620848098489267637,0.015553433645417995,-0.14042278742051492,-53.43001247991128
1620848098497267637,0.014646822116347512,-0.13638191215741646,-53.96423339509206
1620848098505267637,0.013757866415328546,-0.1325315099474378,-54.010916708708535
1620848098513267637,0.012884686562453203,-0.1289486901488202,-54.2717398136468
1620848098521267637,0.012098535785431666,-0.12465161707703681,-54.44068432263102
1620848098529267637,0.0113607533760954,-0.11981478392378618,-54.37394968048872
1620848098537267637,0.01069859493701894,-0.11422692328045383,-53.97173785756204
1620848098545267637,0.010121461105965285,-0.10790842121208033,-53.74515850916354
1620848098553267637,0.009640580706023248,-0.10096382223861601,-53.50509787159671
1620848098561267637,0.00915077738606556,-0.09501644309966056,-53.041831459651554
1620848098569267637,0.008733531071642785,-0.0886566823536823,-53.00765580026097
1620848098577267637,0.0083639854601367,-0.08236855441863185,-52.66132004565227
1620848098585267637,0.008047807405574347,-0.07608634746242485,-52.593729312491135
1620848098593267637,0.007778652953650376,-0.06985751313002853,-52.73053676070272
1620848098601267637,0.007506505249131794,-0.06448247556914072,-52.31042578261498
1620848098609267637,0.007285130089578116,-0.05895772137177604,-51.963132247407756
1620848098617267637,0.0070781327858838155,-0.05413796459827766,-51.84015580813192
1620848098625267637,0.006909960410852446,-0.04925765469274314,-51.81396693553772
