timestamp,position,velocity,effort
1620848081097472957,0.00825838020470619,-0.0003136730295896216,-65.54377333675085
1620848081105472957,0.008269047959302897,-0.0001006090414968896,-65.91583764628194
1620848081113472957,0.008247040932449913,-0.0004961703464431714,-65.75254352547805
1620848081121472957,0.008255271235200357,-0.00029768404753701696,-65.99246503670929
1620848081129472957,0.008262852099280566,-9.041504579029072e-05,-65.89872532886604
1620848081137472957,0.008270155404079787,5.63846718165654e-05,-65.82580965739383
1620848081145472957,0.008290319607953057,0.0004320557237118287,-65.81956730148426
1620848081154941862,0.008250560521432148,-0.00038659826998734947,-65.60637112268402
1620848081160941862,0.008275558504916576,0.000112504380426967,-65.48042144296642
1620848081168941862,0.008282086518396839,0.00023080094172362646,-64.21603710000275
1620848081176941862,0.008314937563584394,0.0008020193800968011,-63.233920345968514
1620848081184941862,0.008299659899795506,0.00040159950926163513,-62.30649642503148
1620848081192941862,0.00830117451875276,0.0003662950354240143,-61.73755737165524
1620848081200941862,0.008301970973792433,0.0003302875833539003,-61.157283240049445
1620848081208941862,0.008289338975896524,4.080150705580024e-05,-60.501022683263
1620848081216941862,0.008277841218714669,-0.00018798639372784713,-60.113180875381104
1620848081224941862,0.008277954962643677,-0.0001741762419267463,-59.710898893067565
1620848081232941862,0.00826920603390595,-0.0002867518434060383,-59.496820481949065
1620848081240941862,0.00826128633520677,-0.00036698402872082996,-59.54030563078276
1620848081248941862,0.008240222955777367,-0.0006813574027919028,-59.27433727669746
1620848081256941862,0.008251432243859365,-0.0003640371866919259,-59.10449408280291
1620848081264941862,0.008260316901489548,-0.00014949054508425777,-59.09700078902466
1620848081272941862,0.008266683748274302,-1.9306109970560403e-05,-58.96988204932695
1620848081280941862,0.00827447195308074,0.00014779239103689538,-59.09490212825804
1620848081288941862,0.008281665819612951,0.0002728797896240224,-58.97290133186535
1620848081296941862,0.008300454218409381,0.0005688545967577493,-58.996071846376786
1620848081304941862,0.00831818811321992,0.0008407672188752269,-59.17770612915318
1620848081312941862,0.008287613126427215,0.00013729278701315358,-59.01290709734928
1620848081320941862,0.00828941508495125,0.00012953423170221465,-59.16171587885575
1620848081328941862,0.00829111963146046,9.768113032030502e-05,-59.1747816631637
1620848081336941862,0.008278781424225503,-0.0001491123350102726,-59.210072452701276
1620848081344941862,0.008254803200721507,-0.0005790307990860167,-59.412303635101225
1620848081352941862,0.008265422268841641,-0.0002536650424054338,-59.31424086682084
1620848081360941862,0.00830082702851484,0.0004229179835098112,-59.2717492393123
1620848081368941862,0.008286488095709907,7.821988308974727e-05,-59.04625468059884
1620848081376941862,0.008276199986134132,-0.00011815441081849799,-58.87191644405837
1620848081384941862,0.008238904690446094,-0.0007645400222401854,-58.975347408677905
1620848081392941862,0.008218513176131238,-0.0010642430575118606,-58.90502467550286
1620848081400941862,0.008261609018783672,-9.339388470365064e-05,-59.00199073543994
1620848081408941862,0.008240630798632801,-0.00045769000718465426,-59.08012330404262
1620848081416941862,0.008236736450084069,-0.00045642308737902585,-58.975130415084585
1620848081424941862,0.008277178858815093,0.00036610506455468574,-58.958452526120965
1620848081432941862,0.008280494871645913,0.0003553954908835081,-58.93102508594405
1620848081440941862,0.008284151187797248,0.0003624572627049122,-59.166498818034526
1620848081448941862,0.008275009978168466,0.0001634496662145021,-59.18479675535713
1620848081456941862,0.008266610300250594,1.8901964584195667e-05,-59.22668277943654
1620848081464941862,0.008303308055007652,0.0007016398798386304,-59.21780450210878
1620848081472941862,0.008333276929195416,0.0011525180192708828,-59.08198501015768
1620848081480941862,0.00834299714822394,0.0011313135309499985,-59.37008301368796
1620848081488941862,0.008325576360983024,0.0006767812000684884,-59.200638926420766
1620848081496941862,0.008325684722107478,0.0005991202971919689,-59.207633590115584
1620848081504941862,0.008337890481585827,0.0007311861366427187,-59.35730708046055
1620848081512941862,0.00833557698308329,0.0006057265401313672,-59.37632346382051
1620848081520941862,0.008305388606921474,-2.0340272290441698e-05,-59.48005875117598
1620848081528941862,0.008321808353948792,0.0002799898375203144,-59.44846639426779
1620848081536941862,0.00830534133002752,-7.645605477069197e-05,-59.25449435525883
1620848081544941862,0.008305462805305905,-7.62598932976316e-05,-59.08509055567372
1620848081552941862,0.008306375525799404,-5.493219913473086e-05,-59.26720217595998
1620848081560941862,0.008335832048905478,0.0005007771418889283,-59.30622249566387
1620848081568941862,0.008305517896467815,-9.470438383684857e-05,-59.26915498296099
1620848081576941862,0.00832151569487535,0.00021531923452933327,-59.29750122793707
1620848081584941862,0.008333262653396059,0.0003953747858285192,-59.29817704035268
1620848081592941862,0.008358661260690445,0.0008104292421286599,-59.10975460658608
1620848081600941862,0.008349238831720562,0.00047245514935212023,-59.377778684141724
1620848081608941862,0.008343716602267022,0.0003050805552023343,-59.22854086749344
1620848081616941862,0.008340042423877116,0.00020747249036461387,-59.14811927826418
1620848081624941862,0.008349196119372878,0.0003520717332127986,-59.14624336515521
1620848081632941862,0.008330705858513626,-2.340306785221158e-05,-58.96278168464066
1620848081640941862,0.008358019092814431,0.0004924232086105132,-59.22587194314111
1620848081648941862,0.008394488252164316,0.0010923804402852505,-59.276595131226586
1620848081656941862,0.008396509964978554,0.0009713192982621674,-59.067421680874915
1620848081664941862,0.008382017691140125,0.0005281458918612543,-58.8596031081438
1620848081672941862,0.00838685949384521,0.0005515761552119786,-58.80771098809839
1620848081680941862,0.00841925898570787,0.0010669394987553045,-58.87240299912864
1620848081688941862,0.008446433997351755,0.0014124601198964276,-58.76132156240692
1620848081696941862,0.00842630573462809,0.0008165406520036126,-58.78790341325595
1620848081704941862,0.008452764106958185,0.001183520075419142,-59.052419831381535
1620848081712941862,0.00847540415888703,0.001424794539391753,-59.19241652399901
1620848081720941862,0.0084945311298268,0.0015672557486115326,-59.164920016675666
1620848081728941862,0.008510781763011831,0.0016364598294703778,-59.25274078585811
1620848081736941862,0.0084940941135119,0.001062196929255834,-59.18064458884322
1620848081744941862,0.008480313694139808,0.0006422129158142947,-59.25117613691593
1620848081752941862,0.008483718453305493,0.0005975788537675181,-59.10584598688826
1620848081760941862,0.008501659328002998,0.000840015668734665,-59.197418145235766
1620848081768941862,0.00848722458054821,0.0004264974492828479,-59.020291826591034
1620848081776941862,0.008490540089741391,0.0004333982392318587,-59.010763523229315
1620848081784941862,0.008478911073090123,0.00015425070541364165,-58.985757338733194
1620848081792941862,0.008482807925081914,0.0001890531757161353,-58.696638880047864
1620848081800941862,0.008470536385694305,-8.880039672475712e-05,-58.337586125250326
1620848081808941862,0.008461253417506656,-0.0002574876499665914,-58.010690711990044
1620848081816941862,0.008467235113110434,-0.00012356645072001586,-57.845504025525
1620848081824941862,0.008487710775226507,0.00027225709855416,-57.6159309026917
1620848081832941862,0.008490995453452662,0.0002962158463195964,-57.239387969690995
1620848081840941862,0.008465062193672823,-0.0002163313321731501,-56.73851340222504
1620848081848941862,0.008442297115191894,-0.0006079279213617024,-55.7525260601725
1620848081856941862,0.008409840807318714,-0.0010931154518858963,-54.630348956056324
1620848081864941862,0.008381218912101886,-0.0014566272728476224,-53.756403161218756
1620848081872941862,0.00831313531719436,-0.0024871983779467784,-52.53225768157644
1620848081880941862,0.008153815640091752,-0.005095624219878524,-51.03899648022233
1620848081888941862,0.007798904653055215,-0.010959030609602663,-49.73314724418099
1620848081896941862,0.007128960839363996,-0.021830727819808996,-48.710709755405084
1620848081904941862,0.005902835483560707,-0.04138810534249178,-47.88551060000877
1620848081912941862,0.004137443287533571,-0.06807149986405832,-46.999543311028724
1620848081920941862,0.001792454027556591,-0.10143925824642952,-46.3107794368585
1620848081928941862,-0.0009293058000921681,-0.1367409908278,-45.946739560657136
1620848081936941862,-0.0037626031085575434,-0.16889641992382623,-45.684550153646015
1620848081944941862,-0.006515860007852368,-0.1948508578428236,-45.780395868495816
1620848081952941862,-0.009046587528029991,-0.21279710303412386,-45.503668158211866
1620848081960941862,-0.011377461418808694,-0.22400968749110528,-45.18389208372225
1620848081968941862,-0.013468650166492804,-0.22901649222351259,-45.00828208840418
1620848081976941862,-0.015313832926290006,-0.23004417504728325,-44.420371363505204
1620848081984941862,-0.017096451152909718,-0.22901586771858592,-44.089574996835616
1620848081992941862,-0.018821177035656268,-0.22676691105525457,-43.71397163965568
1620848082000941862,-0.020626263609026557,-0.22632717097327867,-42.708692054574655
1620848082008941862,-0.022487444544884723,-0.22781195484486036,-42.069495880379485
1620848082016941862,-0.02458868436362107,-0.23303786115321767,-41.56767046776294
1620848082024941862,-0.026865131793711947,-0.24055553800283322,-41.429453649724984
1620848082032941862,-0.029286075932314203,-0.24955512236109187,-41.268672195385875
1620848082040941862,-0.03173866076264551,-0.25829278077384354,-40.99268651028076
1620848082048941862,-0.03425992944041925,-0.26679585619666696,-40.60761826097501
1620848082056941862,-0.03670518881522456,-0.2724459283924687,-40.38091805163531
1620848082064941862,-0.039108102820363214,-0.2764111470282937,-40.40764510630915
1620848082072941862,-0.04147349756507278,-0.27943962954182844,-40.3017981806033
1620848082080941862,-0.04386153799932991,-0.28204723624388917,-39.88585216313368
1620848082088941862,-0.04630546984749188,-0.28550075391641544,-38.86137565705926
1620848082096941862,-0.04888771800761392,-0.29090250171262905,-38.269657573822336
1620848082104941862,-0.051660072019634476,-0.29963367287533554,-37.979732696098665
1620848082112941862,-0.05458154969014677,-0.30937843521661623,-37.94877925414348
1620848082120941862,-0.05762065791323197,-0.31937315062467914,-37.46774240314937
1620848082128941862,-0.060638440305171404,-0.3280916151055667,-37.291280729342056
1620848082136941862,-0.06357055039846492,-0.33407244853902107,-37.35572278748894
1620848082144941862,-0.06649849962646398,-0.3387013405745409,-37.712984530207756
1620848082152941862,-0.06933931806044764,-0.34081582310362674,-36.995147987856946
1620848082160941862,-0.07214857084187778,-0.34233200169232353,-36.62639690251891
1620848082168941862,-0.07491456821702488,-0.3431767494561248,-36.05100983873082
1620848082176941862,-0.07773458734658382,-0.34438383290144237,-35.5407377947423
1620848082184941862,-0.08066017542647096,-0.34757557751716683,-34.73221677096621
1620848082192941862,-0.08371415646809283,-0.352265709367375,-34.37896222995351
1620848082200941862,-0.08684695156558021,-0.3585898009392555,-34.29414853365188
1620848082208941862,-0.09008204678642326,-0.3654692795464674,-34.064805315695764
1620848082216941862,-0.09342454076916967,-0.37296245937520306,-33.93805289610346
1620848082224941862,-0.09680041057471335,-0.37952448858408006,-33.8431330724808
1620848082232941862,-0.10007945191119583,-0.3849915505533714,-33.219179674249425
1620848082240941862,-0.10340160228345954,-0.38923393341846224,-33.03908813407578
1620848082248941862,-0.10672919233762589,-0.39288689136564175,-32.19062723745659
1620848082256941862,-0.11006773192816519,-0.3962876884684249,-31.956114295652736
1620848082264941862,-0.11339750903349817,-0.399977984383671,-31.692187859594945
1620848082272941862,-0.11683123787831941,-0.40416049706963036,-31.5006477351655
1620848082280941862,-0.12028503019203761,-0.4081981375643178,-31.153357438016823
1620848082288941862,-0.12374478845292566,-0.41122110879135493,-30.87107242052923
1620848082296941862,-0.12707251602237185,-0.4126709435167999,-30.45253844106501
1620848082304941862,-0.13036511431187586,-0.41248880177689484,-30.238459348255905
1620848082312941862,-0.1335712494763073,-0.41020681190971425,-29.741544642856745
1620848082320941862,-0.1366656923652089,-0.4067951586085735,-28.930160621160894
1620848082328941862,-0.13969363885610114,-0.40301714986844595,-28.575513356739624
1620848082336941862,-0.14276803484382702,-0.4000199658851042,-27.975289510771926
1620848082344941862,-0.1458398308255239,-0.39732928242682775,-27.941709949789573
1620848082352941862,-0.14887039265412375,-0.3943648261250373,-27.975943172895803
1620848082360941862,-0.1517602263094475,-0.3898108059798206,-27.913837040957787
1620848082368941862,-0.1545421968371255,-0.38385305666991654,-27.421030430919757
1620848082376941862,-0.15722953237654258,-0.3767077134601262,-26.620340544573985
1620848082384941862,-0.15989397092367869,-0.3699044492099202,-26.230405651717902
1620848082392941862,-0.1624640256405231,-0.3631994868695821,-25.859326097933202
1620848082400941862,-0.1650524775788987,-0.3573246260111637,-25.30719516670611
1620848082408941862,-0.16777067857299108,-0.353013247696232,-25.076594537638233
1620848082416941862,-0.17030307454849106,-0.3491397888321852,-24.768854872916336
1620848082424941862,-0.17294705679903763,-0.3466635044585671,-24.43723461024596
1620848082432941862,-0.17553111186711298,-0.34314542052348035,-24.15577565129618
1620848082440941862,-0.17809186835691437,-0.3394058211763928,-23.432941361848805
1620848082448941862,-0.180605710139106,-0.3350849041274784,-23.109475395547914
1620848082456941862,-0.18301547819806516,-0.3309043955245466,-22.615541784828746
1620848082464941862,-0.1853383631486183,-0.3249054936308571,-22.20574129438223
1620848082472941862,-0.18766029287930883,-0.31922476395627586,-21.507610337125016
1620848082480941862,-0.18998206533668677,-0.31474332019251133,-20.630575574917017
1620848082488941862,-0.19224128068006693,-0.3106560568655686,-19.804620892376263
1620848082496941862,-0.19451525030501982,-0.30680547356256394,-18.791016509693854
1620848082504941862,-0.19677536149251837,-0.30304649723146027,-18.446109205219663
1620848082512941862,-0.19893987839496957,-0.2979762959212335,-18.0748878380611
1620848082520941862,-0.20105222268752856,-0.29317474744556593,-17.2502528076579
1620848082528941862,-0.20314517298152773,-0.2886456200160357,-16.651688539484862
1620848082536941862,-0.2051715909136529,-0.2829507121179727,-15.307638141891104
1620848082544941862,-0.2071361783660975,-0.2774547938011871,-14.793282002590104
1620848082552941862,-0.20901277287295927,-0.2715201539224258,-14.1629005782493
1620848082560941862,-0.21086339096004336,-0.2654936292423406,-13.419855581559027
1620848082568941862,-0.21264118825792727,-0.2590089432319667,-12.514608764328788
1620848082576941862,-0.2143792467986733,-0.25290242711698746,-11.516769719115949
1620848082584941862,-0.2160686165972657,-0.2467390057115223,-10.928663440133073
1620848082592941862,-0.21770641234940802,-0.2405786386384935,-10.185614283411503
1620848082600941862,-0.21930676750859746,-0.23421093103529744,-10.1135262802278
1620848082608941862,-0.2208450740698133,-0.2276442708551938,-10.092334639416533
1620848082616941862,-0.2223078625838213,-0.22156356744255784,-9.702483593585677
1620848082624941862,-0.22371551039970813,-0.21491459773578309,-8.693976203626171
1620848082632941862,-0.22512678103747635,-0.20903797275908947,-8.746248430606862
1620848082640941862,-0.22648801886218964,-0.20319094332637344,-8.28162638173629
1620848082648941862,-0.22776779700467262,-0.19692587452424243,-8.140647836789832
1620848082656941862,-0.22904955215121542,-0.19154488112599696,-7.755411063908658
1620848082664941862,-0.23025875593135656,-0.18524162319374438,-7.299933343046003
1620848082672941862,-0.23138691456967825,-0.17844805158895768,-7.2620595189759465
1620848082680941862,-0.23242374017898237,-0.171704571340682,-6.407684376778883
1620848082688941862,-0.23340769335772832,-0.16456090773122536,-5.54068655835916
1620848082696941862,-0.2343563892086796,-0.15753632673140056,-4.963315324563454
1620848082704941862,-0.2352611751119631,-0.15089467576906207,-4.68240247016688
1620848082712941862,-0.23610709095576887,-0.144469455152576,-4.468611134383901
1620848082720941862,-0.2369533616730538,-0.13867420024458002,-3.5148788265819784
1620848082728941862,-0.23778718696475495,-0.13361100950489577,-2.6520798234595024
1620848082736941862,-0.238596585213641,-0.12853463923232727,-2.181243742289367
1620848082744941862,-0.23935388695585258,-0.12375197232490084,-1.8585736838124114
1620848082752941862,-0.2400934472071182,-0.11913124478129776,-1.7861714097291856
1620848082760941862,-0.2408178531567131,-0.11474266474729194,-1.2805374106600942
1620848082768941862,-0.2414422860777769,-0.10930820192553498,-0.7509154987800859
1620848082776941862,-0.2420428399160466,-0.10439470627489215,-0.45996998562733504
1620848082784941862,-0.24261818295959425,-0.09952430769641721,-0.14049564074864546
1620848082792941862,-0.2430782238717691,-0.09330227669843796,0.3792731373301364
1620848082800941862,-0.24351690641010207,-0.08750717908092707,1.0952856239085298
1620848082808941862,-0.2438983761809565,-0.08168661459573708,1.7050416219629752
1620848082816941862,-0.24422939746619907,-0.07574372147980044,1.9881802080761166
1620848082824941862,-0.24454009436580018,-0.07016171040713641,2.201103032331419
1620848082832941862,-0.2448310717912894,-0.06511917209926038,2.339575349112015
1620848082840941862,-0.24507642488551382,-0.06009970952863077,2.684767935773083
1620848082848941862,-0.24525849572730846,-0.05456325147575428,2.494500753880074
1620848082856941862,-0.245431365266246,-0.04959079270090776,2.260109603162352
1620848082864941862,-0.24560825400227562,-0.04548449998927581,1.7600823800366334
1620848082872941862,-0.24574070795639813,-0.04132244430861423,1.4628169149123893
1620848082880941862,-0.2458833889440269,-0.03786625802580368,1.238570826664823
1620848082888941862,-0.24597665564088783,-0.033976090047312085,0.8225460558461855
1620848082896941862,-0.24606990044637994,-0.030659000669818682,0.784983511320412
1620848082904941862,-0.2461494728332322,-0.0276157671524552,0.5192691465489258
1620848082912941862,-0.2462316469064081,-0.025044757076261182,-0.15181523666555877
1620848082920941862,-0.24627324283486143,-0.022055431032586014,-0.3069637439596169
1620848082928941862,-0.24633686382284037,-0.019950267143949464,-0.8351251078601196
1620848082936941862,-0.24639126156457306,-0.01803473248640183,-1.1273641272258934
1620848082944941862,-0.24643716481280367,-0.01619904988918683,-1.4516416246151764
1620848082952941862,-0.24643382877562328,-0.013725291058988478,-2.016154459798172
1620848082960941862,-0.24650307612196795,-0.01295017281613237,-2.083482262194452
1620848082970147453,-0.24654956126077687,-0.011667011110973218,-2.7323612565155178
1620848082977147453,-0.24657558742108818,-0.010627960769125177,-2.6364225193912536
1620848082985147453,-0.2465946521598762,-0.009396017863648447,-1.3875736490135073
1620848082993147453,-0.24656791073035297,-0.007506294825819779,0.13530547199568288
1620848083001147453,-0.24663239749980737,-0.007609580912499617,0.8120934774255515
1620848083009147453,-0.2467012875810002,-0.007746586721894249,1.3958217976331098
1620848083017147453,-0.24674564979097316,-0.007418643219867693,1.9868277097145715
1620848083025147453,-0.24681307393777074,-0.0075528852983498115,2.2519677158364484
1620848083033147453,-0.24686900646307994,-0.007485560795878388,1.8039975288527477
1620848083041147453,-0.24688866212629873,-0.006755845363045136,1.893229558106484
1620848083049147453,-0.246934576487966,-0.0065962217900826774,1.6048916593708635
1620848083057147453,-0.24697339549485753,-0.006336519785880843,1.6853410419262258
1620848083065147453,-0.24700627106014264,-0.006011664406284877,1.7093325805843498
1620848083073147453,-0.24703446033861642,-0.0056432298928681636,1.5300677608865132
1620848083081147453,-0.24707326480573297,-0.005519008221924106,1.82446250121366
1620848083089147453,-0.24707831737243235,-0.00481075927881966,1.2661618305304712
1620848083097147453,-0.24709561477024708,-0.00442923438505381,1.3658319519939213
1620848083105147453,-0.24709667657506848,-0.003803457940592599,0.9144739834448906
1620848083113147453,-0.24714050789685982,-0.004036212515580943,0.294917594069295
1620848083121147453,-0.24714888950383834,-0.0035922468084674786,0.22872203031019245
1620848083129147453,-0.24716953970297834,-0.003449694881298707,-0.03166810865757318
1620848083137147453,-0.247202003221179,-0.0035334209489949727,0.2758070329145955
1620848083145147453,-0.24721612994524733,-0.00327603151500377,0.3122257154706298
1620848083153147453,-0.24721327584145072,-0.0027338669351787285,-0.29551325400345424
1620848083161147453,-0.24722630050518035,-0.002591854544684072,-0.46153143667776975
1620848083169147453,-0.24720865143115842,-0.0018965063890030336,-0.5752775331072573
1620848083177147453,-0.24719290397366597,-0.0013276139407424386,-0.6833117593302415
1620848083185147453,-0.24720817187118255,-0.0014162083600847456,-1.0473268855231872
1620848083193147453,-0.2472065268013239,-0.0011767364822301769,-1.4466720268706832
1620848083201147453,-0.24721984059131932,-0.0012565799790388832,-0.7772893898401804
1620848083209147453,-0.24725929672574,-0.0017830360099191625,-0.8399491725956638
1620848083217147453,-0.24725002883856584,-0.0013468111363591421,-0.6696527675595784
1620848083225147453,-0.2472717814092618,-0.0015678077110951908,-0.9388373743520446
1620848083233147453,-0.24730432974673652,-0.0019223816957771502,-1.1834392252296444
1620848083241147453,-0.24731694365826098,-0.0018640185024788038,-1.0682251208815585
1620848083249147453,-0.24729912157818063,-0.0012584316703226585,-1.5263067732986206
1620848083257147453,-0.2472842064966794,-0.0007992043721777916,-1.7541122426486568
1620848083265147453,-0.24728687112860026,-0.0007513110684768276,-2.3022170207868884
1620848083273147453,-0.2473029482910271,-0.0009475645171394068,-2.76139734905754
1620848083281147453,-0.2472871740451063,-0.0005157028337658167,-2.593672278867428
1620848083289147453,-0.24727393806088038,-0.00019571519098400745,-2.9144740107826155
1620848083297147453,-0.2473054804147922,-0.0007400900732904332,-2.943172468610364
1620848083305147453,-0.24731976569698505,-0.0009163300300725837,-3.0204558981074934
1620848083313147453,-0.2473585486540226,-0.0014969073741325427,-3.611354690484001
1620848083321147453,-0.24739172448237087,-0.0018980426000230284,-3.5188736674658374
1620848083329147453,-0.24736293825895356,-0.0010864960815011124,-3.593443555494633
1620848083337147453,-0.24738340298219372,-0.0013157853603847575,-3.6698463723869357
1620848083345147453,-0.2474015014645877,-0.0014926736687028588,-3.5361599832753066
1620848083353147453,-0.2473861370947793,-0.0009927528236388528,-4.069858400571701
1620848083361147453,-0.24737201471965256,-0.0005764683488213139,-4.111082034619451
1620848083369147453,-0.24738896151858375,-0.0007962743520753576,-4.286631788349459
1620848083377147453,-0.24738860173511273,-0.0006578984045825294,-4.409762152355485
1620848083385147453,-0.24737506852184055,-0.00030842336918586157,-4.169667802658343
1620848083393147453,-0.24737695120330477,-0.0002911839711360031,-3.9978257532977604
1620848083401147453,-0.24736436451236163,-6.927424757164767e-06,-3.913738182407262
1620848083409147453,-0.24739910601954196,-0.000676718297811553,-4.061156194768292
1620848083417147453,-0.24741126124147286,-0.0007909827817931572,-4.173786971016178
1620848083425147453,-0.24742247624922356,-0.0008729108551709324,-4.311913690708131
1620848083433147453,-0.24738898940364726,-0.00012589781016210025,-4.284082041435673
1620848083441147453,-0.24736058417573026,0.00041657931154229244,-4.365670646545659
1620848083449147453,-0.24733649392633983,0.0007996731499401742,-4.654380506683731
1620848083457147453,-0.2473308571464503,0.0007771071912857483,-4.370674314967127
1620848083465147453,-0.2473553545973647,0.00019069642771756158,-4.39669029864591
1620848083473147453,-0.24734654594713892,0.00031645070931536195,-5.008586534279793
1620848083481147453,-0.24736856867013257,-0.00014284943341502033,-4.775467979227962
1620848083489147453,-0.24737203535846033,-0.00018485110314030054,-5.035599918075459
1620848083497147453,-0.2473600504065062,6.690862023141041e-05,-4.844993815342895
1620848083505147453,-0.2473357474347502,0.0005048294526648459,-5.1491875238683065
1620848083513147453,-0.24731546899003562,0.000805406313657358,-5.519839947305913
1620848083521147453,-0.2473258016969398,0.0005127808517863263,-5.5741605594371135
1620848083529147453,-0.24732095147443028,0.0005295843083999317,-5.474778229941787
1620848083537147453,-0.2473162177271468,0.0005579027032771241,-5.271899841503354
1620848083545147453,-0.24732945125106998,0.00019660037409772552,-5.364441376033044
1620848083553147453,-0.2473242046658552,0.00027347648915370277,-5.379303449485293
1620848083561147453,-0.24733509288408057,2.1539233002738656e-05,-5.224596489401248
1620848083569147453,-0.24732890931431137,0.0001529338793576119,-5.343474869573737
1620848083577147453,-0.2473096605840897,0.0004860264134565488,-5.270351085412523
1620848083585147453,-0.2472937010124271,0.0007024996155009929,-5.266473786984122
1620848083593147453,-0.24727932711818087,0.0008630124353982061,-5.015893509665178
1620848083601147453,-0.24729565250288837,0.0004405039555459538,-4.651804436790094
1620848083609147453,-0.24728118684068157,0.0006428740735528936,-4.937356313567105
1620848083617147453,-0.24729880554258524,0.00020020660053224814,-4.92676138969165
1620848083625147453,-0.24731120582222332,-2.3961487642648304e-05,-5.000020112919175
1620848083633147453,-0.24731049607151673,-1.7961760003004255e-05,-5.346294773470557
1620848083641147453,-0.24734413543094969,-0.0006008835575264169,-5.083270599695654
1620848083649147453,-0.24736662378623478,-0.0009430297477264202,-5.1449530306425455
1620848083657147453,-0.2473696169499008,-0.0008358592287680364,-5.703062471107238
1620848083665147453,-0.2473441050339208,-0.00024176817778306134,-7.164135355552822
1620848083673147453,-0.24735031120802056,-0.0002975614024326022,-9.521479590327697
1620848083681147453,-0.24735730698693695,-0.0003932898822979564,-11.91006508223966
1620848083689147453,-0.24737745239917674,-0.0007265100772050417,-15.040997345587849
1620848083697147453,-0.24741020370207367,-0.0012574834059579558,-18.61298751922583
1620848083705147453,-0.2473788949832994,-0.0004950187165878343,-21.873809208681557
1620848083713147453,-0.24735195914186928,8.0485456172715e-05,-25.257409024572464
1620848083721147453,-0.247328962409803,0.000492525489451141,-28.358542733010758
1620848083729147453,-0.2472669095577891,0.0015352894624844845,-32.132924874966356
1620848083737147453,-0.24718283856977338,0.0028948399749865747,-35.397678568923965
1620848083745147453,-0.24706922203620982,0.0045619997433489195,-38.84092021493329
1620848083753147453,-0.24687036425403924,0.007540878590179173,-41.892098717983195
1620848083761147453,-0.24653574347004595,0.012631165153094226,-45.188899805625844
1620848083769147453,-0.24610294673489158,0.01882953884254162,-48.073557653143816
1620848083777147453,-0.245509020719332,0.027064300240360245,-51.093189378444315
1620848083785147453,-0.24477029015563373,0.03673539279155881,-53.51345345047015
1620848083793147453,-0.24387725954139716,0.04780003127466164,-56.078243108841654
1620848083801147453,-0.24291248393268283,0.05866824985734469,-58.27831298069414
1620848083809147453,-0.24179223095121166,0.07069577172969668,-60.1018159786684
1620848083817147453,-0.24050468775365547,0.0839629351091988,-62.10653300972046
1620848083825147453,-0.23911646666343647,0.09721905364114275,-63.9023370627994
1620848083833147453,-0.2375630562336415,0.11176819775480652,-65.52403692654546
1620848083841147453,-0.23587728522990395,0.1264313514676037,-67.11288174929251
1620848083849147453,-0.23408103762307364,0.14085905154617787,-68.47090806354335
1620848083857147453,-0.23215681235451768,0.1554541065148163,-70.05622513240777
1620848083865147453,-0.2301769989892697,0.1693685847865506,-71.30140484622797
1620848083873147453,-0.22808009497130954,0.18307442138267063,-72.62258200714695
1620848083881147453,-0.22585012604195437,0.19698544898426837,-74.0210686956969
1620848083889147453,-0.2235673351344732,0.209870241150874,-75.25667041177545
1620848083897147453,-0.22127867856463154,0.2216938575132794,-76.48526163474737
1620848083905147453,-0.21887170060275113,0.23341776857460042,-77.8133640381415
1620848083913147453,-0.21627601843302963,0.24655419738301057,-79.37719865796839
1620848083921147453,-0.21349362682858117,0.26138275101472236,-81.11560572166776
1620848083929147453,-0.21052812039492882,0.2782606114389273,-82.40167296640195
1620848083937147453,-0.20726183380040286,0.2975090930911398,-84.0026084634832
1620848083945147453,-0.20359819160450995,0.32112799733303476,-85.49114226323606
1620848083953147453,-0.199472745737908,0.3498168022862125,-87.12373841361338
1620848083961147453,-0.1949060948094942,0.38303655751099297,-88.67229510306782
1620848083969147453,-0.18981733306519333,0.42062828379936834,-89.7882245264099
1620848083977147453,-0.18432795302447905,0.4598527564643028,-90.55369415645836
1620848083985147453,-0.1784356976753444,0.4995264947138099,-91.5237640128091
1620848083993147453,-0.1726336732400388,0.5342961825260021,-92.13266247817906
1620848084001147453,-0.16675650409260814,0.5637844221221419,-92.66689959136042
1620848084009147453,-0.16110228428424175,0.5841070700392126,-93.12777485187928
1620848084017147453,-0.15583521379429494,0.5946194823125117,-93.66765662894939
1620848084025147453,-0.15118143343821946,0.5940884574613191,-94.17998673031664
1620848084033147453,-0.14681189616971477,0.5865747021367985,-94.67375993174367
1620848084041147453,-0.14285762849639883,0.5721961761958003,-95.05653919041978
1620848084049147453,-0.13920520980099485,0.5545436127770474,-95.68081961491366
1620848084057147453,-0.13573384315369236,0.5377975146939383,-96.23547251885515
1620848084065147453,-0.1322239793068711,0.5234525214198564,-97.08788751685226
1620848084073147453,-0.12842929047580695,0.5157945146713615,-97.77883315000311
1620848084081147453,-0.12431885346040564,0.5159265711110294,-98.32593219869207
1620848084089147453,-0.11968785270319118,0.5253721449179237,-98.75637805683104
1620848084097147453,-0.1145647222491374,0.5426472775045083,-98.88141889696081
1620848084105147453,-0.10905426310688025,0.5640058209726707,-98.79944848864399
1620848084113147453,-0.10337597473752047,0.5849338916743451,-98.26828236558387
1620848084121147453,-0.09785662161419395,0.6011804924959941,-98.0904967399836
1620848084129147453,-0.0925941143771419,0.6094734451115646,-97.88613807831763
1620848084137147453,-0.08774082388843742,0.6081886305080414,-98.04616867091481
1620848084145147453,-0.08329941934789489,0.6000646957787564,-98.23771665310056
1620848084153147453,-0.0792590230386084,0.586866632105016,-98.81373757164873
1620848084161147453,-0.07538018499209115,0.5719911903231015,-99.25941868575805
1620848084169147453,-0.07154997456662368,0.5577426113071853,-100.03825701269915
1620848084177147453,-0.0675988500312421,0.5481167663068308,-100.36972613754367
1620848084185147453,-0.06336622026373803,0.5461260548426499,-100.80310061532577
1620848084193147453,-0.058647184905935325,0.5526093800963593,-101.20947307838308
1620848084201147453,-0.05345694909393394,0.5664004734786849,-101.36661728162899
1620848084209147453,-0.048037252033036736,0.5825308946938984,-101.34947524035243
1620848084217147453,-0.042604664215919234,0.597616622481458,-101.69885924957266
1620848084225147453,-0.037246426836623284,0.6084042746090841,-101.9490862059153
1620848084233147453,-0.03206017828187561,0.6133226958339008,-102.60231197935963
1620848084241147453,-0.02718199019936922,0.6127274023091137,-103.09992907518149
1620848084249147453,-0.02260398042688514,0.6075589691491854,-103.62897524811677
1620848084257147453,-0.018069647358089507,0.6015407074483958,-104.37910367798511
1620848084265147453,-0.013439913118176381,0.5970345618164622,-105.14973094228574
1620848084273147453,-0.008597764181855145,0.5984713886966986,-105.85015397951037
1620848084281147453,-0.003433446746368358,0.6065935041009124,-106.380179770991
1620848084289147453,0.0022106689811800598,0.6212382988099296,-106.514240299444
1620848084297147453,0.008221255260665462,0.6399979318573275,-106.91130348600376
1620848084305147453,0.01442457435222766,0.6590283187589634,-107.18836036573602
1620848084313147453,0.020440502147835212,0.6743666612213334,-107.34578262497376
1620848084321147453,0.0263740271449049,0.6843278210492715,-107.54975092409427
1620848084329147453,0.03207308485309867,0.6883164683983163,-107.8744628748321
1620848084337147453,0.037586133229244506,0.6873203159557184,-108.29448154006421
1620848084345147453,0.04284061507799451,0.6839543047651505,-108.72946182884591
1620848084353147453,0.048223001908870286,0.6821679018860003,-109.21318721970127
1620848084361147453,0.05375639435156708,0.6832980985082701,-109.51232336367221
1620848084369147453,0.05958998910227827,0.6895444095019924,-109.76676880072236
1620848084377147453,0.065583990040894,0.6995626644494778,-109.67890013694456
1620848084385147453,0.07177502304720342,0.7105757061896789,-110.09996105844321
1620848084393147453,0.07809028356815213,0.7217221530893612,-109.89678351177726
1620848084401147453,0.08439835985917107,0.7299845785565282,-109.87264699957673
1620848084409147453,0.09048054570709688,0.7364265983447429,-109.80475299942043
1620848084417147453,0.09659562896438185,0.7407165726630179,-109.9059405484935
1620848084425147453,0.10272975291837405,0.7444602062677752,-110.2151969901283
1620848084433147453,0.10892299359039379,0.7480042597923291,-110.25451232256914
1620848084441147453,0.11510382347409026,0.7524634741281686,-110.17974395499613
1620848084449147453,0.1214211616506463,0.7582236253825061,-109.95608484367105
1620848084457147453,0.1279417044831832,0.7653752791746135,-109.56055139288222
1620848084465147453,0.13456003230823618,0.7733039582429849,-109.15192757984309
1620848084473147453,0.14098239433087806,0.7800995272580464,-108.94964167062436
1620848084481147453,0.1475321045370943,0.7852750069784679,-108.81064947742153
1620848084489147453,0.15400834363099292,0.7889122288212808,-108.34930353628893
1620848084497147453,0.16056592947079615,0.7919115777671076,-108.11622538055222
1620848084505147453,0.16695011915957458,0.7949696516739689,-107.88205630225148
1620848084513147453,0.1735049359665204,0.798402228694747,-107.67883991537475
1620848084521147453,0.18019946678160567,0.8031858468982499,-107.50174128374614
1620848084529147453,0.18700958259103534,0.8091926311396143,-107.19907123724172
1620848084537147453,0.1936522796317171,0.8145967026568183,-106.57518518480775
1620848084545147453,0.20046659101502073,0.8200509247483332,-106.2705446407813
1620848084553147453,0.20728087413272223,0.8239744177944853,-106.11990970032959
1620848084561147453,0.21409069402328273,0.8269393676888467,-106.10203737022616
1620848084569147453,0.22068367066145642,0.8281293875699961,-105.9551269798771
1620848084577147453,0.2273289405971557,0.828645690933449,-105.74916945583473
1620848084585147453,0.23404863984898877,0.8295349969554888,-105.71674975058092
1620848084593147453,0.24080550422508493,0.8312363655939687,-105.60665599755163
1620848084601147453,0.2474644249085155,0.832796358267086,-105.52742845673528
1620848084609147453,0.2542691383756767,0.8353179979580296,-105.25823648981323
1620848084617147453,0.2611801702392008,0.8386543744713669,-105.06594376130359
1620848084625147453,0.2681988966597729,0.8431160369810391,-104.86739076110236
1620848084633147453,0.2751156320346213,0.8482826203967978,-104.59530015218633
1620848084641147453,0.2821902641244687,0.8539926807619094,-104.45527165755277
1620848084649147453,0.2894194524166412,0.8610577112617275,-104.37967031758656
1620848084657147453,0.29675937386354667,0.8689436246950833,-104.0982993469535
1620848084665147453,0.30407333502745393,0.8760317123886847,-103.68060737122057
1620848084673147453,0.3114370913870212,0.8826863432487644,-103.21205785808931
1620848084681147453,0.3187788915883176,0.8870942087170993,-102.91738432361765
1620848084689147453,0.32597363574541127,0.8895362262945722,-102.74181228982717
1620848084697147453,0.3331360859175141,0.8906150977703123,-102.60093898052683
1620848084705147453,0.34030672072538554,0.8917999551679051,-102.51708569931691
1620848084713147453,0.34758504616833186,0.893776710795337,-102.55811082380146
1620848084721147453,0.3549582565277115,0.8972877428814189,-102.26007233840743
1620848084729147453,0.3623579434210226,0.9025770755315425,-102.14815288104032
1620848084737147453,0.3698718968493574,0.9081682029752247,-101.70927135259663
1620848084745147453,0.3774864322771074,0.9137143228399734,-101.67885042632084
1620848084753147453,0.3851371052395361,0.9186191427843161,-101.5736430006708
1620848084761147453,0.3925863521671275,0.9227468596011152,-101.56698654351253
1620848084769147453,0.4001180298499386,0.9250408193638093,-101.71548726920292
1620848084777147453,0.4076206813336008,0.9259051087571196,-101.50086520045481
1620848084785147453,0.4151180715682741,0.926362798582171,-101.548356652525
1620848084793147453,0.42247691966008344,0.9277223189255099,-101.52195290387901
1620848084801147453,0.4300380906600848,0.930679085505559,-101.11398190726331
1620848084809147453,0.43777280961393816,0.9343415841227956,-101.24353321357734
1620848084817147453,0.4454598869961752,0.9382955508187428,-100.84154282373724
1620848084825147453,0.4530504959090752,0.9415568082189114,-100.57560528185356
1620848084833147453,0.4607971959985539,0.9453498411841441,-100.0155671832092
1620848084841147453,0.46857130626084836,0.9485189617570849,-99.64356495176384
1620848084849147453,0.4763245197246204,0.9510408906240835,-99.28547968651597
1620848084857147453,0.4839773570683673,0.9532006680776735,-99.0208636979733
1620848084865147453,0.4917163920393426,0.9551014576405883,-98.83200048076824
1620848084873147453,0.4995091165693785,0.9566433616426527,-98.51140151758688
1620848084881147453,0.507380014231756,0.9593726522035755,-98.09829285053168
1620848084889147453,0.5151001635962926,0.9627145427701594,-97.8693841229132
1620848084897147453,0.5229497838087783,0.9655626896958455,-97.47168587952267
1620848084905147453,0.5308181057586566,0.9671979813791817,-97.303375984082
1620848084913147453,0.538585078242963,0.968071700478265,-96.9622488927699
1620848084921147453,0.5463250328739528,0.9689818739150442,-96.55901680754941
1620848084929147453,0.5541383349651998,0.9700819943768164,-96.13024072264675
1620848084937147453,0.5620374803043691,0.971579440049791,-95.70327286801123
1620848084945147453,0.569947050592474,0.9737371257398602,-95.49424335080968
1620848084953147453,0.5777131774818117,0.9745438814789292,-95.08777664331943
1620848084961147453,0.5855069000988323,0.9744746437939471,-94.85213725367365
1620848084969147453,0.5934643074571767,0.9755548443750106,-94.90049695388875
1620848084977147453,0.6013301712341004,0.9770728234692571,-94.62694390924774
1620848084985147453,0.6091712090684975,0.9793674914367654,-94.3157264202916
1620848084993147453,0.6171361880663853,0.9816438276551929,-93.926673660912
1620848085001147453,0.6251922943895436,0.9839075009559938,-93.86846203492122
1620848085009147453,0.6331964585454937,0.9854496222750332,-93.78321927207398
1620848085017147453,0.6410245489636516,0.9862288887122247,-93.74112821855853
1620848085025147453,0.6488510773260076,0.9858836107550194,-93.88362250184552
1620848085033147453,0.6567806758916671,0.9850870745036253,-94.1832979016175
1620848085041147453,0.6646537307095899,0.9845877231950754,-94.1589642597819
1620848085049147453,0.6724638538214149,0.9848875938032324,-94.01511885080002
1620848085057147453,0.6803722393003864,0.9855293267282078,-93.9043447820076
1620848085065147453,0.6883553403782415,0.9868315318005346,-93.87571610565172
1620848085073147453,0.6963377394567974,0.9882919802785872,-93.55330730143989
1620848085081147453,0.7042555737926104,0.9891975425474764,-93.28194826538504
1620848085089147453,0.7122752633748693,0.9910108143274796,-92.90889727356303
1620848085097147453,0.7202851345717187,0.991379777589757,-92.81463942811929
1620848085105147453,0.7283230050735519,0.991898108545349,-92.50688773867431
1620848085113147453,0.7361096425566014,0.9919207005629257,-92.40588133186368
1620848085121147453,0.7441841733196104,0.9944416136148212,-92.29174743314138
1620848085129147453,0.7526189293020371,1.0020073921359953,-91.6888220850482
1620848085137147453,0.7612386567383523,1.0115614704122684,-90.9871343076881
1620848085145147453,0.7695932000390722,1.0193722521004258,-90.22838573609545
1620848085153147453,0.7780758879984907,1.0254684189521324,-89.8770499668927
1620848085161147453,0.7865834008607453,1.0299054423955072,-89.55183732919743
1620848085169147453,0.7948891731233386,1.0315309950154854,-88.95772942761555
1620848085177147453,0.8030817767962224,1.0313780602209703,-88.8535001037559
1620848085185147453,0.8112080843884258,1.0289151892033161,-88.28407063695481
1620848085193147453,0.8192837675913508,1.0254114549697373,-87.90369788179649
1620848085201147453,0.8273309007486023,1.021563648466959,-87.73383817854211
1620848085209147453,0.8351601370550902,1.016638615173189,-87.463033431859
1620848085217147453,0.8430112793676062,1.0113098523110864,-87.47500852651928
1620848085225147453,0.8508363872257001,1.005752573543602,-87.2218556475412
1620848085233147453,0.8586223257256477,1.0004155907019439,-87.00683886511241
1620848085241147453,0.8662450677968673,0.9947583647870973,-86.81693585989736
1620848085249147453,0.8740051009297181,0.989943387647002,-86.504537790123
1620848085257147453,0.8817855766522404,0.986118220415543,-86.31005610867274
1620848085265147453,0.8894851762626378,0.9823981488897952,-86.34299427018043
1620848085273147453,0.8970295318316868,0.9786668203887674,-86.29297173766477
1620848085281147453,0.904596894076286,0.9741709552846319,-86.46393924350697
1620848085289147453,0.9121949477925777,0.9694295575397893,-86.47381361424019
1620848085297147453,0.9197539197365779,0.9655035124016751,-86.43406336757668
1620848085305147453,0.9272193031991206,0.9621658070774535,-86.32646123938841
1620848085313147453,0.9347604340041101,0.9588562730541234,-86.46131381829983
1620848085321147453,0.9423611838145085,0.9569167361572898,-86.53095128903755
1620848085329147453,0.949916181918987,0.9551450575467231,-86.05914259435237
1620848085337147453,0.957358104886201,0.9521957645505562,-86.00412562771163
1620848085345147453,0.9648378656028673,0.9496916101060338,-85.86137931444404
1620848085353147453,0.9723613166051,0.947621807253039,-85.84028610224033
1620848085361147453,0.9799620060691472,0.9459358154999522,-85.66949622647405
1620848085369147453,0.9872270504861869,0.9431167065879428,-85.47738946233773
1620848085377147453,0.9945464077466286,0.9390242647170982,-85.51982938179783
1620848085385147453,1.0019289631857402,0.9346006258685585,-85.66618227810098
1620848085393147453,1.0092359825687132,0.931644534063793,-85.63413756840217
1620848085401147453,1.0163927859211404,0.9276427461161465,-85.53070028536354
1620848085409147453,1.0235586283133695,0.9230285216922118,-85.30735975070155
1620848085417147453,1.0307172740754236,0.9179814696306441,-85.5587417244996
1620848085425147453,1.0378148228440487,0.9126761925105557,-85.28456906274103
1620848085433147453,1.0447737249739273,0.9079652278880245,-85.72600576894031
1620848085441147453,1.0517508663254556,0.9026319514395607,-85.43131261094855
1620848085449147453,1.0587560632856434,0.8975067265716816,-85.18856043537029
1620848085457147453,1.0657271378638833,0.8928310625586566,-85.26888032411833
1620848085465147453,1.0725369733691676,0.8887495381667032,-85.22771473059383
1620848085473147453,1.0793626082733956,0.8833473612524054,-85.46197690225951
1620848085481147453,1.0861766517138627,0.8776514761314456,-85.01112079247582
1620848085489147453,1.0929592183265417,0.8720198319532568,-84.92988425557868
1620848085497147453,1.099468529566265,0.8655279430687461,-85.01207301186986
1620848085505147453,1.1061111039625529,0.8604620692198615,-84.79194188823574
1620848085513147453,1.1128107058953356,0.8557690905606311,-85.10153480529551
1620848085521147453,1.1194915383885502,0.8520869842491788,-84.98225489576862
1620848085529147453,1.126047655024224,0.8489526287325115,-84.82501222342744
1620848085537147453,1.132652243799192,0.8456554328571594,-84.59386745111999
1620848085545147453,1.1392639961278423,0.8420125441525601,-84.58512361923356
1620848085553147453,1.1460001386484209,0.8419414656647097,-84.6871139647175
1620848085561147453,1.1527945672173103,0.8440369554240793,-85.16131075296323
1620848085569147453,1.1597300834588624,0.8467921381653574,-85.46891427227642
1620848085577147453,1.1666718726873457,0.8498130460708677,-85.40809099823774
1620848085585147453,1.173577120397218,0.8505985088224164,-85.34975564000135
1620848085593147453,1.1800966996421876,0.8468880411967872,-85.06185681138363
1620848085601147453,1.1865373331268718,0.8407020192576304,-85.24459681318365
1620848085609147453,1.1928177537763949,0.8314567615074379,-85.4021358581221
1620848085617147453,1.1988961163706155,0.821176025181788,-85.39577782220589
1620848085625147453,1.2048820998446168,0.8111589319128736,-85.50109729363695
1620848085633147453,1.2108710743226887,0.8014311566882276,-85.37976333155846
1620848085641147453,1.2168228983915161,0.7924762481377322,-85.7802194811673
1620848085649147453,1.2227674495112217,0.7848729164816579,-85.92564571803051
1620848085657147453,1.228744111665449,0.7803847046795637,-85.5360715434678
1620848085665147453,1.2346969938331729,0.7749989740529627,-85.7500334446421
1620848085673147453,1.2406950922627695,0.7700785941995769,-85.35869671105793
1620848085681147453,1.2465519741123685,0.763288607086176,-85.2253785593841
1620848085689147453,1.2521950811989129,0.7569097751052966,-85.28225419497755
1620848085697147453,1.2579438229304614,0.751109726523725,-85.32036894533378
1620848085705147453,1.2635361017360374,0.7433505127624533,-85.74950374337152
1620848085713147453,1.2691400692037877,0.7360087968631696,-85.52838365481183
1620848085721147453,1.2745209384518477,0.7276500200290065,-85.90151383998779
1620848085729147453,1.2799315542601217,0.7202852513864285,-86.05177341431124
1620848085737147453,1.2853137977848885,0.7124859333944399,-86.15265586378432
1620848085745147453,1.2906710886368327,0.7061650016043413,-86.46062729428431
1620848085753147453,1.2960166329869043,0.7010382278673744,-86.13777092967445
1620848085761147453,1.3012925443506758,0.6951086021600205,-86.2319070623588
1620848085769147453,1.306589620996242,0.6892673562135426,-86.53656626194991
1620848085777147453,1.3117906787410496,0.682778208677926,-86.45370492702419
1620848085785147453,1.3168731701240286,0.6771100930247221,-86.67849318755216
1620848085793147453,1.321913823862169,0.6702911225839012,-86.91570253273542
1620848085801147453,1.327022989148143,0.6647881337865094,-87.47963863188593
1620848085809147453,1.3320719761434971,0.6591346929382093,-87.81375221699335
1620848085817147453,1.3369593826098987,0.653466390887568,-88.23432379828412
1620848085825147453,1.3419009854298298,0.6479941019920064,-88.68706983380117
1620848085833147453,1.346816947040477,0.6424212476083373,-88.84999951478454
1620848085841147453,1.351662729587349,0.6364046085556125,-89.16929499993763
1620848085849147453,1.3563075527990118,0.6292328669514713,-89.51852862101813
1620848085857147453,1.3609443095645877,0.6221591907957241,-89.71140414614034
1620848085865147453,1.365468764611327,0.612614896243211,-90.081467073196
1620848085873147453,1.3699735729222002,0.6053509940175531,-90.55998614459435
1620848085881147453,1.3743206940289057,0.597253395808838,-90.85037171737166
1620848085889147453,1.3786315676681256,0.5884203878846725,-91.42381881558703
1620848085897147453,1.3828364481810993,0.5786548999092297,-92.03472590823368
1620848085905147453,1.3870631862661726,0.5714675795400167,-92.62943679099243
1620848085913147453,1.3912332295826983,0.5643556172774843,-93.19878209040452
1620848085921147453,1.3954352675582007,0.5581682166648319,-93.71272483194157
1620848085929147453,1.3995479070739583,0.5508892770488665,-94.39810852348724
1620848085937147453,1.4036728639530003,0.5457268164618703,-95.00715373395045
1620848085945147453,1.407654654336755,0.5397670035339746,-95.41024063538511
1620848085953147453,1.411634741407751,0.533205308348535,-95.94972799548276
1620848085961147453,1.4156076080914086,0.5274529036330148,-96.63332513336906
1620848085969147453,1.4195011350959252,0.5215379831456869,-97.25072222723632
1620848085977147453,1.423362929787891,0.5161198970051674,-98.24611621075486
1620848085985147453,1.4271616161626652,0.5099965825390044,-99.40153623160994
1620848085993147453,1.431037610358025,0.5054304322002818,-100.6164704087851
1620848086001147453,1.4347728127617607,0.49957838520191156,-101.48701471013675
1620848086009147453,1.438423159168592,0.4935582259419555,-103.03431558769057
1620848086017147453,1.44205602757341,0.48831633871075353,-104.36584133479893
1620848086025147453,1.4455999198193885,0.4814243408279818,-106.00695882564563
1620848086033147453,1.4492015132472447,0.47576573567456043,-107.69821396988046
1620848086041147453,1.4526219097375281,0.4698072416377706,-109.0384993805082
1620848086049147453,1.4560811032221397,0.4641632171203369,-110.73628428643183
1620848086057147453,1.459482205669084,0.4575579771185272,-112.04596916135412
1620848086065147453,1.4627582376113797,0.44972575774598633,-113.11993162719938
1620848086073147453,1.4657999506548882,0.4408515041145382,-114.40663820474282
1620848086081147453,1.4688969337718636,0.4330042543745686,-115.53711302461265
1620848086089147453,1.4719324822414686,0.42439457860730306,-116.35311971005417
1620848086097147453,1.4749408372978188,0.41663949554684154,-117.32927779024828
1620848086105147453,1.477719880185862,0.4076365074308169,-117.96809399382988
1620848086113147453,1.4805053868205584,0.3987470631770987,-118.9155225541307
1620848086121147453,1.483225360614523,0.38932475466895466,-119.42866537562438
1620848086129147453,1.4859534531266574,0.38186490913205573,-119.9581229180832
1620848086137147453,1.488457271304918,0.3727104750896324,-120.97589883569928
1620848086145147453,1.4909156089749733,0.3629122510649153,-122.24648950343953
1620848086153147453,1.4932893114171402,0.3528084465676636,-123.0121117155514
1620848086161147453,1.4955993793298765,0.34290177631263313,-124.40606440718916
1620848086169147453,1.4977321570131323,0.3322417360238537,-125.90137288673837
1620848086177147453,1.499807825396091,0.3216211564395191,-127.18391070500097
1620848086185147453,1.501847680083858,0.31145025204392884,-128.67726853731864
1620848086193147453,1.5038496520927274,0.30239777127234413,-130.23902506507392
1620848086201147453,1.5057570245355885,0.2932405601708723,-131.79016114213687
1620848086209147453,1.507677069789382,0.28527549740483676,-133.18400344208854
1620848086217147453,1.5095678343655432,0.27791040065397765,-134.8190064716074
1620848086225147453,1.5115148897933623,0.27231660511807554,-136.42318564334764
1620848086233147453,1.5133830381211377,0.2671648430094774,-137.74006554771316
1620848086241147453,1.5151709519144068,0.26073662370191647,-139.14910544439246
1620848086249147453,1.5168852168330205,0.25334403995979377,-140.87701224430344
1620848086257147453,1.518477184081886,0.245095269322719,-142.15599565060378
1620848086265147453,1.5199351505796714,0.23641223287736438,-143.63857410453627
1620848086273147453,1.521387170311543,0.22828074571002732,-145.20988941832042
1620848086281147453,1.522811774244637,0.22058117339416122,-146.5906926437646
1620848086289147453,1.5241082295793762,0.2117633127933918,-147.84262181556014
1620848086297147453,1.525372338515744,0.20428745785945027,-149.17346573403154
1620848086305147453,1.5266004237933808,0.1967526362100483,-150.6737598811767
1620848086313147453,1.5277190846240143,0.18802453933401514,-152.00030177227868
1620848086321147453,1.528752552293514,0.1792090098487647,-153.18624680381916
1620848086329147453,1.5297597039139768,0.17167304328754654,-154.4886402150314
1620848086337147453,1.5307621177090838,0.1648340193907265,-155.82580911212287
1620848086345147453,1.5317046975347244,0.15770952170075822,-157.00646489958828
1620848086353147453,1.5325881531796195,0.15073722298743844,-158.1840398376429
1620848086361147453,1.533467495636333,0.14473063656048524,-159.60015277298032
1620848086369147453,1.5343084535390927,0.13888595892949643,-160.80781118441723
1620848086377147453,1.535239653585656,0.13541487532955643,-161.88038879865607
1620848086385147453,1.5360768308436152,0.1307328444009364,-162.79414665104383
1620848086393147453,1.536921165525099,0.12728651889882867,-163.87020971808343
1620848086401147453,1.5377611389982595,0.12403532960760005,-164.9988493173797
1620848086409147453,1.5385844471804284,0.12035158175441955,-165.945534245756
1620848086417147453,1.5392981639483816,0.11592863220236538,-166.72209474853506
1620848086425147453,1.540006909487958,0.11216247882742314,-167.58887155633508
1620848086433147453,1.5406642366154986,0.1077111842896725,-168.42521211922985
1620848086441147453,1.541335157868016,0.1040775682014143,-169.0244313030143
1620848086449147453,1.5419662058507393,0.10033546754209186,-169.98644462627016
1620848086457147453,1.5425242145812412,0.09589606942540246,-170.6112706051574
1620848086465147453,1.542980236087805,0.09014728193764096,-170.77504297383436
1620848086473147453,1.5434152186598495,0.08474393270509496,-170.7255608505654
1620848086481147453,1.5438016518939301,0.07938224092578834,-170.5115095833411
1620848086489147453,1.5440664867796956,0.07254661854238668,-169.80864766142506
1620848086497147453,1.544313337655207,0.06637231483274242,-169.4805605869108
1620848086505147453,1.5445484175538475,0.06086096207709705,-169.04632707104236
1620848086513147453,1.5448121570094118,0.056599256026936454,-168.5566003137499
1620848086521147453,1.5450304686432568,0.05238655335069038,-168.19061715381042
1620848086529147453,1.5452433733177469,0.04856593428685524,-167.50833899559674
1620848086537147453,1.545404889134244,0.04430931885713387,-167.21057601240327
1620848086545147453,1.5455189524852697,0.03983843254720646,-166.55885252445574
1620848086553147453,1.5456598780686015,0.036621719373472764,-166.07675501298047
1620848086561147453,1.5458007176814135,0.03380504546477287,-165.17402315855395
1620848086569147453,1.5458785725484534,0.030212519533986234,-164.60351047763785
1620848086577147453,1.545945836525105,0.026962516669849196,-163.9943834522337
1620848086585147453,1.5459785022531933,0.023622103734518847,-163.29458860569238
1620848086593147453,1.5460320249415123,0.021140286145684892,-162.88095106575207
1620848086601147453,1.5461179516508792,0.019595601190849257,-162.56601095332792
1620848086609147453,1.5461482360003558,0.017201720176526797,-162.4074809279333
1620848086617147453,1.546215670224133,0.015948900952075625,-162.08673536810477
1620848086625442979,1.5462353070813633,0.01389459656473544,-161.74775308996647
1620848086633442979,1.5462674195833686,0.012388019825638943,-161.70654027597823
1620848086641442979,1.5462996694358744,0.011184600004103075,-163.05682388560388
1620848086649442979,1.5463457924218962,0.010386510424355655,-164.63821112919427
1620848086657442979,1.5464269870697518,0.010347757144389312,-165.84632651530012
1620848086665442979,1.546454418566903,0.009323678756927937,-166.81120276954377
1620848086673442979,1.5464998917844235,0.008776147411672259,-167.35427314370355
1620848086681442979,1.5465383785012623,0.00821561618173302,-167.8261285418349
1620848086689442979,1.5465701256558042,0.007568728455238863,-168.25607355554413
1620848086697442979,1.5466604227883491,0.008110860433636341,-168.41977076531953
1620848086705442979,1.5466533226714556,0.006777943176396139,-168.37151708574618
1620848086713442979,1.54668993466939,0.006449959256641751,-168.34031044658548
1620848086721442979,1.5467437263403514,0.006529824740500364,-168.2092809407054
1620848086729442979,1.54676768902053,0.00599907848408351,-167.8218512899678
1620848086737442979,1.546767182919953,0.005116998278486604,-167.49151853384356
1620848086745442979,1.5468040903619396,0.005016587784349087,-167.11209381195803
1620848086753442979,1.5468207433776124,0.004624889340791369,-166.8975198327853
1620848086761442979,1.5468115928891024,0.0037824286220194845,-166.6161903096253
1620848086769442979,1.5468040802582914,0.0031018206454032655,-166.68801129675356
1620848086777442979,1.5469053148403875,0.00454169647663761,-166.4942759825662
1620848086785442979,1.5469483579733374,0.004679724247861772,-166.20508099748366
1620848086793442979,1.5469607659415485,0.004171207415463028,-165.77279268859675
1620848086801442979,1.5469304497579426,0.002988794857551263,-165.36442917103074
1620848086809442979,1.5469267666861697,0.002499483618417655,-165.37042834756474
1620848086817442979,1.546966483400992,0.0028858482339300827,-165.05555236879965
1620848086825442979,1.5469798888977107,0.0027424380986033193,-164.84571037451417
1620848086833442979,1.546988458614532,0.002465271165679562,-164.683377539426
1620848086841442979,1.5469781750122136,0.0019474107783861228,-164.18394810495084
1620848086849442979,1.5469445638148323,0.0010264503480014384,-163.93220114638336
1620848086857442979,1.5469568102169087,0.0010436590932926748,-163.64776504308887
1620848086865442979,1.54694694516621,0.0006648596642964072,-163.35550189749014
1620848086873442979,1.5469813615570789,0.0011909545201780343,-163.00961787382113
1620848086881442979,1.5470111754954707,0.0015738408548913168,-162.77227613992204
1620848086889442979,1.5470356312413545,0.0017545791066775355,-162.53780427346476
1620848086897442979,1.54699461708669,0.000740037171420789,-162.49611609176912
1620848086905442979,1.5469604288865455,1.2271701270437612e-05,-162.00951219406699
1620848086913442979,1.5469327908492836,-0.00046673373407518675,-161.92682768137007
1620848086921442979,1.5469269934166865,-0.0004944511559014518,-161.64069414102542
1620848086929442979,1.546988927355774,0.0007608888424361635,-161.56498343251835
1620848086937442979,1.546974657825133,0.000343539703194994,-161.4775224826899
1620848086945442979,1.5469833561837845,0.0004326256344789314,-161.37483978104967
1620848086953442979,1.546993348181771,0.0005676899750324085,-161.26292045397454
1620848086961442979,1.5469818916786944,0.0002986215434121144,-160.93163519271232
1620848086969442979,1.5469894941227533,0.0003652635026094587,-160.91767595270764
1620848086977442979,1.5469762724066847,6.551884605654997e-05,-160.7652313021623
1620848086985442979,1.546942395331796,-0.0005899607827608382,-160.56177595673753
1620848086993442979,1.546934773238623,-0.0006690527185654422,-160.3545264049621
1620848087001442979,1.5469495827141062,-0.00030267663113708214,-160.06235858769577
1620848087009442979,1.5469206763523682,-0.0007964812336007193,-159.89089304864333
1620848087017442979,1.546915023404231,-0.0008161986838660833,-159.61453609323547
1620848087025442979,1.5469121109694024,-0.0007475551191474674,-159.35987571690785
1620848087033442979,1.5468890109355022,-0.001069151881587954,-158.9839556567206
1620848087041442979,1.54689021043035,-0.0008858326150347044,-158.90848537315577
1620848087049442979,1.5468916646887814,-0.0007378932441307163,-158.7334108272124
1620848087057442979,1.5468944373295146,-0.0005514734357470135,-158.62984363894003
1620848087065442979,1.546898773459995,-0.000347771840892462,-158.4527318612009
1620848087073442979,1.5468562531486818,-0.0010800069108465712,-158.27841341013735
1620848087081442979,1.5469052209722136,-1.7971575738827023e-05,-158.08942795542924
1620848087089442979,1.5468828334109326,-0.0004515930815124537,-158.07539741408394
1620848087097442979,1.5469095294256194,0.00016308642044386912,-157.96060597008653
1620848087105442979,1.546925977456623,0.00038690432245661423,-157.86103309839197
1620848087113442979,1.5469417047640739,0.000614948419639199,-157.65189033937057
1620848087121442979,1.5469750983939738,0.0010884408495594518,-157.45783313644725
1620848087129442979,1.5470048819168898,0.0014340588747729125,-157.58105054827237
1620848087137442979,1.5470530719420108,0.0021171159362781884,-157.53568715148413
1620848087145442979,1.5470301479913962,0.0013821107437269422,-157.45748469286335
1620848087153442979,1.5469682629722028,3.617066955318137e-05,-157.20780875289503
1620848087161442979,1.5469804096493698,0.0002697229137734135,-157.11237368141292
1620848087169442979,1.5470341157872738,0.0012268507505077257,-156.99549465822912
1620848087177442979,1.5470349475276435,0.0010549323445537737,-156.63063330911666
1620848087185442979,1.5470336941972371,0.0008373460483458268,-156.48190323583037
1620848087193442979,1.5471022860105048,0.002004115141286536,-156.35379270137187
1620848087201442979,1.5471187627388026,0.002071530963316504,-156.09055104943116
1620848087209442979,1.5471077817641468,0.001557191589921071,-155.45423619583124
1620848087217442979,1.5471393723640978,0.0018778064335922013,-154.8847824435719
1620848087225442979,1.5471044010827801,0.0009423133707923773,-154.44366573408752
1620848087233442979,1.5471173281199702,0.001039131702550556,-153.8980580132768
1620848087241442979,1.5470846624677381,0.00029373896518710346,-153.2827405754896
1620848087249442979,1.547036004097663,-0.0006344172536716979,-152.42090344523635
1620848087257442979,1.5470553491404697,-0.00022364752974728266,-152.01192471962443
1620848087265442979,1.5470518351760598,-0.0002853865954059439,-151.68521540971037
1620848087273442979,1.5470297238347033,-0.0006499747122668027,-151.19504645144664
1620848087281442979,1.5470302859905014,-0.0005648315216551422,-150.7732823191153
1620848087289442979,1.5470527281345154,-5.9406084912962804e-05,-149.91769306179063
1620848087297442979,1.5470530677074483,-8.075958733179617e-06,-148.65776514233787
1620848087305442979,1.5470299810085422,-0.0004346893058706002,-146.70191126138982
1620848087313442979,1.5469921848432255,-0.001045501460679988,-144.3185052603558
1620848087321442979,1.5469572822547768,-0.0015322210757953004,-141.27801021978374
1620848087329442979,1.5469272478489322,-0.001864886544665523,-138.09246767963853
1620848087337442979,1.5469014137534014,-0.002059797097070933,-133.87877026069768
1620848087345442979,1.5468797354566988,-0.00216834143005599,-129.5085253321152
1620848087353442979,1.5468404165191374,-0.0025747764375426163,-124.52481375196759
1620848087361442979,1.5467015301908333,-0.004747464871378175,-119.64933654856283
1620848087369442979,1.5464517948006933,-0.008687709129995416,-114.76722439249718
1620848087377442979,1.545985328535039,-0.01603650738219362,-109.99399370937662
1620848087385442979,1.5452835124767095,-0.026720632898313543,-104.99003740714905
1620848087393442979,1.5443866484346738,-0.039419508815756635,-100.24560302997088
1620848087401442979,1.5433463162896974,-0.05290142204987772,-95.65859447256639
1620848087409442979,1.5421863843865782,-0.06652286891098735,-90.8192633558373
1620848087417442979,1.5409933306663952,-0.07877507694254796,-86.45124275634726
1620848087425442979,1.539712565478935,-0.09083437929167142,-82.45631988801813
1620848087433442979,1.5384903501222353,-0.09997605837217453,-79.1554438860263
1620848087441442979,1.5373706086801124,-0.10590383039719528,-76.03104202828354
1620848087449442979,1.5362245124931733,-0.11145677544624763,-72.96647011400556
1620848087457442979,1.5350328284881158,-0.11704803067576298,-70.2429620492557
1620848087465442979,1.5335322433437504,-0.12741774846656143,-67.44327448663532
1620848087473442979,1.531860395844688,-0.13948534972955445,-64.0408551010941
1620848087481442979,1.5300096034147976,-0.15335750414430913,-60.95514440059332
1620848087489442979,1.5279200043435133,-0.16929431397414355,-57.373584707361104
1620848087497442979,1.5256275893432192,-0.1866389360620843,-54.089672828035944
1620848087505442979,1.5230350992524138,-0.20698660925160675,-51.20454428908592
1620848087513442979,1.5201117896792375,-0.23062631698227443,-48.45594241265831
1620848087521442979,1.5168905230737597,-0.25617350303251846,-45.69037591360141
1620848087529442979,1.51349371781834,-0.2809157922412866,-43.314290431610644
1620848087537442979,1.509986174620754,-0.3038021244776581,-41.165198474188536
1620848087545442979,1.50656184560198,-0.3228696339185791,-39.09424647464366
1620848087553442979,1.5031114266179932,-0.3388949659348407,-37.284394508998204
1620848087561442979,1.4995934113821483,-0.3533974445607294,-35.49703890456369
1620848087569442979,1.4961332476105222,-0.36478676191202236,-34.08553473605153
1620848087577442979,1.492821997983223,-0.37280184819767725,-32.896504154139365
1620848087585442979,1.4894677892647996,-0.37973426863460896,-31.71863164203529
1620848087593442979,1.4861116954303137,-0.38515742637873157,-30.655600582781403
1620848087601442979,1.4828223077269627,-0.38877588689144177,-29.722818250891933
1620848087609442979,1.4796221017027127,-0.39113535619784334,-28.748987294687748
1620848087617442979,1.4764912150814542,-0.3911641868471177,-27.780015111086513
1620848087625442979,1.4732652891042457,-0.3927711449071031,-26.76589925441425
1620848087633442979,1.4699923992330843,-0.3933171541195449,-25.7611236181954
1620848087641442979,1.466896471678345,-0.39450177679423903,-24.776901489256055
1620848087649442979,1.4635791737215107,-0.3974378067328721,-23.71359331526708
1620848087657442979,1.4601232015535441,-0.40224553380681893,-22.793998675383634
1620848087665442979,1.4566457314298409,-0.4070797708095044,-21.975481727079778
1620848087673442979,1.4531037828618047,-0.4124742013555235,-21.332117171102862
1620848087681442979,1.4495696123065758,-0.41706597452236893,-20.74146454194903
1620848087689442979,1.4459572373156269,-0.42197247233029883,-19.878212515975623
1620848087697442979,1.4422962967174762,-0.42734726017451957,-19.065344489864366
1620848087705442979,1.4385665486138108,-0.4332544770191827,-18.234071840333794
1620848087713442979,1.4347133559932936,-0.44033994599623716,-17.53806744105636
1620848087721442979,1.4308071621182306,-0.4473066847316464,-17.067593950109078
1620848087729442979,1.4268465576732194,-0.4539731993641528,-16.237178950003486
1620848087737442979,1.4227657787911536,-0.46293207521003504,-15.550499613184947
1620848087745442979,1.4186616013850444,-0.47040490587796346,-15.096680391642007
1620848087753442979,1.4144676692479445,-0.4777157307490357,-14.234032333558542
1620848087761442979,1.4102745687246512,-0.4836820591745463,-13.46993280002393
1620848087769442979,1.4061801675628427,-0.4894377718818513,-12.726627455899497
1620848087777442979,1.4018856190874593,-0.49622354402692814,-11.896778890351179
1620848087785442979,1.3976157112003142,-0.50115778271092,-10.993671275806594
1620848087793442979,1.3932262604252417,-0.5082523366537176,-10.194247904861546
1620848087801442979,1.3888802252780956,-0.5142641146171654,-9.713888530602315
1620848087809442979,1.3843892484089246,-0.521248204450014,-9.142025226625115
1620848087817442979,1.3798334209942804,-0.527739237447001,-8.676446713156178
1620848087825442979,1.3752862468903158,-0.5338310372552582,-8.12992910978453
1620848087833442979,1.370660544752212,-0.5408645775489452,-7.617564537895387
1620848087841442979,1.3660391971162489,-0.5463143003530997,-7.0605431102148355
1620848087849442979,1.3612513625316323,-0.5534048944539968,-6.589608532950353
1620848087857442979,1.3564585990721203,-0.5600148362644309,-6.060785486166134
1620848087865442979,1.351715837926374,-0.565643153432753,-5.709332716554302
1620848087873442979,1.346860162682154,-0.571969059768961,-5.1558159382856275
1620848087881442979,1.342043002407849,-0.5761764320740411,-4.505234831458536
1620848087889442979,1.3371130074880453,-0.581108619674915,-3.938005883926786
1620848087897442979,1.3322912191433824,-0.5855094812850066,-3.3225256625400954
1620848087905442979,1.32732715202308,-0.5907467061138986,-2.6970027329347466
1620848087913442979,1.3221947156695482,-0.5971355122144373,-2.2144972737273516
1620848087921442979,1.3170707164538364,-0.6039455390776969,-1.8579569562720977
1620848087929442979,1.3118583264218355,-0.6118803070429146,-1.504711737465463
1620848087937442979,1.3065553681053577,-0.6192271773432796,-1.1440415181456587
1620848087945442979,1.3011319293862198,-0.6275372233195629,-0.798897266481544
1620848087953442979,1.2956858059649152,-0.6347939961213709,-0.581776729954636
1620848087961442979,1.2902349770378112,-0.6426446984845999,-0.4952856332521876
1620848087969442979,1.2847029327624997,-0.6496787292955571,-0.24742528086142435
1620848087977442979,1.279220881613667,-0.6551095608114663,0.009670589672048764
1620848087985442979,1.2736882869942432,-0.6600849695107498,0.3346215393704181
1620848087993442979,1.268189645717059,-0.6644049486823336,0.26914051944719275
1620848088001442979,1.26253734983878,-0.670921374014509,0.43243228021546243
1620848088009442979,1.2568154302904553,-0.6771514593092085,0.5167826828496402
1620848088017442979,1.2509690755857141,-0.6840895497794084,0.46931696916893517
1620848088025442979,1.2452977915767462,-0.6891812591543043,0.7614205620141842
1620848088033442979,1.2394442228048885,-0.6952482503379107,0.856972349028353
1620848088041442979,1.233538668181869,-0.7013095551832871,1.0648639711704813
1620848088049442979,1.2275601124664854,-0.7072081796662528,1.2621352405633421
1620848088057442979,1.2216321421018979,-0.7132869046771485,1.3411954096527663
1620848088065442979,1.215729659352545,-0.7171014350086033,1.6144193906513429
1620848088073442979,1.2098987357195854,-0.7184695857358527,1.9555088738960893
1620848088081442979,1.2042013870930024,-0.717208566474316,2.465257959046303
1620848088089442979,1.1986196796045503,-0.7150727130252256,2.8105506580099027
1620848088097442979,1.192938595054865,-0.7143539316839516,3.3022350428390466
1620848088105442979,1.1871075398323139,-0.7157666472132894,3.578104001135493
1620848088113442979,1.1811234060229163,-0.7203417849139622,3.8473665832104165
1620848088121442979,1.1750658206471105,-0.7262621227933352,3.917901823186647
1620848088129442979,1.1688421630549262,-0.733873468289438,3.9637035352451417
1620848088137442979,1.1626257416137769,-0.7402563770870395,3.7479387326831306
1620848088145442979,1.1561853074582416,-0.7488580681723997,3.691941482019905
1620848088153442979,1.14984882827025,-0.7566408260967645,3.359946765447793
1620848088161442979,1.1434651419163253,-0.7631241359911186,3.1249013525265763
1620848088169442979,1.1370275847791402,-0.7691074728530224,3.2502718684984644
1620848088177442979,1.1305447141556413,-0.7744188520900348,3.398502734964664
1620848088185442979,1.1241809641324152,-0.7783406028130704,3.2808678888130016
1620848088193442979,1.1177600838675656,-0.7819199953361223,3.3327765506396223
1620848088201442979,1.1112116279262625,-0.7869513470229929,3.322662947967207
1620848088209442979,1.1045801314183084,-0.7925552343462628,3.2918760700187244
1620848088217442979,1.097948487282727,-0.7991228859825676,3.1209290506229594
1620848088225442979,1.091138213721212,-0.8067289321348802,3.0001163013399763
1620848088233442979,1.0841578151101785,-0.8151236414959913,2.6520813594821018
1620848088241442979,1.0771701523310575,-0.8222200415916137,2.1651330908582063
1620848088249442979,1.0705160945092236,-0.8267807900302405,2.286478516064758
1620848088257442979,1.063691815355412,-0.830453640326525,2.546113888370047
1620848088265442979,1.05680831465642,-0.8342149038515706,2.7015609622993146
1620848088273442979,1.049819601769292,-0.8391392021450458,2.8578977846396856
1620848088281442979,1.0428928089777152,-0.8448655959588565,2.8124544810970713
1620848088289442979,1.035774246624021,-0.8514516477306789,2.7888477949282855
1620848088297442979,1.0285951305452403,-0.8578098955479954,2.7828586955989456
1620848088305442979,1.021398309308535,-0.8637519009825305,2.5214083730185033
1620848088313442979,1.014254251525231,-0.8681269984391728,2.4279594762981693
1620848088321442979,1.0071101597374452,-0.8724947444767547,2.1792491050561607
1620848088329442979,0.9999502287513944,-0.875099702816037,2.0256744523393158
1620848088337442979,0.9926947620901988,-0.8793406711389108,1.8707051189949382
1620848088345442979,0.9854515323588404,-0.8842879108833733,1.715422850071421
1620848088353442979,0.9779435964648878,-0.8917679878777605,1.4744439475698186
1620848088361442979,0.9702793474482745,-0.9007028444214595,1.0525598693956286
1620848088369442979,0.9625418440753458,-0.9094025056346655,0.3442029793953055
1620848088377442979,0.9550656088803545,-0.9159408552596916,-0.1296666995314017
1620848088385442979,0.9474158970841118,-0.9217625467763432,-0.5165385802630249
1620848088393442979,0.9397938374651751,-0.9259200325781893,-0.9741527296321911
1620848088401442979,0.9321573055662667,-0.9304461375287499,-1.4997812756124453
1620848088409442979,0.9245267470800548,-0.9342445521397632,-2.255882741604826
1620848088417442979,0.9168805744509664,-0.9374297547891278,-2.7518713191784476
1620848088425442979,0.9092421972138619,-0.9393532365318489,-3.332936445190909
1620848088433442979,0.9016361154271213,-0.9402549949968355,-3.8139290596356834
1620848088441442979,0.8940911619332962,-0.9419413508942821,-4.239258624704229
1620848088449442979,0.8863757545523923,-0.9453952304901678,-4.902936889685107
1620848088457442979,0.878522826256604,-0.9492428839464976,-5.891621582826675
1620848088465442979,0.8707890428561562,-0.9526699902962023,-6.413729540271648
1620848088473442979,0.863039255664798,-0.955430259713827,-6.942972222880172
1620848088481442979,0.8552305137465712,-0.9581956278921563,-7.382313844690572
1620848088489442979,0.8474714888121205,-0.9595543171148456,-7.9086163943247785
1620848088497442979,0.8397750113874304,-0.959611387687671,-8.388710971972499
1620848088505442979,0.8321400462170546,-0.9599268290554744,-8.780618949415551
1620848088513442979,0.8244609304517406,-0.9594014659164988,-9.250782823647196
1620848088521442979,0.8168568652972646,-0.9574299743461506,-9.627405327589818
1620848088529442979,0.8092658057157494,-0.9554021631690512,-10.042680161961123
1620848088537442979,0.8018384299216335,-0.953288404790167,-10.177489833084657
1620848088545442979,0.7942255176109052,-0.9531529771110939,-10.347308283040437
1620848088553442979,0.7864852693303236,-0.9540570980734253,-10.745281015165682
1620848088561442979,0.7786805522092829,-0.9575910057079672,-11.072203831185655
1620848088569442979,0.7708996154906043,-0.9609360469293073,-11.792864836147134
1620848088577442979,0.7630399911831887,-0.9639540083326976,-12.453709933944184
1620848088585442979,0.7551542930476826,-0.9666385997679516,-12.985307565785522
1620848088593442979,0.747221711811078,-0.9680899528117526,-13.662229590604017
1620848088601442979,0.7396181716097238,-0.9681179418689757,-14.30379983726824
1620848088609442979,0.7318573095958836,-0.9683235510125755,-15.123919814997265
1620848088617442979,0.7241636960799793,-0.9668327145722823,-15.755936036386629
1620848088625442979,0.7165635049261707,-0.9646150432067214,-16.255791617472994
1620848088633442979,0.7089197906923675,-0.9629377003751379,-16.552522175246626
1620848088641442979,0.7013135362935801,-0.9618578694468911,-16.915603683998683
1620848088649442979,0.693571059986312,-0.9612165250303417,-17.15560415917069
1620848088657442979,0.6859574025606018,-0.9601604621205165,-17.56226478143091
1620848088665442979,0.678409372685474,-0.9588545884557269,-17.911651479894076
1620848088673442979,0.6708248272171086,-0.95701594442849,-18.100999164486538
1620848088681442979,0.6631642903325631,-0.955697276982073,-18.436696898823683
1620848088689442979,0.6556350747609668,-0.9531499748221341,-18.81684274424844
1620848088697442979,0.6482823090943687,-0.9500290051680832,-19.34484610141342
1620848088705442979,0.6408608957454297,-0.9468206475789775,-19.549372390162095
1620848088713442979,0.6333297987415076,-0.9444351826236445,-19.649190847368434
1620848088721442979,0.625718748600353,-0.9434766776936019,-20.09891908257483
1620848088729442979,0.6183673485042106,-0.9434587143578341,-20.341324798184118
1620848088737442979,0.6107837178341269,-0.9440584958447752,-20.806755231699793
1620848088745442979,0.6031456057686092,-0.9448867336974205,-21.385515958867135
1620848088753442979,0.5955838412997957,-0.9444805608464392,-21.99418496314752
1620848088761442979,0.5881970099420802,-0.9424022950546825,-22.530539147751327
1620848088769442979,0.5808154695474758,-0.9397568070388953,-23.007119094745956
1620848088777442979,0.573408449012534,-0.937249367815303,-23.39577517933122
1620848088785442979,0.5660009357149919,-0.9357881937858689,-24.109431821008965
1620848088793442979,0.558569313079741,-0.9345644567013377,-24.893897585374184
1620848088801442979,0.5511812520028156,-0.9328966979397462,-25.486904911593236
1620848088809442979,0.5438342676913019,-0.931019548539716,-26.004482267741892
1620848088817442979,0.5364483358279845,-0.9279650142518022,-26.31436936719212
1620848088825442979,0.5293220312695243,-0.9240402534711276,-26.671875059262454
1620848088833442979,0.5221903633096688,-0.9189745177245892,-27.011986781242378
1620848088841442979,0.5151121608606098,-0.9138657444430281,-27.392837186594992
1620848088849442979,0.5080130831422525,-0.9095612843888302,-27.85647481205396
1620848088857442979,0.5009846272166887,-0.9055068527178283,-28.203505752699368
1620848088865442979,0.4939343797646249,-0.9021880749510036,-28.579891322935634
1620848088873442979,0.48689909061322245,-0.8977620248996946,-28.969299998044285
1620848088881442979,0.4800356407432229,-0.8920685599313023,-29.351829668765166
1620848088889442979,0.47340865508937746,-0.8833658849985631,-30.000008928721755
1620848088897442979,0.46688251639973527,-0.8729617699328095,-30.31886176415352
1620848088905442979,0.4604199377124887,-0.8624464399741877,-30.609309594194585
1620848088913442979,0.4539215324071396,-0.8538712777266271,-31.058151298043004
1620848088921442979,0.44750845538533995,-0.8488764857437954,-31.36256835187215
1620848088929442979,0.4407937434628945,-0.8474773127152735,-31.937223890410202
1620848088937442979,0.4339045014242113,-0.848651280516794,-32.621675488856745
1620848088945442979,0.427059884790779,-0.8493006640105653,-33.64976425420507
1620848088953442979,0.4203328525518901,-0.8482579128258085,-34.86924235338461
1620848088961442979,0.41373174677478464,-0.8453783199863937,-35.53562687523116
1620848088969442979,0.40730805384623225,-0.8391882590422592,-35.97978500264819
1620848088977442979,0.4009988613920468,-0.8303948580365333,-36.09787331686907
1620848088985442979,0.3949222995266757,-0.8213654860674934,-36.11819380131643
1620848088993442979,0.3888294833764829,-0.8120376344558692,-36.58740843658507
1620848089001442979,0.3827158087395054,-0.8051465323145481,-36.576328547078084
1620848089009442979,0.37639545534947727,-0.8013537371593322,-36.850248173056684
1620848089017442979,0.37018578345522385,-0.7997193416776885,-37.41858068935228
1620848089025442979,0.36381724270662075,-0.7986413157381884,-38.327791419950394
1620848089033442979,0.35753246414397255,-0.796600760905877,-39.19180660089589
1620848089041442979,0.3513400911939198,-0.7925569585880997,-39.83149601958233
1620848089049442979,0.3453709416627041,-0.7868593597014,-40.409410372994394
1620848089057442979,0.3394829539827717,-0.7791218130235793,-40.809921971310686
1620848089065442979,0.3337058108681557,-0.7700832821973498,-41.154220414416265
1620848089073442979,0.3279855289491571,-0.761563667547223,-41.46679127160575
1620848089081442979,0.3223580074457836,-0.754137815272885,-41.544513297679835
1620848089089442979,0.3165965068002858,-0.7491324559343225,-41.87574747733204
1620848089097442979,0.31074116917366823,-0.745898832881634,-42.023169114409114
1620848089105442979,0.30486694424796895,-0.7436846286385934,-42.224362987317726
1620848089113442979,0.2991723551213702,-0.7397931709795307,-42.49763877010149
1620848089121442979,0.29360512582977416,-0.7336221172788739,-42.53575050940876
1620848089129442979,0.28818719606711685,-0.7249807485458346,-42.776671373862875
1620848089137442979,0.2828927684979885,-0.7148991037411997,-43.040069751118764
1620848089145442979,0.27774237908534877,-0.704898727838491,-43.09974621919537
1620848089153442979,0.27253475205429323,-0.6972389661748659,-43.22669018042975
1620848089161442979,0.2672673077474716,-0.691047648431201,-43.34031101549273
1620848089169442979,0.2619409098559193,-0.6862492349534293,-43.3783527300672
1620848089177442979,0.2567384318899596,-0.6823669286118726,-43.51177722114298
1620848089185442979,0.2515251178265646,-0.6780080899565737,-43.72114359471048
1620848089193442979,0.246324658287012,-0.6730433728962106,-44.28828376079371
1620848089201442979,0.24116374732278956,-0.6676041545985678,-44.46961622753133
1620848089209442979,0.2362302096191861,-0.6618833816487885,-44.905788556754615
1620848089217442979,0.23133340779702039,-0.65474803690969,-45.06653601009272
1620848089225442979,0.22650870686520128,-0.6463448678629423,-45.443975161373764
1620848089233442979,0.22174578319820545,-0.6380539662419042,-45.80145332849411
1620848089241442979,0.21714842658191763,-0.6300956149328188,-45.77411332899749
1620848089249442979,0.2125216266734574,-0.6225118755882494,-45.83803335232757
1620848089257442979,0.20784553986511245,-0.6164221330903815,-45.930425920304735
1620848089265442979,0.20315838566277028,-0.6109589885302587,-46.14139624199883
1620848089273442979,0.19859840849211602,-0.6058929016554943,-45.98306109031708
1620848089281442979,0.19403364031637146,-0.6009969698006985,-46.02432873880764
1620848089289442979,0.1894241598670201,-0.5963640103352839,-46.16614503884002
1620848089297442979,0.1849342636101483,-0.5908998323700487,-46.475873214356376
1620848089305442979,0.18063643279616992,-0.5840717902371911,-46.71035265014361
1620848089313442979,0.1764328226606917,-0.5747170712311391,-46.89987872744866
1620848089321442979,0.17240892428810137,-0.5642137717510638,-46.81074655105272
1620848089329442979,0.16843287739418092,-0.5534946771041551,-46.78636593602119
1620848089337442979,0.16460097431122242,-0.5434640200814181,-46.74172268317653
1620848089345442979,0.1607495439263467,-0.5344441225113106,-46.51747596603409
1620848089353442979,0.15679119972865643,-0.5279258088551216,-46.289563881965925
1620848089361442979,0.15277617356200474,-0.5236518235374901,-46.18814099582413
1620848089369442979,0.14878276268629037,-0.5212101201853724,-46.26813046089021
1620848089377442979,0.14468328062919988,-0.5197868297371577,-46.483813503323546
1620848089385442979,0.14062228838374383,-0.5177707773431157,-46.668469870714624
1620848089393442979,0.136580513701081,-0.515910385014355,-46.932459918627934
1620848089401442979,0.13270079893112272,-0.5115621348901649,-47.17092749911959
1620848089409442979,0.1289367770492054,-0.5054938479384004,-47.0863982739296
1620848089417442979,0.12532405744348538,-0.49722852590368566,-47.11659176941998
1620848089425442979,0.12184379930000593,-0.48746346944965163,-47.23195222243315
1620848089433442979,0.1184930785062474,-0.47794418722611515,-46.99099598191646
1620848089441442979,0.11514031320779917,-0.46935947193431504,-46.66384712774331
1620848089449442979,0.11180274948989437,-0.4613058448010969,-46.33075946185832
1620848089457442979,0.10838668803285005,-0.4554318990020883,-46.20229895575294
1620848089465442979,0.10505421880036164,-0.4507573045265904,-46.37122617682877
1620848089473442979,0.10164326726557062,-0.4471333283311825,-46.67761098074221
1620848089481442979,0.09821485727267525,-0.44428107835414665,-46.90004237612453
1620848089489442979,0.09485873965399229,-0.44047617779574777,-47.13368733254113
1620848089497442979,0.09161444114239375,-0.4356235937152268,-47.32338125301768
1620848089505442979,0.0885317632346265,-0.4281470220626911,-47.407273915639195
1620848089513442979,0.08550320609294579,-0.41988776674724126,-47.38520674728235
1620848089521442979,0.08270189972847239,-0.4098397117290513,-47.21629286360517
1620848089529442979,0.08003592468620364,-0.3990372546213596,-47.222353496991
1620848089537442979,0.07742113062836622,-0.38826124568913656,-47.03727590202998
1620848089545442979,0.0749203063471606,-0.3768092993871872,-47.25468846732279
1620848089553442979,0.07245491027570301,-0.3663542797551072,-47.10310337658952
1620848089561442979,0.07003373779362809,-0.35756912357869014,-47.22553185517166
1620848089569442979,0.06754799994106604,-0.3505414131805396,-47.29567140473838
1620848089577442979,0.06511173650948178,-0.34361011673474906,-47.39795042240015
1620848089585442979,0.06260380291709654,-0.33879223799968883,-47.65136189855326
1620848089593442979,0.060143023111968584,-0.3346648652282524,-47.75123508827636
1620848089601442979,0.05769005412258488,-0.3304099486378268,-47.66375706148442
1620848089609442979,0.05529023073395207,-0.3257468212574799,-47.71480525378174
1620848089617442979,0.05292894329614003,-0.3212985898701635,-47.841609289451924
1620848089625442979,0.05062351205770709,-0.31650581841472375,-48.060427758131226
1620848089633442979,0.048369073892731436,-0.31143652537133376,-47.99396864505684
1620848089641442979,0.04614888466024526,-0.3061878077089362,-48.11665841872306
1620848089649442979,0.043922406431364004,-0.30114883706784057,-48.15052898639759
1620848089657442979,0.04192864908280683,-0.2946297836470821,-48.13993263664049
1620848089665442979,0.03999355934977332,-0.28681660132532183,-48.295921532441234
1620848089673442979,0.03821363511852831,-0.2768882479153517,-48.33925210222442
1620848089681442979,0.036546916207323754,-0.26662367125587966,-48.39952021072445
1620848089689442979,0.0350706508979636,-0.25484064315447214,-48.25854319417485
1620848089697442979,0.03365944961483661,-0.24332022784885385,-48.28536621828549
1620848089705442979,0.032336183407229595,-0.23172229985254775,-48.40609798912952
1620848089713442979,0.03109028809919393,-0.22027109755928728,-48.09862593828613
1620848089721442979,0.029910869433222683,-0.2097390395581317,-48.017268238313115
1620848089729442979,0.028739055863953953,-0.20039497938963358,-47.60193958634358
1620848089737442979,0.027636312449077993,-0.19103922872510964,-47.58386549606187
1620848089745442979,0.026557271577987783,-0.18277834435394175,-47.506779614341866
1620848089753442979,0.025475843679031943,-0.17570739256575338,-47.145460619249015
1620848089761442979,0.02439871935256451,-0.1696906036718614,-47.09178874672521
1620848089769442979,0.023327130639943388,-0.1642351048505437,-46.666078180169215
1620848089777442979,0.022241725998757476,-0.15988487267326745,-46.56709507048559
1620848089785442979,0.021174454474743684,-0.15618583258836008,-46.52110563279659
1620848089793442979,0.02010975125850935,-0.1527263139299994,-46.31477128375039
1620848089801442979,0.019084414695810202,-0.14902124388585572,-46.373724857914155
1620848089809442979,0.0181141712733132,-0.1449036949139266,-46.30212215385891
1620848089817442979,0.01718582205700976,-0.14061773559651225,-46.24891367560113
1620848089825442979,0.016321771099008595,-0.13582422273387598,-46.51462513881422
1620848089833442979,0.015509760173544091,-0.13066836833933046,-46.80030994681011
1620848089841442979,0.014789349187394935,-0.12461988964061198,-47.11816715539426
1620848089849442979,0.014124111578923534,-0.1185259068592024,-47.077762870942436
1620848089857442979,0.01354027220415499,-0.11179667118372832,-47.34159016485291
1620848089865442979,0.013041189802472476,-0.10444744076007535,-47.715576461759305
1620848089873442979,0.012614043292712207,-0.09678529013743868,-47.87552681344617
1620848089881442979,0.012240468140516214,-0.08942821034472324,-48.1018022987598
1620848089889442979,0.011919797112179232,-0.08216774253927218,-48.26964217523303
1620848089897442979,0.01164419937698419,-0.07500679440994099,-48.41108794069844
1620848089905442979,0.011395526485013715,-0.06850523458349672,-48.569627567968155
1620848089913442979,0.01117433466585377,-0.06255296019322977,-48.609465624378736
1620848089921442979,0.010952820565596776,-0.05738489855356884,-48.788162108665354
