timestamp,position,velocity,effort
1620914444919392482,1.4966340987059317,-0.002581144264627004,-302.2363775245541
1620914444927392482,1.4967109232139542,-0.0008236247448430543,-302.2087613065826
1620914444935392482,1.4967060673941637,-0.0007972736273857787,-302.3979039707077
1620914444943392482,1.4966639983297423,-0.0014965432859563822,-302.2415301412475
1620914444951392482,1.496628782382227,-0.001953323960964025,-301.994616228673
1620914444995176023,1.4967996256061118,0.0014446005373927743,-301.40670595033504
1620914444996176023,1.496802149644474,0.0014648230977597164,-301.3777491666631
1620914444997176023,1.496804447731507,0.0014823128365663437,-301.3513845875617
1620914444998176023,1.4968067872063846,0.0014991964258867345,-301.3245451904613
1620914444999176023,1.4968090618699166,0.0015147032717502615,-301.25904583965985
1620914445000176023,1.4968112784914953,0.0015289348673062004,-301.19521781749063
1620914445008176023,1.4968279213758795,0.0016061729840766766,-299.6996421940138
1620914445016176023,1.4968419892841267,0.0016258688411380409,-292.3223206613594
1620914445024176023,1.4968915511824017,0.0023417136259608565,-279.15072788747455
1620914445032176023,1.4968191240052535,0.0006122037746138257,-261.56509825577285
1620914445040176023,1.4965752640008625,-0.004109430693264082,-242.4619725265254
1620914445048176023,1.4958614884443249,-0.01676348477978586,-223.50079896465363
1620914445056176023,1.4947986590816633,-0.034074879264492076,-205.000632315541
1620914445064176023,1.493526610681027,-0.05256355187896095,-186.77398286276303
1620914445072176023,1.4920807162601324,-0.07159324312327311,-169.37413665170777
1620914445080176023,1.4904798849974783,-0.0903891356413165,-153.28331395622507
1620914445088176023,1.4889310561728504,-0.10587034487223171,-138.83871730534858
1620914445096176023,1.4871627659599955,-0.12292652615125264,-125.21409194469904
1620914445104176023,1.4853614660266643,-0.13799155870936927,-112.86487667276957
1620914445112176023,1.4835982926501612,-0.14992322773144195,-101.74584620970626
1620914445120176023,1.4819195927993203,-0.15910441217890378,-92.01054389975208
1620914445128176023,1.480253879071029,-0.1662866007182049,-83.15078899825605
1620914445136176023,1.4785831300783423,-0.17262365166087099,-74.99351806878066
1620914445144176023,1.477006253652479,-0.17602615292289098,-67.58066821126077
1620914445152176023,1.4753992698445413,-0.17992321796558938,-61.33841559028827
1620914445160176023,1.4739841778614629,-0.1794531004554356,-55.85418517825564
1620914445168176023,1.472735307807493,-0.17580901747844285,-51.122019016424495
1620914445176176023,1.471569008579864,-0.17121516172213433,-46.59143019977625
1620914445184176023,1.4704381108776594,-0.1669235599254196,-42.493503884027994
1620914445192176023,1.4692142311766168,-0.16485227891785645,-38.76445720002237
1620914445200176023,1.4680917540030856,-0.16103871178526408,-35.29514846841709
1620914445208176023,1.4669460883104362,-0.15807120155929036,-32.13712406355226
1620914445216176023,1.4658344127189658,-0.1556020666481977,-29.491944596286015
1620914445224176023,1.464855632215168,-0.15073079672697523,-26.96962070655982
1620914445232176023,1.463947251786891,-0.14505783834160468,-24.52651586582585
1620914445240176023,1.4631431159041923,-0.1382078677024161,-22.38488001200715
1620914445248176023,1.4622250683188784,-0.1350600687751775,-20.23711686443217
1620914445256176023,1.4613538197235418,-0.13120992370555487,-18.31915541607767
1620914445264176023,1.4603851308863895,-0.12962811737285454,-16.56419379583356
1620914445272176023,1.4594598653622837,-0.1274411494679684,-14.787111487606603
1620914445280176023,1.4583534696155094,-0.12917207294121977,-13.521432830701327
1620914445288176023,1.4571993412754491,-0.13150496174000234,-12.276695979109453
1620914445296176023,1.455835503535117,-0.13704476422548623,-10.801564931879915
1620914445304176023,1.4544252510225835,-0.1427696363555116,-9.457741182958477
1620914445312176023,1.4529944778507562,-0.1485100904543577,-8.149235172091807
1620914445320176023,1.451544197123929,-0.15337669026096118,-6.906345997968267
1620914445328176023,1.4500474174670894,-0.15829303277990048,-5.773579982191985
1620914445336176023,1.4483658535401982,-0.16575685737090237,-4.831816001393135
1620914445344176023,1.4466222596853648,-0.174009017962248,-3.8052455791596342
1620914445352176023,1.4446383805756744,-0.18499695457626658,-2.7187357110120143
1620914445360176023,1.4424602193220124,-0.19761845246074586,-1.9244331600344022
1620914445368176023,1.440177445324671,-0.21096770003347,-0.866281093404119
1620914445376176023,1.4377491713933646,-0.22469830863009582,0.14723511697887673
1620914445384176023,1.4353173085431017,-0.23642458648542883,1.1977544179248607
1620914445392176023,1.4328621226440164,-0.24642504810169397,2.625017998669844
1620914445400176023,1.4303513547972588,-0.2561668334414057,3.731577569396448
1620914445408176023,1.42783326474756,-0.26560225747888505,4.969693883125605
1620914445416176023,1.4252484449319238,-0.2740679967253028,6.078862893943767
1620914445424176023,1.4226408200340994,-0.2815866864212422,7.632205998117957
1620914445432176023,1.4199949381307733,-0.28869134292148413,9.021918611040576
1620914445440176023,1.417266054816411,-0.29683176948219125,10.428600659712894
1620914445448176023,1.4143376269788883,-0.30710463865472293,12.070224338620923
1620914445456176023,1.411177639711732,-0.3197896341912539,13.696990941386492
1620914445464176023,1.4076923021633487,-0.33661509925029265,15.42066886467492
1620914445472176023,1.4040028524823445,-0.3558850626812157,17.00952099340923
1620914445480176023,1.3998715636964651,-0.37966349893493906,18.561378592412737
1620914445488176023,1.3954385020241635,-0.40535050902073166,20.369201257906354
1620914445496176023,1.390715235964896,-0.43294651439847015,22.111219704063064
1620914445504176023,1.3857554166761232,-0.46079647416336217,23.598184485591716
1620914445512176023,1.380521897160906,-0.48905642041616004,24.9966511833978
1620914445520176023,1.3749838089043802,-0.5192859168300478,26.302111358525046
1620914445528176023,1.3690946481235775,-0.5513156142316862,27.586855949792657
1620914445536176023,1.3628877361294314,-0.5849676171022699,28.941825579665544
1620914445544176023,1.3561022808406986,-0.6240244221317462,30.25560187086799
1620914445552176023,1.3489250243663287,-0.6640831451732153,31.39926860989217
1620914445560176023,1.3412460940887614,-0.7078774606299856,32.60017099097089
1620914445568176023,1.3332745310388467,-0.7512115527048496,33.83998114228842
1620914445576176023,1.3250084451588138,-0.7925959651495018,34.78178969204173
1620914445584176023,1.316562695765234,-0.8315621779062603,35.81237006574075
1620914445592176023,1.3078052971035807,-0.8698385684436873,36.73592726878544
1620914445600176023,1.2990589369412378,-0.904096848482717,37.595452293621236
1620914445608176023,1.290040007652824,-0.9368093332536627,38.95428103593146
1620914445616176023,1.2806852068483265,-0.970725605641729,39.88839378701756
1620914445624176023,1.2710544017426133,-1.0051731489903422,40.53460755308979
1620914445632176023,1.2613432076213245,-1.0372944991193103,41.152304380846566
1620914445640176023,1.251232265361321,-1.0706659009249853,41.72018450442003
1620914445648176023,1.2410532990788568,-1.0988871544122827,42.581358363976186
1620914445656176023,1.231036179648728,-1.1200703298886383,43.432405298354354
1620914445664176023,1.2216751712024911,-1.1307181127841046,44.07455311895719
1620914445673176023,1.2112793669634534,-1.134646699164915,44.90229855679042
1620914445680176023,1.2033985659797208,-1.1323487093288482,45.33745740178734
1620914445688176023,1.1946555103034873,-1.1255702690956702,45.69845176665921
1620914445696176023,1.1862556606073456,-1.1159258637108933,45.99973692395924
1620914445704176023,1.1779498800935435,-1.10469055939916,46.48634494562674
1620914445712176023,1.1697894960164812,-1.0917328742710286,46.889076864638916
1620914445720176023,1.1617584688337381,-1.0781429137836027,47.491267079724565
1620914445728176023,1.1537556211302584,-1.067197746274042,48.173308404241595
1620914445736176023,1.1457733753947044,-1.0573167991866772,48.48364733767069
1620914445744176023,1.1376311768841527,-1.049792862271144,48.53188233722069
1620914445752176023,1.1295452359302904,-1.0427836519765687,48.45263210867022
1620914445760176023,1.121663271910021,-1.0373446911585396,48.63203840606086
1620914445768176023,1.1136524988123395,-1.0321595815243576,48.84109103259859
1620914445776176023,1.1055208687413332,-1.0277909928857965,49.02960392224033
1620914445784176023,1.097499602617259,-1.0252359256450179,49.283719855008194
1620914445792176023,1.089490596084148,-1.0220952314644434,49.08698588344542
1620914445800176023,1.0814387041083564,-1.0199947187967027,49.2488236047074
1620914445808176023,1.0733878727562918,-1.0176046492649922,49.32616395416359
1620914445816176023,1.0653186267151085,-1.0163061442363783,49.73142525639027
1620914445824176023,1.0571661677878827,-1.0170180320190028,49.95923353878719
1620914445832176023,1.0489983717004998,-1.0179711255194956,50.10884168434007
1620914445840176023,1.0406615758931894,-1.0197343461840362,50.19944244935279
1620914445848176023,1.032407478369392,-1.0207061326724893,50.285461145954244
1620914445856176023,1.0242790422780745,-1.0223780363101447,50.65005204174767
1620914445864176023,1.0160940390329034,-1.022777428503607,50.82123138937617
1620914445872176023,1.0078736268980892,-1.0224215228378926,51.031310155283556
1620914445880176023,0.9996831470759363,-1.022337219268627,51.61692916334133
1620914445888176023,0.9915152526965988,-1.0235201972365102,52.07716768540406
1620914445896176023,0.9831331075999112,-1.0271890125915843,52.2175353426742
1620914445904176023,0.9745806847209129,-1.0324880097080276,52.06941505930298
1620914445912176023,0.9659172742411908,-1.0396043919486595,51.904220790758345
1620914445920176023,0.9573437396569495,-1.045565959179856,51.578698662720996
1620914445928176023,0.9485785075659806,-1.0529702957023253,51.28223526811952
1620914445936176023,0.9397793000631672,-1.059544987121305,51.20756590467069
1620914445944176023,0.9309188652551649,-1.0657546408403622,51.2492795551653
1620914445952176023,0.9222136283249766,-1.070491775694872,51.057486972605034
1620914445960176023,0.9134008561265142,-1.074971028132964,50.81794735627854
1620914445968176023,0.9043657258870729,-1.0808762191868824,50.505968691578076
1620914445976176023,0.8954379088518424,-1.0845952409076909,50.366029216265346
1620914445984176023,0.8868340189841799,-1.0869877671893902,50.42459176370587
1620914445992176023,0.8779462731683241,-1.090572625395781,50.362798692586026
1620914446000176023,0.8688352981394272,-1.095266879823049,50.413337419980564
1620914446008176023,0.8597952241912674,-1.1004264452184271,50.38878917106997
1620914446016176023,0.8507800694769552,-1.106249790048594,50.404132121984304
1620914446024176023,0.8416465535362261,-1.1119055972617922,50.19610624314886
1620914446032176023,0.832534057742402,-1.1154971234854036,50.091351186873695
1620914446040176023,0.8235195482521734,-1.1152574438035838,50.19246635607246
1620914446048176023,0.8149318095570398,-1.1112506927019978,50.19613916611153
1620914446056176023,0.8063822548810394,-1.1051602011520438,49.90940425386483
1620914446064176023,0.7979171662818217,-1.0979603889393756,49.88647467907464
1620914446072176023,0.7895393407370948,-1.0890044764791804,49.715143348646365
1620914446080176023,0.7813484377600992,-1.0802789982823178,49.32558997931278
1620914446088176023,0.7732186624201433,-1.071410733275755,49.171343640250456
1620914446096176023,0.765095236301732,-1.062921876551476,48.911330389220275
1620914446104176023,0.7569600894981661,-1.0558432435092338,48.58364182822434
1620914446112176023,0.748797777447596,-1.0508479967826412,48.38552215256303
1620914446120176023,0.7405900700228427,-1.0473931162718315,48.223377545382526
1620914446128176023,0.7322540773595251,-1.0449222014966146,47.99440857508157
1620914446136176023,0.7239643859051902,-1.0435174812641597,47.70199943073562
1620914446144176023,0.7157994347946102,-1.0419774471998473,47.06019839178966
1620914446152176023,0.7074848259305941,-1.041256207349132,46.82513752910262
1620914446160176023,0.6991855057437749,-1.0399010302581284,46.408528071801086
1620914446168176023,0.6908280386923263,-1.0391873228965514,46.12268093408709
1620914446176176023,0.682664175123387,-1.0390901463327573,45.992575826089535
1620914446184176023,0.6743462476529839,-1.039200453903259,45.40119198754791
1620914446192176023,0.6659684769493907,-1.0392967474690957,44.780570815172126
1620914446200176023,0.6577144190211245,-1.037443180993142,44.26887195536118
1620914446208176023,0.6496203510795856,-1.0353934891134562,43.813499314526474
1620914446216176023,0.6414635522487031,-1.0326798920905151,43.41636689839967
1620914446224176023,0.6332312208445665,-1.030435869759891,43.36624339318274
1620914446232176023,0.6250594789162193,-1.028840247131008,43.08904104590428
1620914446240176023,0.6169726268929843,-1.0285096705369536,42.727002491227516
1620914446248176023,0.6087766855365159,-1.0279221940319252,42.434078819071985
1620914446256176023,0.6004889468037253,-1.027034279894046,42.17183401887914
1620914446264176023,0.5922774971504281,-1.0271995638521232,42.2963868940176
1620914446272176023,0.5841258933849458,-1.027830033348243,42.075485041562175
1620914446280176023,0.5757896114088065,-1.0296530288471029,41.65179053367733
1620914446288176023,0.5674144436667917,-1.0311465496345693,41.62994974487002
1620914446296176023,0.5590183872235672,-1.032931186015301,41.06157631384889
1620914446304176023,0.5507434186092673,-1.0355463447578535,40.58176877266714
1620914446312176023,0.5423219800635081,-1.037574901204981,39.60579078493517
1620914446320176023,0.5339092354068502,-1.0383395798009316,39.28122712760106
1620914446328176023,0.5255323890926932,-1.0391190878815715,39.152317268837706
1620914446336176023,0.5172719329227203,-1.0396417735052121,38.88749653801562
1620914446344176023,0.5089381044016718,-1.040783576696835,38.316889777165734
1620914446352176023,0.500496011099183,-1.0419158062515606,37.85622112853145
1620914446360176023,0.49196621290176873,-1.044837330617521,37.68623479827619
1620914446368176023,0.48339683400853906,-1.050066180544515,37.3196752124524
1620914446376176023,0.4746584802555681,-1.0567644069757023,36.947609555800724
1620914446384176023,0.4657612502283428,-1.0639110374646954,36.619537166641955
1620914446392176023,0.45674752453970896,-1.0717387267749519,36.4905336767301
1620914446400176023,0.44802529849216594,-1.0764039810482078,35.953457181060074
1620914446408176023,0.4393567927301783,-1.0778086648811425,35.47322734372388
1620914446416176023,0.43082316870112164,-1.075134752581703,34.923533024341296
1620914446424176023,0.4224979002210195,-1.0694109392228444,34.70561587735875
1620914446432176023,0.41439427810336044,-1.0626348492047817,34.78301603702485
1620914446440176023,0.40626455391118216,-1.0555372254791031,34.487021592774255
1620914446448176023,0.398069103513376,-1.050342916121502,34.2968973708578
1620914446456176023,0.3898268088899991,-1.0462838874434823,34.025832866775204
1620914446464176023,0.38175113215512196,-1.0426622497181603,33.64806177292807
1620914446472176023,0.3736591539174791,-1.038253126956984,33.28980530506142
1620914446480176023,0.36557081844253797,-1.0327289861992204,33.16988112530321
1620914446488176023,0.35753665955709196,-1.0279550252373597,32.84514320609597
1620914446496176023,0.349677435336295,-1.0232206626821403,32.61915620137374
1620914446504176023,0.3416918013163703,-1.0196150416650835,32.4176812831993
1620914446512176023,0.3335502569799719,-1.0170179414388454,32.16211084185754
1620914446520176023,0.3255224134025655,-1.0144764387683056,31.79853021655653
1620914446528176023,0.3176762478484091,-1.0123110558480726,31.20745250408074
1620914446536176023,0.3096763622161352,-1.0102302122104379,30.692683613222567
1620914446544176023,0.30155591284062233,-1.009678298101762,30.29102803625759
1620914446552176023,0.2934859257557858,-1.0088430252550125,30.09930476570425
1620914446560176023,0.28561548081033095,-1.007298503225503,29.653982099407
1620914446568176023,0.27770245734629173,-1.0044675865039048,29.267922564291037
1620914446576176023,0.26986302566530623,-1.000427528924169,28.780516662905157
1620914446584176023,0.26206108302230613,-0.9945092122458782,28.515407012072696
1620914446592176023,0.25452542061227257,-0.9894513536238201,28.487408151687426
1620914446600176023,0.24682158196732262,-0.9850216359070032,28.35735010826235
1620914446608176023,0.23905731172009215,-0.9814453566673832,28.46484192224807
1620914446616176023,0.23127102591085524,-0.9800986946920828,28.09472371681505
1620914446624176023,0.22356633701198822,-0.9797986705203094,28.25943128236933
1620914446632176023,0.21557196963926586,-0.9821376502930014,27.95216472050521
1620914446640176023,0.2075010303966984,-0.9853766144725322,27.365122722848493
1620914446648176023,0.19929233641403568,-0.9894442523259971,26.86413047481743
1620914446656176023,0.19136343345484425,-0.9929574200728968,26.45231045120147
1620914446664176023,0.18316828374151212,-0.996963929319212,26.020710177381204
1620914446672176023,0.1751071838878083,-0.9980020041462865,25.760835556878746
1620914446680176023,0.16708052070427556,-0.9976650357742648,25.43338117246924
1620914446688176023,0.15926728891893333,-0.9968278676971768,25.570422693079784
1620914446696176023,0.1514078393305156,-0.9944348764917234,25.4105988867641
1620914446704176023,0.14355657562107968,-0.9912456035190528,25.616800498084256
1620914446712176023,0.13590829358071907,-0.9869237060970504,25.81736553772708
1620914446720176023,0.1283049137775725,-0.9817228529107384,25.63717465844553
1620914446728176023,0.12078519557178838,-0.9749711070170674,25.64990936286047
1620914446736176023,0.11336416815761916,-0.9681559875847496,25.61784678913208
1620914446744176023,0.10594950803273603,-0.9609722662938266,25.90747245973226
1620914446752176023,0.09867474010555151,-0.9547305301459714,25.880610847285727
1620914446760176023,0.0913104693043899,-0.9497430569807426,26.063838350132936
1620914446768176023,0.08392140126112878,-0.9459281445328344,26.393254643624157
1620914446776176023,0.07638593663171667,-0.9439140399802438,26.25795455588372
1620914446784176023,0.06900338197025238,-0.9425562405168969,26.847139815125114
1620914446792176023,0.06147853793998397,-0.9421823819625536,26.83988501009142
1620914446800176023,0.0539462852504143,-0.9406768876565389,26.650635770712345
1620914446808176023,0.04655530839835626,-0.9372416158184443,27.048945071870854
1620914446816176023,0.03944494415177013,-0.9323783618489943,26.912500055310492
1620914446824176023,0.03236742959133377,-0.9252535134422729,27.148557775317112
1620914446832176023,0.02541345693528845,-0.916077492779734,27.760051824594342
1620914446840176023,0.01861422002908678,-0.9068222341582699,27.92138458264193
1620914446848176023,0.011822285868863188,-0.898159267662407,28.449243701214982
1620914446856176023,0.005008795194587994,-0.8910913054083945,28.554813333376995
1620914446864176023,-0.0018254735883221481,-0.8849857969729357,28.731458028506836
1620914446872176023,-0.008749785513912858,-0.8810884850776751,29.109187647524983
1620914446880176023,-0.015463559031849355,-0.877159580130421,29.564965247425867
1620914446888176023,-0.022364234730755158,-0.8750580769366901,30.111858120858546
1620914446896176023,-0.029335635095861755,-0.8728494099515016,30.278195371498487
1620914446904176023,-0.036206658896456946,-0.8704843394828247,30.78715788416698
1620914446912176023,-0.04294421225981359,-0.8682131620580957,31.282392198543896
1620914446920176023,-0.04974737635594321,-0.8654291055209681,31.437473888958444
1620914446928176023,-0.05654139685739917,-0.8616724123075881,31.369274866247004
1620914446936176023,-0.06326192470976756,-0.8576556017021136,31.554770594378375
1620914446944176023,-0.06980196354432101,-0.8540779745441267,32.07835579721453
1620914446952176023,-0.07647254227625425,-0.8510276437911901,32.47027945416617
1620914446960176023,-0.08308924960188217,-0.8471540278570119,32.79881344494421
1620914446968176023,-0.08966994995744078,-0.8427079106185602,33.074949924562716
1620914446976176023,-0.09607592538836596,-0.8375938287322828,33.29741336376165
1620914446984176023,-0.10245617138284088,-0.8316920498976048,33.68496602419586
1620914446992176023,-0.10873156415157251,-0.8242514489568246,34.27078050975891
1620914447000176023,-0.1149264943487879,-0.8169350377633157,34.918363013847895
1620914447008176023,-0.12107185397692127,-0.809949091933916,35.45400861657919
1620914447016176023,-0.1272341842975692,-0.8041336476670445,35.94265622954555
1620914447024176023,-0.13339511232912973,-0.7983772064913185,36.59625751195109
1620914447032176023,-0.13944006975565154,-0.792193383238757,36.94902995765119
1620914447040176023,-0.14542469702193472,-0.7858569270649421,37.6831015036738
1620914447048176023,-0.15137248399958544,-0.7799146774426899,38.75683066949533
1620914447056176023,-0.1572559732816861,-0.7723674748443838,39.3033909215205
1620914447064176023,-0.16299477201735038,-0.764226812803412,40.70146401995937
1620914447072176023,-0.16862114633298533,-0.7560385868869546,41.577562363864224
1620914447080176023,-0.17427674262358092,-0.7487225924608363,42.62633631051574
1620914447088176023,-0.17982485675916607,-0.7403430274967012,44.20587002168057
1620914447096176023,-0.18537179862707667,-0.7332803432942048,45.3344087805227
1620914447104176023,-0.19084309214225142,-0.7263763157032652,46.52611465329313
1620914447112176023,-0.19624626729296007,-0.7188560062936006,47.688572557512906
1620914447120176023,-0.2016360250723032,-0.7108569403566719,48.93798778219873
1620914447128176023,-0.20689335542734089,-0.7017238427651015,50.485796559769085
1620914447136176023,-0.21182460037642645,-0.6914345353107973,51.871809710637194
1620914447144176023,-0.2167170284166865,-0.679641743468681,53.6650371759307
1620914447152176023,-0.22145883261900207,-0.6660718827864431,55.538335776492
1620914447160176023,-0.2260458272146523,-0.6519134057445798,57.50551334041744
1620914447168176023,-0.23049221047848162,-0.6386596261556506,59.71334926958481
1620914447176176023,-0.2348534244682978,-0.6248951684547593,61.82391415921103
1620914447184176023,-0.23923410380240404,-0.6119724843604867,64.31732780444793
1620914447192176023,-0.24346255990374818,-0.6006189358492351,66.78778881471327
1620914447200176023,-0.24767091783533063,-0.5899743304467777,69.24324204015494
1620914447208176023,-0.2518120692007983,-0.5793244264440879,71.64682733784863
1620914447216176023,-0.25591869635918335,-0.5687385104927143,74.19254641178723
1620914447224176023,-0.2596889325925538,-0.554281019339242,77.6179670956105
1620914447232176023,-0.2629115327251237,-0.5323871775224374,81.85946353530136
1620914447240176023,-0.2657387381567658,-0.5056903883394289,86.76189988845063
1620914447248176023,-0.2682065242514598,-0.4764009786619388,92.50795532471892
1620914447256176023,-0.2703532958993767,-0.44575092906758307,98.44534703635512
1620914447264176023,-0.2721838178821375,-0.4136760229519064,105.14875873278845
1620914447272176023,-0.2738452909230468,-0.3831411511762133,112.54771427723341
1620914447280176023,-0.2752705393742041,-0.35237000159935344,120.03095630491701
1620914447288176023,-0.27649361249050425,-0.32200380798106815,128.19267397341133
1620914447296176023,-0.27751143377137305,-0.2942793872159347,136.28871073839275
1620914447304176023,-0.278437421761892,-0.2678599657880056,144.66530395014357
1620914447312176023,-0.27930748668833183,-0.24419768138246256,153.4173532904381
1620914447320176023,-0.28004933117397646,-0.22164071091709242,162.44754117371704
1620914447328176023,-0.2807228260358293,-0.20141302299934585,171.1848497430069
1620914447336176023,-0.2812998000732535,-0.18232088506784597,180.0969376493233
1620914447344176023,-0.2818470446850097,-0.16514396674011855,189.15322922589257
1620914447352176023,-0.2823429974279718,-0.1498293213155128,198.0314801542466
1620914447360176023,-0.28276056287628304,-0.13560443788396484,206.59555484173768
1620914447368176023,-0.2831365919610399,-0.12252011950093719,214.7328517086205
1620914447376176023,-0.2834571123308412,-0.11026993330633454,222.99133682579654
1620914447384176023,-0.28379705446809356,-0.10024347372053213,230.96110254749618
1620914447392176023,-0.2840543137867567,-0.09025465324036594,238.48587189072225
1620914447400176023,-0.28432320226717755,-0.08188395048504081,245.96525990669457
1620914447408176023,-0.2845206999001064,-0.07330409325919075,253.2890164583407
1620914447416176023,-0.28473705171113495,-0.06642839851241178,260.63746757319615
1620914447424176023,-0.284949711519906,-0.06068808666273406,267.23279325814696
1620914447432176023,-0.28513464667656147,-0.05515689486433883,273.48491428277526
1620914447440176023,-0.2852930588965264,-0.049808815881473366,279.8472727900358
1620914447448176023,-0.28546048111775274,-0.04556702451630706,286.010441466821
1620914447456176023,-0.28558379731171557,-0.0411572021363429,291.77219798957884
1620914447464176023,-0.2856739809646058,-0.036716000199106154,297.33370038880054
1620914447472176023,-0.28578231485117156,-0.03322750817824516,302.4862783958867
1620914447480176023,-0.28591036390899005,-0.030655371343814807,307.4602220240286
1620914447488176023,-0.28604881732808723,-0.028735588524871066,311.64057474583603
1620914447496176023,-0.28615433336260093,-0.02647338602889151,315.4623008675007
1620914447504176023,-0.28626189707402466,-0.024505875628932125,319.00442371035865
1620914447512176023,-0.28636670928987323,-0.022824313165897142,322.45618724226455
1620914447520176023,-0.28644000245601414,-0.0208638093524936,325.5301641674549
1620914447528176023,-0.28651853242036346,-0.019235037879722573,328.23325618974627
1620914447536176023,-0.28657006510392263,-0.01729973211237002,330.4637961254866
1620914447544176023,-0.2866137037067842,-0.015552672311956199,332.09744471705534
1620914447552176023,-0.2866312744199452,-0.013569616208337179,333.25573423180543
1620914447560176023,-0.28666469023051655,-0.012166721507938705,334.09354853324635
1620914447568176023,-0.2866781365390941,-0.010601421248430203,335.04709454190134
1620914447576176023,-0.28672144580381065,-0.009840242003476591,335.7819712401222
1620914447584176023,-0.2867244295513977,-0.008427599129059105,336.10620513706675
1620914447592176023,-0.28674358519996135,-0.007511818243135724,336.5069017821056
1620914447600176023,-0.28676052982209305,-0.00669451415713981,337.50929442843227
1620914447608176023,-0.28677616894148245,-0.006007124196027117,339.14721513582
1620914447616176023,-0.28678819024810276,-0.00533557832658507,341.1560342699461
1620914447624176023,-0.28679824023426903,-0.0047149204087234,343.2751845449606
1620914447632176023,-0.2868414752475868,-0.0048211782936507545,345.372859722557
1620914447640176023,-0.2868608232804345,-0.004465596130487858,346.89443487158144
1620914447648176023,-0.28687726593056156,-0.004110899163255601,348.191047058027
1620914447656176023,-0.28687495470795876,-0.0034653098230902303,349.11710532936263
1620914447664176023,-0.28687477715262877,-0.002958886149032718,349.55200952143616
1620914447672176023,-0.28688914214296274,-0.0027885702250363556,350.02230605871176
1620914447680176023,-0.28688396520723336,-0.002272785654818678,350.4064515190164
1620914447688176023,-0.2868969905040372,-0.0021783686756846462,350.59839528046206
1620914447696176023,-0.28689190034342527,-0.0017713446989803701,350.7246425641452
1620914447704176023,-0.2869038655671096,-0.001728652049882632,350.63719491050915
1620914447712176023,-0.28689710747864633,-0.0013552757960488297,350.50500861406084
1620914447720176023,-0.2869082767727286,-0.0013601816295456034,350.2998061840934
1620914447728176023,-0.2869006696373722,-0.00100905089899928,350.14203203283205
1620914447736176023,-0.28691133005860475,-0.001055624272641778,350.19824504299663
1620914447744176023,-0.2869203114744913,-0.0010661175607818087,350.12616057626093
1620914447752176023,-0.28691169081597756,-0.0007538579671943058,349.7963655165225
1620914447760176023,-0.28692071761583,-0.0008081798334410547,349.4897647596746
1620914447768176023,-0.28689615865284335,-0.0002611688950876251,349.053978406534
1620914447776176023,-0.2869073062332445,-0.0004287874040222678,348.56904262456817
1620914447784176023,-0.28691689392762076,-0.0005425267483244282,348.3012468156326
1620914447792176023,-0.2868918081072031,7.484116765536596e-07,347.9401005606507
1620914447800176023,-0.2869037209133568,-0.0002190799180875656,347.54598242311835
1620914447808176023,-0.2869138388780288,-0.000373476954313133,347.2974436673124
1620914447816176023,-0.28690700398262203,-0.00021450030634072794,346.76848346362567
1620914447824176023,-0.28691671060249213,-0.00036162676625538074,346.38991678920763
1620914447832176023,-0.2869250044238219,-0.00046064304414681695,345.9789564051321
1620914447840176023,-0.2869174783301549,-0.00026936526354930183,345.6349393108151
1620914447848176023,-0.2869091741715586,-7.378858551300725e-05,345.1878045577564
1620914447856176023,-0.28688730148982405,0.0003274116368099336,344.84803756239086
1620914447864176023,-0.2868839239827945,0.00031832731978656645,344.830867760016
1620914447872176023,-0.28689696758241473,3.0770579064170575e-05,344.39175830766925
1620914447880176023,-0.28690811778876407,-0.000179429934819848,343.9959349414395
1620914447888176023,-0.286882548485248,0.00035980285276159267,343.6651661236297
1620914447896176023,-0.28689589889708383,6.0226873901982126e-05,343.60439598071287
1620914447904176023,-0.2869070542343624,-0.0001545489874355712,343.1927390533691
1620914447912176023,-0.28691670693670684,-0.000309765105816293,342.89586998663606
1620914447920176023,-0.28692499067873567,-0.00041639518443799923,342.6393064200856
1620914447928176023,-0.28693201104866123,-0.00048420554403558907,342.1579613302417
1620914447936176023,-0.28693794780023146,-0.0005225943175862769,342.05479515573313
1620914447944176023,-0.286925509486469,-0.00019224645198388058,341.84371604660447
1620914447952176023,-0.28694806423996844,-0.0005631312277479694,341.5786524489081
1620914447960176023,-0.2869340722379809,-0.00019748046349064223,341.4619118031106
1620914447968176023,-0.2869396956116718,-0.00027229674106046375,341.0244693345023
1620914447976176023,-0.28694452598535825,-0.00032118400214880264,340.7780334267742
1620914447984176023,-0.28694868278862073,-0.00034990419893814905,340.3443470869409
1620914447992176023,-0.28693468438500136,-2.2798595082033215e-05,339.9678936022327
