timestamp,position,velocity,effort
1620914428487504045,1.4977216856750504,-0.0035467299949977628,-303.1132810123639
1620914428495504045,1.497674076609821,-0.003913179040784949,-303.1250534015398
1620914428503504045,1.497706708886946,-0.0027317837173272807,-303.4040699681374
1620914428511504045,1.4976584027680522,-0.003291611821727209,-303.26976233459754
1620914428519504045,1.4976938516763114,-0.00208370368350769,-303.15998068797757
1620914428527504045,1.497692027362487,-0.0017983592876107037,-302.76726546943684
1620914428579545058,1.4972392012974745,-0.00672771953967327,-302.8738678673164
1620914428580545058,1.497233048520699,-0.006718979047891498,-302.91514011145597
1620914428581545058,1.4972664779378755,-0.00591973222482302,-302.9578131362803
1620914428582545058,1.4972972790936259,-0.005195686437088023,-302.7660963545537
1620914428583545058,1.4972898902098533,-0.0052396394411726365,-302.57368718745215
1620914428584545058,1.4972824733688601,-0.0052807717408632675,-302.4410712579092
1620914428585545058,1.4972754469135459,-0.005316922231998298,-302.31543557238365
1620914428591545058,1.497311471410104,-0.003973250574811802,-301.2151608028041
1620914428599545058,1.4973969768051858,-0.0017896382583023533,-295.66510076015413
1620914428607545058,1.4974352261343877,-0.0008317949476411088,-283.36922055019227
1620914428615545058,1.4974647378366515,-0.00020171997471232737,-266.63080399498955
1620914428623545058,1.4973053259082354,-0.0032001815903854114,-247.6050805700808
1620914428631545058,1.496634164583029,-0.015245619304446336,-228.59081670879178
1620914428639545058,1.4957100338350424,-0.030143744265210215,-209.88666986866755
1620914428647545058,1.4945205207343406,-0.04771351431720365,-191.56322911956724
1620914428655545058,1.4931377171668379,-0.06620984894541997,-174.1741253154493
1620914428663545058,1.49163191426931,-0.08424584373689242,-158.0207986866181
1620914428671545058,1.490093350436708,-0.10048004148602115,-143.00992796307105
1620914428679545058,1.4883316376984868,-0.11819975850416616,-129.0186782423252
1620914428687545058,1.4864982713837327,-0.13463192266976112,-116.3712562303849
1620914428695545058,1.4846918317697404,-0.14808506812818067,-104.86790168704324
1620914428703545058,1.4829888709419452,-0.15771186486888106,-94.80698636730176
1620914428711545058,1.481384449142304,-0.16404022895270956,-85.73839938523827
1620914428719545058,1.4796870828271222,-0.17107161477607732,-77.44293442323001
1620914428727545058,1.4780837868427525,-0.17513776663990152,-70.15887357359688
1620914428735545058,1.476574288124272,-0.1773935969055791,-63.44390943565604
1620914428743545058,1.4752357601916233,-0.1759624095328718,-57.50949312727786
1620914428751545058,1.4738245924548061,-0.17559336431980066,-52.29927437982026
1620914428759545058,1.472677753498007,-0.17080804347792974,-47.7785654824511
1620914428767545058,1.4716020728194952,-0.16576529019686922,-43.83387538096305
1620914428775545058,1.4704922468054138,-0.16175752762414708,-40.00928861355974
1620914428783545058,1.469361053289906,-0.1584993168895969,-36.71266046786777
1620914428791545058,1.4682584249592519,-0.15531318277958547,-33.63671113838231
1620914428799545058,1.4673342658366382,-0.14969837930375388,-30.610760139454918
1620914428807545058,1.4663891310214896,-0.1449886760503236,-27.931755840213526
1620914428815545058,1.4654788490618313,-0.14028229210103246,-25.456171076072557
1620914428823545058,1.4647311512104402,-0.1333244022617935,-23.198818801050898
1620914428831545058,1.4639950668839898,-0.12734712671531587,-21.06724419402089
1620914428839545058,1.4631867447404387,-0.12342251364180307,-19.09597837810151
1620914428847545058,1.4623453026006266,-0.12067130806989695,-17.302701816980097
1620914428855545058,1.4614178994328797,-0.12004851349965319,-15.598643554703667
1620914428863545058,1.460417112253551,-0.12084167246747171,-14.108335907346431
1620914428871545058,1.4592685278355872,-0.12419910860509964,-12.464923853181723
1620914428879545058,1.458152102623012,-0.12640984120838453,-10.912690923806876
1620914428887545058,1.4569044983920074,-0.13066964593700242,-9.552146525596786
1620914428895545058,1.455496881144722,-0.13760072197106551,-8.287663452748498
1620914428903545058,1.453929514871131,-0.1462648908288203,-7.2155221716552385
1620914428911545058,1.452328542065522,-0.15397747913190238,-6.206391127446635
1620914428919545058,1.4506407850023346,-0.1622217458249301,-5.05840198818127
1620914428927545058,1.448962971954085,-0.16969398843588562,-4.025752674134521
1620914428935545058,1.4470649105611482,-0.17972431218325902,-2.9824479009823093
1620914428943545058,1.4449660811113272,-0.19164341429276982,-2.0204011911380655
1620914428951545058,1.4427125722443253,-0.20477272757947607,-1.089933408431259
1620914428959545058,1.4404130756382396,-0.2175141528978943,-0.2728210564056723
1620914428967545058,1.4380179936017219,-0.2296371558493186,0.9889974641564443
1620914428975545058,1.4356726667207604,-0.238758115065968,2.0783008466888004
1620914428983545058,1.4331300650012229,-0.2506353090323734,3.216387866499461
1620914428991545058,1.4305622550808499,-0.2611865507827354,4.406098450469807
1620914428999545058,1.4278621134396727,-0.27242898978334235,5.343496967498535
1620914429007545058,1.4252419923899255,-0.28060328333525136,6.746508979098824
1620914429015545058,1.4225915418474604,-0.2875333851502783,8.16683175967885
1620914429023545058,1.4199483638806443,-0.29434652269339645,9.721009196508986
1620914429031545058,1.4172422718828268,-0.3009561455684692,11.2865442462217
1620914429039545058,1.4141910348518432,-0.3127371311168814,12.999361140192624
1620914429047545058,1.4107759720321245,-0.32905406144059013,14.723101833228714
1620914429055545058,1.4072413352748139,-0.3466945138792618,16.296740119431494
1620914429063545058,1.4032895117639657,-0.3686377517042941,18.010006759894647
1620914429071545058,1.398955365622269,-0.39355691905844353,19.618840311428013
1620914429079545058,1.3942215548948793,-0.42217973783998974,21.35770533851189
1620914429087545058,1.3894598531820357,-0.4494682095409481,23.07461413171736
1620914429095545058,1.3843480305545204,-0.4775636473737901,25.02177925316771
1620914429103545058,1.3788714290350519,-0.5076525816809628,26.69286099247231
1620914429111545058,1.3731695393637104,-0.5374474538919911,27.89163789074573
1620914429119545058,1.3672054975808112,-0.5694742427416063,29.0575302175035
1620914429127545058,1.3608740497664684,-0.6026254211284521,30.591078676520084
1620914429135545058,1.354067453886379,-0.6389842352404295,31.851995262230304
1620914429143545058,1.3467938855641932,-0.6787098113883213,33.2207484971548
1620914429151545058,1.3392442235104305,-0.7189357527022342,34.69009718151638
1620914429159545058,1.3311596365089426,-0.7620026153009283,35.6685335088872
1620914429167545058,1.3226809240656314,-0.8053751789167696,36.86341276014362
1620914429175545058,1.3140463276780516,-0.8460021758780245,37.50155436012038
1620914429183545058,1.3052287764523887,-0.8847262638448667,38.46034731997561
1620914429191545058,1.2962288771314197,-0.9203325136521526,39.42683892502396
1620914429199545058,1.2869519079199783,-0.9547913655265642,40.56343958629126
1620914429207545058,1.2774848075513006,-0.9887046035346962,41.43989793716521
1620914429215545058,1.2679347862630819,-1.020033131222474,41.90074339826406
1620914429223545058,1.2581503830514735,-1.0501060072924098,42.55199166125189
1620914429231545058,1.248061033575582,-1.0807901829679,43.393396474902566
1620914429239545058,1.2379076173110704,-1.1083712559147962,44.05007624875971
1620914429247545058,1.2280926563813959,-1.126661258541473,44.67428559197575
1620914429255545058,1.2185617580455226,-1.135998554757993,45.278407739798745
1620914429263545058,1.2092627040588675,-1.139707436955223,45.716235654702174
1620914429271545058,1.200194045117827,-1.1370081745359804,46.31131662106273
1620914429279545058,1.1915325550920726,-1.130546552612662,46.55809495878114
1620914429287545058,1.1830884140778857,-1.1196714716431713,46.923780218190686
1620914429295545058,1.1748089978001448,-1.1061359281358818,47.16275228161062
1620914429303545058,1.1666631520336996,-1.0915579878621398,47.82060326640536
1620914429311545058,1.158764150989953,-1.0786407924071229,48.28184912214161
1620914429319545058,1.1507891256124843,-1.0666397501010023,48.938834081126885
1620914429327545058,1.1428433678459755,-1.0550430379256215,49.276667198970976
1620914429335545058,1.1348149126598053,-1.046439769842788,49.34791810447073
1620914429343545058,1.126860237595912,-1.0401449499778868,49.35273651303708
1620914429351545058,1.1188735871701256,-1.0341839367070602,49.488497008212626
1620914429359545058,1.1107713015746008,-1.029390308285587,49.523538215236904
1620914429367545058,1.1026853057998518,-1.0259178337651724,49.379373551315446
1620914429375545058,1.0947230311255929,-1.0237573179330623,49.57513653643096
1620914429383545058,1.0866550468530936,-1.0212857294178217,49.668462195855156
1620914429391545058,1.0785332202674356,-1.0188956031591128,49.750640259392455
1620914429399545058,1.070499570029572,-1.0174559028115386,50.08857429508288
1620914429407545058,1.062385697198078,-1.017749531297014,50.15017595402183
1620914429415545058,1.0541550722494777,-1.0192192493723269,50.24291514759101
1620914429423545058,1.0459802217658452,-1.0194451182765365,50.54864228561025
1620914429431545058,1.0377568117258422,-1.0201509747589594,50.65614563527595
1620914429439545058,1.0296232804644911,-1.0207246083740062,51.06376381818298
1620914429447545058,1.021508629918579,-1.0198891152436398,51.429149082568784
1620914429455545058,1.013366270026789,-1.0183377248914645,51.725852863723226
1620914429463545058,1.0052289336302889,-1.0173382337686248,51.99552588731506
1620914429471545058,0.9972250838928487,-1.0169233570358929,52.24831449895105
1620914429479545058,0.9890016969187002,-1.0186748015211233,52.55204628116726
1620914429487545058,0.9806753938180478,-1.0215191971597866,52.5803448568203
1620914429495545058,0.9721242063518053,-1.0287985426554989,52.41586978825154
1620914429503545058,0.9635014504144817,-1.0362693477828813,52.23892502860825
1620914429511545058,0.954795042716813,-1.0437594491211186,52.088656108780924
1620914429519545058,0.9460259475626535,-1.051479416978689,51.5218036044996
1620914429527545058,0.9370202361170923,-1.058131521136904,51.38006496507715
1620914429535545058,0.9285239300838594,-1.0632337491808652,51.19099363220599
1620914429543545058,0.9197420875208977,-1.0683243052054305,51.05616096351281
1620914429551545058,0.9109039279214671,-1.0736396386787337,50.93804852922503
1620914429559545058,0.902020518743269,-1.0783195757919612,50.765707614869235
1620914429567545058,0.8932251851602128,-1.0823768534298734,50.47367999210717
1620914429575545058,0.8843360800598415,-1.086438498571623,50.21748782256932
1620914429583545058,0.8754460473067237,-1.0891105647591244,50.13947151376946
1620914429591545058,0.8665075975934489,-1.0925165876587106,50.07725231268418
1620914429599545058,0.8576396899221779,-1.0966616473987232,50.10161925008622
1620914429607545058,0.8485729349633707,-1.1022754025851653,50.42124903896928
1620914429615545058,0.8393747636790534,-1.108175168446644,50.433065256247076
1620914429623545058,0.8303450952569835,-1.1111560778077911,50.17833733803755
1620914429631545058,0.8215666933948821,-1.11017201360956,50.071694992059065
1620914429639545058,0.8128609451896686,-1.1069840175997918,49.9113264531122
1620914429647545058,0.8042726368762821,-1.101127956083261,49.84966639680063
1620914429655545058,0.7958268053326968,-1.0942421096284247,49.86665784464032
1620914429663545058,0.7875181670955078,-1.086785422432055,49.622619820989286
1620914429671545058,0.7792873920860347,-1.0784136254638663,49.493875231426
1620914429679545058,0.7711149803169831,-1.0697111724145212,49.30596445609127
1620914429687545058,0.7628894629070027,-1.063013165816098,49.332430664112636
1620914429695545058,0.7547284038121591,-1.0571404655581618,48.83848809856534
1620914429703545058,0.7465754106629938,-1.051857988213251,48.3853307398766
1620914429711545058,0.7382556704160735,-1.0482443935243797,48.17449123022898
1620914429719545058,0.7300298990907088,-1.0442053314546054,47.99392686191099
1620914429727545058,0.7220308407451735,-1.040562751795904,47.77401707219616
1620914429735545058,0.7138272739839431,-1.0382658706873478,47.73157318605891
1620914429743545058,0.705564882525228,-1.036630217009161,47.48139937544169
1620914429751545058,0.6972602351618511,-1.0363569945630597,47.22351579127191
1620914429759545058,0.6890740125104721,-1.0357366251142526,46.46982627491086
1620914429767545058,0.6807900129294547,-1.0357635425887979,46.16667460069113
1620914429775545058,0.6723692631762228,-1.0365408644249565,45.42983603760699
1620914429783545058,0.664074938475176,-1.0363113603740817,45.13764637170114
1620914429791545058,0.6559754582700957,-1.0347126739215098,44.90225606043954
1620914429799545058,0.6478234313283227,-1.0324128454152457,44.13908457699647
1620914429807545058,0.6396984610818028,-1.0289314050038278,43.559379901367464
1620914429815545058,0.6315740025070289,-1.025778115624382,43.21022370382166
1620914429823545058,0.6235800200109762,-1.0240358506811218,43.02896123612374
1620914429831545058,0.615422026387263,-1.0234460640989622,43.02861306073877
1620914429839545058,0.6071994969787553,-1.022669611659741,42.603582568947395
1620914429847545058,0.5989569372238144,-1.0222956124515652,42.50796034480457
1620914429855545058,0.5909004985426186,-1.022612685930435,42.31793600521391
1620914429863545058,0.5827148046868539,-1.023055911410767,41.838012930631834
1620914429871545058,0.5743729431117848,-1.0246719529344752,41.639567961453835
1620914429879545058,0.566063498971209,-1.0259094842698464,41.17206969760258
1620914429887545058,0.5579451353654605,-1.0259636814470745,40.994498030779
1620914429895545058,0.5497160732135141,-1.0264183083798644,40.97892877554302
1620914429903545058,0.5414439546713641,-1.0273977093308755,40.24208416952024
1620914429911545058,0.5331291565830093,-1.0286729406018684,39.68112757296527
1620914429919545058,0.5248658854432475,-1.030307154230916,39.05824890700579
1620914429927545058,0.516479962111408,-1.0330998867620464,38.646140199949826
1620914429935545058,0.5080646513935958,-1.0352058646573692,38.15832502604995
1620914429943545058,0.4996241516991908,-1.0381337393027608,37.643999572254195
1620914429951545058,0.49114296060726564,-1.0420689542464168,37.17962716188718
1620914429959545058,0.48249277334374513,-1.0479677674706662,37.00374353269003
1620914429967545058,0.47371496023200227,-1.0543788536403567,36.74158633222237
1620914429975545058,0.4648732914257672,-1.0616150002570897,36.474765698945546
1620914429983545058,0.4561248888502037,-1.0674397456596665,36.10570400049444
1620914429991545058,0.44735420320189634,-1.0712125613372148,35.819996216296296
1620914429999545058,0.43874449701167106,-1.0717641659058454,35.39289355513497
1620914430007545058,0.43030443829198844,-1.0687032577624664,35.15473152057463
1620914430015545058,0.422123472198242,-1.0630179855148003,34.90614966913694
1620914430023545058,0.41399199568334644,-1.0559774262124362,34.844505819935335
1620914430031545058,0.4058518636569811,-1.0492894278890972,34.549962501085574
1620914430039545058,0.3976806272457463,-1.0447471589633395,34.46425803406411
1620914430047545058,0.3895988729994822,-1.0412687342414866,34.252151466244804
1620914430055545058,0.3814407490459328,-1.0377792475734575,34.02728495926981
1620914430063545058,0.3732818988756096,-1.035043780343755,33.65168626435967
1620914430071545058,0.36511853526423865,-1.0314769287177965,33.521678398051144
1620914430079545058,0.35715019523005714,-1.028034641421063,33.30504194871194
1620914430087545058,0.3491383668845387,-1.0240638941221758,32.854406414230255
1620914430095545058,0.34101550069149666,-1.0214528474607356,32.567041412311774
1620914430103545058,0.3329541210273862,-1.0183375422450385,32.034560614981665
1620914430111545058,0.3250896034841496,-1.0154872809916886,31.66164916139758
1620914430119545058,0.3171096702608035,-1.012864039570614,31.16147110529927
1620914430127545058,0.3091641747482371,-1.0096537116101192,30.848111776115875
1620914430135545058,0.30119542790526144,-1.006762056499381,30.57131030036041
1620914430143545058,0.29339222067971343,-1.0033617881413983,30.44619485541609
1620914430151545058,0.28559314353000015,-0.9990746259721673,30.344291444094193
1620914430159545058,0.27783293785715196,-0.9943879866831334,29.997079247023432
1620914430167545058,0.27005991619731123,-0.9889717321246121,29.395371552514913
1620914430175545058,0.262576355731856,-0.9834266395457376,29.152886254958208
1620914430183545058,0.25498754562782117,-0.9783438785231751,29.20048023384623
1620914430191545058,0.24733243217865414,-0.9744468718227438,29.069850926993766
1620914430199545058,0.2395953098887165,-0.9720859607177063,29.107021917879223
1620914430207545058,0.2318951818295197,-0.972775599142218,29.199975068892254
1620914430215545058,0.22396204867013503,-0.9755863748773147,28.834236251806928
1620914430223545058,0.21586068633620006,-0.9795495219186499,28.331692988009898
1620914430231545058,0.2076897672836212,-0.9851415175047575,27.728517041787743
1620914430239545058,0.19967313692140076,-0.9899265714678975,27.052606825980234
1620914430247545058,0.19150335735416196,-0.9943306802869636,26.562467632098574
1620914430255545058,0.1834192462452673,-0.9956918756852733,26.244229511405933
1620914430263545058,0.17550847046711832,-0.9948043807400754,26.14251994725193
1620914430271545058,0.1678375212397285,-0.9904630285562523,25.977329885130292
1620914430279545058,0.16019842862345712,-0.9851098138178649,26.058460998598825
1620914430287545058,0.15260122437275492,-0.9797249021362905,26.29970475769452
1620914430295545058,0.1449677106128198,-0.9753324514775196,26.506441545357355
1620914430303545058,0.13739909680114207,-0.9717625343820103,26.69005367506817
1620914430311545058,0.12976712556306813,-0.9691900894573693,26.844508272607822
1620914430319545058,0.12217398783972885,-0.9661386522024007,26.577306429980705
1620914430327545058,0.1146287572694089,-0.962471696077594,26.57096768119501
1620914430335545058,0.10712183320386114,-0.9591890168962158,26.485672798163854
1620914430343545058,0.09971007303149049,-0.9543357320536179,26.386752157036863
1620914430351545058,0.09229470640988861,-0.9493224187321735,26.775637058375143
1620914430359545058,0.08489994294175336,-0.9448145639130424,26.90075522889353
1620914430367545058,0.07760745426051469,-0.9416679693075823,27.277716060991093
1620914430375545058,0.07020403436484615,-0.9390905124526004,27.343241762714122
1620914430383545058,0.062742767495042,-0.9373842270194008,27.147969814362106
1620914430391545058,0.05534935524252185,-0.9356016757349473,27.01579726043394
1620914430399545058,0.04801952792826966,-0.9333063995502495,26.995223641507
1620914430407545058,0.04084978994402712,-0.9279765762261706,27.36851651815172
1620914430415545058,0.0337325746675546,-0.9216058463104534,27.415125941475445
1620914430423545058,0.02667865379925145,-0.914205440268981,27.77012798062523
1620914430431545058,0.019943348367950163,-0.9055781627667128,28.24439374559042
1620914430439545058,0.01322811790509001,-0.8955937141269814,28.547314867923504
1620914430447545058,0.006502636741493132,-0.8875889941530996,28.713604976996017
1620914430455545058,-0.00026681082233248545,-0.8801310011838559,29.165944286879864
1620914430463545058,-0.006986616239427356,-0.8755754687349806,29.707205561839814
1620914430471545058,-0.013778711051019342,-0.8717436330027728,30.078552819544228
1620914430479545058,-0.02072406070840333,-0.8708506782285912,30.1006393357324
1620914430487545058,-0.02772348864264114,-0.870517930407326,30.722167729598077
1620914430495545058,-0.03455568123718651,-0.8691544915308332,30.97057974314379
1620914430503545058,-0.04145014388975074,-0.8683060972693253,31.45695194117293
1620914430511545058,-0.04833913931972868,-0.8655794877800067,31.648663856738867
1620914430519545058,-0.05511708993352493,-0.8627603681287721,31.638200671396373
1620914430527545058,-0.06171095667112811,-0.8587579391373613,31.938108554985373
1620914430535545058,-0.06842099586934959,-0.8556419537182809,32.1975122549166
1620914430543545058,-0.07513589145011022,-0.8524682536073442,32.65544632697414
1620914430551545058,-0.08177885767810628,-0.8490250764855162,32.99588122654723
1620914430559545058,-0.0882964215807715,-0.8450654024051049,33.149526616268915
1620914430567545058,-0.09482387089505322,-0.8407443882683279,33.57557315371923
1620914430575545058,-0.10122062695144665,-0.8340149349181463,34.07789418218428
1620914430583545058,-0.10755062452836425,-0.8264897071732066,34.59233677332906
1620914430591545058,-0.11363390613240493,-0.8184170008565176,35.04807106822905
1620914430599545058,-0.11974758255763764,-0.810428404305372,35.44954087477683
1620914430607545058,-0.12584906918143282,-0.8029374302616946,35.94622831196343
1620914430615545058,-0.13192486809024237,-0.7953740666191239,36.40180888026272
1620914430623545058,-0.13788713421696194,-0.7892517236042254,37.41124548956664
1620914430631545058,-0.1438449967854504,-0.7824215040970005,38.241686961549256
1620914430639545058,-0.1497290697477556,-0.7751288708025005,38.87049368099838
1620914430647545058,-0.15548202277122455,-0.7664896784127376,39.899329416649195
1620914430655545058,-0.16112363810674446,-0.7584296466793075,40.52095700918315
1620914430663545058,-0.16675315729220033,-0.7503097071036494,41.48779642472237
1620914430671545058,-0.17236107022479816,-0.7428941111813306,42.86328117253551
1620914430679545058,-0.17803783281525726,-0.7368667534456591,43.7806902937195
1620914430687545058,-0.183551028291123,-0.7310905406707149,45.09478184417522
1620914430695545058,-0.1890552728899915,-0.7245515277890425,46.075410788876745
1620914430703545058,-0.19457751299823522,-0.7187387991917406,47.51719588838923
1620914430711545058,-0.19994718487703889,-0.7115101226419657,48.9628810542465
1620914430719545058,-0.20514414816734816,-0.7032466644323132,50.15805425958292
1620914430727545058,-0.21025972748157581,-0.6937351837368216,51.91510526489262
1620914430735545058,-0.21518715674593836,-0.6822386115994509,53.551695039507415
1620914430743545058,-0.22005867850675828,-0.6702971849817306,55.345612553752275
1620914430751545058,-0.22462356258926403,-0.6566856546506249,57.163105444603566
1620914430759545058,-0.22910363513287782,-0.6423878595178909,58.95789016435667
1620914430767545058,-0.2335221971409553,-0.6284770406187559,61.02311713015269
1620914430775545058,-0.2378905682017214,-0.6157292441216419,63.02614596634064
1620914430783545058,-0.2421520214427642,-0.6045667237081386,65.44166136514698
1620914430791545058,-0.24640749959973324,-0.5937544858948468,68.15357589054372
1620914430799545058,-0.25062537252863165,-0.5831387714514074,70.59364669120735
1620914430807545058,-0.25476592657751485,-0.5728778642244979,73.15739496588287
1620914430815545058,-0.2586150798986514,-0.5603407382684692,75.87435920679422
1620914430823545058,-0.2620947387579429,-0.5418916630792822,79.52839839573356
1620914430831545058,-0.2650947602469871,-0.5168512343853503,83.94738563685391
1620914430839545058,-0.2677008356111467,-0.4881861956282653,89.02723491013818
1620914430847545058,-0.26987803491316575,-0.45669159341977555,94.76252905686975
1620914430855545058,-0.2718043054459085,-0.42460664787329716,101.32345715918231
1620914430863545058,-0.2735025686206418,-0.39327092330044866,108.26332488059674
1620914430871545058,-0.27501333429958424,-0.36256606759257143,115.27460214133623
1620914430879545058,-0.2762974108338774,-0.3330753746972946,122.57802192020685
1620914430887545058,-0.2774654140548041,-0.30537444699724065,130.68120490518427
1620914430895545058,-0.2784704319795415,-0.27827446598156086,139.30069634879789
1620914430903545058,-0.2793504094311426,-0.2533811340500268,147.9554237367398
1620914430911545058,-0.28014150849903635,-0.2309519678262629,156.68923759015684
1620914430919545058,-0.2808085078076575,-0.20913794955028014,165.70206597916933
1620914430927545058,-0.2814587818251087,-0.19012829696262906,174.5013234359783
1620914430935545058,-0.28201662559450075,-0.17202409009086875,183.4370883935308
1620914430943545058,-0.2824817603822086,-0.15543984649677156,192.0613855509851
1620914430951545058,-0.28288286461347906,-0.13986284839627375,200.48554060952608
1620914430959545058,-0.28327791652249573,-0.12630753123860705,209.1266417989035
1620914430967545058,-0.2836302961308437,-0.11401232040865418,217.52181274713078
1620914430975545058,-0.2839723330113876,-0.10375559672703828,225.52236676075134
1620914430983545058,-0.2842855909366982,-0.09413923090007796,232.93277129914884
1620914430991545058,-0.28456766814121487,-0.08543692450582795,240.37630791273844
1620914430999545058,-0.2848108604630509,-0.07718903319296198,247.7583611008737
1620914431007545058,-0.2850469964129329,-0.07024651223885686,254.6959884038281
1620914431015545058,-0.28526904481167353,-0.06399923265183359,261.73540028275823
1620914431023545058,-0.28542326419776753,-0.0573528426282821,268.34853578838226
1620914431031545058,-0.2855865060734503,-0.05187581269497772,274.69416566473495
1620914431039545058,-0.28574179370809905,-0.04711650389068509,280.785809570517
1620914431047545058,-0.2859083411717411,-0.043239959586303736,286.4120812642845
1620914431055545058,-0.2860015432467614,-0.03853470742048298,291.86605121206554
1620914431063545058,-0.28612961690908995,-0.035184451199447984,297.05128211139254
1620914431071545058,-0.2862528901938633,-0.03231381605429831,302.24130219087596
1620914431079545058,-0.2863593264123733,-0.029496657942059943,306.49803226849525
1620914431087545058,-0.2864338340229181,-0.02646724619519239,310.336386078292
1620914431095545058,-0.28649606049555326,-0.023683505085924598,314.0940670586426
1620914431103545058,-0.28655023187960693,-0.02122582850309681,317.42979164669305
1620914431111545058,-0.2866126247342653,-0.01923964932765019,320.4698512125921
1620914431119545058,-0.28666603480182196,-0.01736819630979667,323.4044098224488
1620914431127545058,-0.2867116006413391,-0.01562500767459787,325.80693187515516
1620914431135545058,-0.286749993291106,-0.014033241389893855,327.9472276381386
1620914431143545058,-0.28678271523657184,-0.012572398336485921,330.2807895977869
1620914431151545058,-0.28681106908791687,-0.011215577267420913,332.8598803437856
1620914431159545058,-0.28683509378958383,-0.009988275317034787,335.2305916680822
1620914431167545058,-0.2868550400380043,-0.008905811779712135,337.81181446255675
1620914431175545058,-0.2869233947371747,-0.008880752929832546,340.1720557021602
1620914431183545058,-0.2869795146775851,-0.008600193455699496,342.1888071872557
1620914431191545058,-0.28702955605360636,-0.00827042550306544,344.0183326283926
1620914431199545058,-0.2871012283326698,-0.008382117049541405,345.29607577670305
1620914431207545058,-0.2870990319749565,-0.007098444125968058,346.2221161198359
1620914431215545058,-0.28712919165131373,-0.006583490069233557,346.82164989694905
1620914431223545058,-0.28710574032639324,-0.005166689679390625,347.1187659832958
1620914431231545058,-0.2871191225606558,-0.004649075834617658,347.2460375194695
1620914431239545058,-0.28709743461193926,-0.0035618356050518976,347.2791861847159
1620914431247545058,-0.2870955398230814,-0.0029880010018278097,347.3504240727626
1620914431255545058,-0.2870773569357459,-0.0022113804411238633,347.18857550327357
1620914431263545058,-0.2870618304962473,-0.0015978854920766052,347.0436947837027
1620914431271545058,-0.2870486097551319,-0.0011178148234773173,346.77145209160494
1620914431279545058,-0.287054292322843,-0.0010663569504210544,346.619807253585
1620914431287545058,-0.2870756311027995,-0.0013060599539268581,346.5306200297271
1620914431295545058,-0.2870767440304175,-0.0011133930738825475,346.3407453251293
1620914431303545058,-0.28707709611356974,-0.0009455132992047914,345.9503030257335
1620914431311545058,-0.28706147819779726,-0.000516644270272756,345.77122809595824
1620914431319545058,-0.2870482216415342,-0.00019540163538705256,345.39289258604305
1620914431327545058,-0.2870371930280455,3.672254396037517e-05,345.1434565238043
1620914431335545058,-0.2870429346363312,-5.2493629010940055e-05,344.6453431254124
1620914431343545058,-0.2870324198702513,0.0001491155062021383,344.44597798258695
1620914431351545058,-0.2870234040232611,0.0002800939245514595,343.9697572530305
1620914431359545058,-0.287015941910634,0.0003768630543437517,343.78463067150125
1620914431367545058,-0.28700948846292934,0.00043999548374828496,343.2944351084256
1620914431375545058,-0.2870217331028667,0.00012498611899749285,342.8504494241175
1620914431383545058,-0.2870143457514904,0.00024235840370185162,342.22885240327207
1620914431391545058,-0.28700824783109924,0.00031975222137382533,341.7202764981059
1620914431399545058,-0.2870347971401955,-0.00021097272901897718,341.2877676228902
1620914431407545058,-0.2870433059133364,-0.00035343531349685573,340.7979450947868
1620914431415545058,-0.2870328313794395,-0.0001080214827282625,340.5341893994567
1620914431423545058,-0.2870390664837443,-0.00018540013657643683,340.485120464764
1620914431431545058,-0.28702924075817027,2.3195981367158148e-05,340.22676202323527
1620914431439545058,-0.28705436470073725,-0.0004491954007624083,340.1125611527578
1620914431447545058,-0.28704206811381067,-0.00015530925683285654,339.7602454137403
1620914431455545058,-0.2870319559218976,5.404296372216503e-05,339.50472771396363
1620914431463545058,-0.2870403206169361,-0.0001246316714866051,339.3895143300707
1620914431471545058,-0.2870302038287815,8.039607770567151e-05,339.1845555211387
1620914431479545058,-0.2870215792937155,0.00022733355286783599,338.97628369360143
1620914431487545058,-0.2870298901272614,6.257879456889119e-05,338.9106416150478
1620914431495545058,-0.2870213828808279,0.0002102061022912731,338.8459167474092
1620914431503545058,-0.2870295145971886,4.512813920757256e-05,338.6870104005006
1620914431511545058,-0.2870209996275437,0.00019532561482058338,338.5854866589885
1620914431519545058,-0.28703089520677416,-2.504851567178746e-05,338.35061523790307
1620914431527545058,-0.28702224610758575,0.0001381713626015667,338.2881892901761
1620914431535545058,-0.2870148353062624,0.00025423716852752,338.3196966892856
1620914431543545058,-0.2870085755457927,0.0003322015435493731,338.3499046995929
1620914431551545058,-0.2870032487200566,0.0003815556832677355,338.3525040521253
1620914431559545058,-0.28701527041049424,0.00010072974477622244,339.12221358298353
1620914431567545058,-0.28700890135753554,0.00020317730389770024,340.4771127641683
1620914431575545058,-0.2869877677563571,0.000546484733781024,341.88875773095725
